drug,0,1,2,3,4,5,6,7,8,9,10,11,12,13,14,15,16,17,18,19,20,21,22,23,24,25,26,27,28,29,30,31,32,33,34,35,36,37,38,39,40,41,42,43,44,45,46,47,48,49,50,51,52,53,54,55,56,57,58,59,60,61,62,63,64,65,66,67,68,69,70,71,72,73,74,75,76,77,78,79,80,81,82,83,84,85,86,87,88,89,90,91,92,93,94,95,96,97,98,99,100,101,102,103,104,105,106,107,108,109,110,111,112,113,114,115,116,117,118,119,120,121,122,123,124,125,126,127,128,129,130,131,132,133,134,135,136,137,138,139,140,141,142,143,144,145,146,147,148,149,150,151,152,153,154,155,156,157,158,159,160,161,162,163,164,165,166,167,168,169,170,171,172,173,174,175,176,177,178,179,180,181,182,183,184,185,186,187,188,189,190,191,192,193,194,195,196,197,198,199,200,201,202,203,204,205,206,207,208,209,210,211,212,213,214,215,216,217,218,219,220,221,222,223,224,225,226,227,228,229,230,231,232,233,234,235,236,237,238,239,240,241,242,243,244,245,246,247,248,249,250,251,252,253,254,255
CID000003404,0.20303761959075928,0.035658638924360275,0.199295774102211,-0.02193884551525116,0.4672220051288605,0.2377067357301712,-0.06565803289413452,-0.05238990858197212,-0.18287059664726257,-0.09638042747974396,-0.0375780388712883,-0.06641167402267456,0.048068538308143616,-0.020003631711006165,-0.13962018489837646,-0.15817700326442719,-0.051001884043216705,-0.15001161396503448,0.17662087082862854,-0.02536167949438095,-0.022282496094703674,-0.1432192474603653,-0.6127957105636597,0.016333026811480522,0.060723256319761276,0.0030252039432525635,-0.25592297315597534,0.36770758032798767,0.10488341748714447,0.08012925088405609,-0.37845250964164734,-0.14424991607666016,-0.4389840364456177,0.2773132920265198,0.08970579504966736,0.03396829962730408,0.1570591926574707,-0.0378948450088501,0.18105287849903107,0.04491151124238968,-0.02818898670375347,-0.2771531641483307,-0.07032416015863419,0.12339623272418976,0.16024450957775116,0.05721302330493927,-0.008612945675849915,0.0020253583788871765,-0.032155364751815796,0.2747650742530823,-0.1573013961315155,0.1850159615278244,-0.02091781049966812,0.0010506361722946167,-0.18518784642219543,-0.02429427020251751,0.05566146969795227,-0.15966565907001495,-0.03415228798985481,0.008977025747299194,-0.21762606501579285,-0.22500693798065186,-0.15418878197669983,0.057918909937143326,0.05616728588938713,-0.06806834787130356,-0.2479637861251831,0.3921888768672943,-0.028782449662685394,0.030034594237804413,-0.05802956223487854,-0.04177764803171158,0.31732603907585144,0.012372851371765137,0.09022900462150574,-0.04474529251456261,-0.04062484949827194,-0.24061544239521027,0.09250463545322418,0.2809648811817169,-0.09274706244468689,0.0689082145690918,-0.1530309021472931,-0.3135320842266083,0.26803404092788696,-0.0018742643296718597,-0.20875024795532227,-0.21095232665538788,-0.0666690394282341,0.14403414726257324,-0.02500360831618309,0.05026944726705551,0.14570602774620056,0.04094051569700241,-0.2354380488395691,-0.11917044967412949,0.04615325108170509,-0.08714870363473892,-0.023639345541596413,-0.03079323098063469,-0.08485700935125351,0.0280156172811985,0.4282474219799042,-0.15014350414276123,-0.2674409747123718,0.14870117604732513,-0.09070244431495667,-0.22204676270484924,0.10657232254743576,-0.028009090572595596,-0.04172639176249504,-0.10343915969133377,0.2106502652168274,-0.11125992983579636,-0.03898089751601219,0.26352325081825256,0.12387701123952866,0.014689847826957703,-0.14672034978866577,0.007616851478815079,-0.02293451875448227,-0.05337535962462425,0.0009351968765258789,0.018993493169546127,0.051246993243694305,0.08578439801931381,-0.3904971182346344,-0.1469099074602127,0.020333610475063324,-0.10157936066389084,0.01947447471320629,-0.0565023198723793,-0.01852862909436226,0.10655798017978668,0.06260940432548523,-0.01621852070093155,0.09450936317443848,0.06581935286521912,-0.026494862511754036,-0.05791885405778885,-0.05916326120495796,0.043608471751213074,0.2847151458263397,-0.08332385867834091,-0.06982658058404922,0.13387586176395416,0.022205423563718796,0.00447939895093441,0.03541462868452072,-0.1041349396109581,-0.07925862073898315,-0.08700060099363327,0.34955674409866333,0.14158831536769867,-0.4982183277606964,-0.06987033784389496,0.039105866104364395,0.35223013162612915,0.03099377453327179,-0.08926773816347122,-0.2952965497970581,0.10398994386196136,-0.1743338406085968,0.01650267094373703,0.3170715868473053,0.010196711868047714,-0.032026927918195724,0.2744951546192169,-0.033381249755620956,-0.016273310407996178,0.023557081818580627,0.09317738562822342,-0.10165795683860779,-0.0635489970445633,-0.0025570914149284363,-0.06408315896987915,0.020322751253843307,0.10393152385950089,0.6437994241714478,0.17338064312934875,0.04752481356263161,0.06815353035926819,-0.9074982404708862,-0.010096393525600433,0.01803077757358551,-0.1801767647266388,0.3322802484035492,-0.05933919548988342,-0.0510648749768734,0.3039676547050476,-0.04979203641414642,-0.022518757730722427,-0.13062115013599396,-0.010141491889953613,0.17539063096046448,0.34155502915382385,-0.7131182551383972,-0.2273564636707306,-0.02885732240974903,0.23802395164966583,0.026278257369995117,-0.02405896596610546,-0.0004116501659154892,0.031036386266350746,-0.051405176520347595,-0.04766419529914856,-0.18969930708408356,0.0388038195669651,-0.11174333095550537,-0.19186308979988098,0.036833636462688446,-0.08065398037433624,-0.13687726855278015,-0.0378551259636879,-0.42227667570114136,-0.11902336031198502,0.09260399639606476,-0.3055712580680847,0.07428321987390518,-0.009447470307350159,-0.033476464450359344,-0.05608149617910385,0.41900569200515747,0.16557762026786804,-0.20583006739616394,-0.03974396362900734,-0.03931376338005066,0.3159288167953491,-0.17337827384471893,0.09123677015304565,0.14849510788917542,0.23296988010406494,0.12689876556396484,-0.18710796535015106,-0.08506674319505692,0.02335071936249733,0.09329740703105927,-0.04142064228653908,0.06713683903217316,0.06329870223999023,0.1149369329214096,0.13454003632068634,0.0632457584142685,0.015808213502168655,-0.12908732891082764,-0.02713499218225479,0.17914874851703644,-0.04826464504003525,-0.18913304805755615,0.12030578404664993,0.3245534896850586,0.0111541748046875,0.05290211737155914,0.1374989002943039,-0.25933077931404114,-0.0937146544456482
CID000004943,0.7859992980957031,0.44225946068763733,0.36409780383110046,0.0271446593105793,0.07501369714736938,0.9026926159858704,-0.6574665904045105,0.09768062084913254,-0.5192376375198364,-0.6435691118240356,0.36789676547050476,-0.17856110632419586,-0.4933736026287079,-0.19587603211402893,-1.1036018133163452,-0.8862736821174622,-0.8060263991355896,-1.4883229732513428,1.5212582349777222,-0.12528826296329498,-0.06147416681051254,-1.0947437286376953,-1.2352629899978638,-0.14232471585273743,3.2734177112579346,0.5699604153633118,-1.0925592184066772,1.669876217842102,0.5405120253562927,0.6734060049057007,-1.3273489475250244,-0.2274848073720932,-3.976578950881958,0.9160046577453613,0.4278659522533417,-0.23082323372364044,0.7068222165107727,0.14735150337219238,1.9619261026382446,0.45178765058517456,-0.30807268619537354,-0.22557911276817322,0.024308225139975548,0.16691255569458008,0.4495159089565277,0.14049974083900452,-0.21472159028053284,-0.4742012917995453,0.6951854825019836,2.208313226699829,-1.1576170921325684,1.8171340227127075,-0.10968296974897385,-0.014813782647252083,-0.3262993395328522,0.17086529731750488,-0.52726149559021,-1.1041429042816162,-0.16592320799827576,0.11653198301792145,-1.4888765811920166,-2.463413715362549,-0.3909018635749817,0.7933140993118286,0.5427935719490051,-0.1669887751340866,-0.8026667833328247,2.1101555824279785,-0.30808964371681213,2.038789749145508,0.15003174543380737,-1.036123275756836,1.9584306478500366,-0.14085076749324799,0.793967604637146,-0.6183959245681763,-0.5016816854476929,-0.7082788944244385,1.3055294752120972,0.6315588355064392,-0.8780232667922974,0.7746555209159851,-1.3913801908493042,-1.089080572128296,1.3920795917510986,0.1865052878856659,-1.142140507698059,-0.6348265409469604,-0.4248674213886261,1.8268963098526,0.1398882269859314,0.12737101316452026,0.280811607837677,-0.4291318953037262,-4.2043046951293945,-0.5441694855690002,0.07172391563653946,-0.5885228514671326,0.709905207157135,0.012730181217193604,-1.5731233358383179,-1.0474714040756226,1.3102741241455078,-1.792208194732666,-0.867985188961029,0.6411579847335815,-0.052956473082304,-1.4980297088623047,0.2305367887020111,-0.580009400844574,-0.8620785474777222,-1.1762728691101074,1.5802937746047974,-0.7150848507881165,-0.3469119668006897,1.4096449613571167,0.22073350846767426,0.006882309913635254,-0.38140007853507996,0.2649531364440918,0.7884450554847717,-0.7422929406166077,-2.549178123474121,-0.00013468414545059204,-0.29236891865730286,0.7615132331848145,-1.1947332620620728,-0.6146471500396729,0.3371694087982178,-0.17526859045028687,0.7602416276931763,-0.06673841178417206,-1.8079936504364014,-0.8686029314994812,0.10008068382740021,-0.17236527800559998,0.7353936433792114,0.4697209894657135,0.18520648777484894,0.28923946619033813,-0.049980029463768005,0.00418388657271862,0.17047704756259918,-0.6829982995986938,-0.19277364015579224,0.679684579372406,0.05425133928656578,-0.5242655873298645,0.5892032384872437,-0.1718602180480957,0.37431296706199646,0.32733646035194397,0.04629090055823326,0.6899135112762451,-2.8282830715179443,-0.3002281188964844,0.3642578721046448,1.917684555053711,0.3088003098964691,-0.7975819110870361,-1.6021296977996826,0.2768002152442932,-0.6750128865242004,-0.016603440046310425,2.7589190006256104,0.12511932849884033,-0.41058462858200073,0.5084137916564941,-0.02844606339931488,-1.1114426851272583,0.40133804082870483,1.0319331884384155,-0.7069722414016724,0.12532776594161987,-0.05241469293832779,-0.030928485095500946,0.3418101370334625,0.14114214479923248,3.2561802864074707,1.1178120374679565,-0.35505878925323486,-0.36853113770484924,-4.712489604949951,0.3322902023792267,0.8376404047012329,-0.635398805141449,1.6035346984863281,-0.4696997404098511,-0.5868316888809204,2.6664202213287354,-0.6972584128379822,-0.711532711982727,-0.5890252590179443,-0.21297067403793335,1.2133049964904785,1.220869541168213,-3.622857093811035,-2.190702199935913,0.14651159942150116,1.7474253177642822,-1.8947606086730957,0.1570228636264801,0.728194534778595,-0.48758137226104736,-1.4989169836044312,-1.1905547380447388,-0.9914133548736572,0.16996192932128906,-0.4392540156841278,-0.5666959285736084,0.08029916137456894,-0.21558663249015808,-0.2863750457763672,0.083984375,-2.1703224182128906,-0.3462250828742981,0.6995128393173218,-0.9815461039543152,0.2533947229385376,0.30585405230522156,-0.8957542181015015,0.6411718726158142,1.685829520225525,0.6153428554534912,-0.8134562373161316,0.24739588797092438,0.12494106590747833,1.347799301147461,-0.24583753943443298,0.5324132442474365,1.2934433221817017,-0.020383819937705994,0.9284680485725403,-1.0740115642547607,-0.5472856163978577,0.2540493607521057,0.6029670238494873,-0.353212833404541,0.7125639319419861,0.1787710040807724,1.3303241729736328,0.22108404338359833,0.22426319122314453,0.3773326575756073,-1.2248591184616089,-0.17888091504573822,0.6429585218429565,-0.2976641058921814,-2.6699626445770264,0.8432233333587646,1.3768495321273804,0.2640138864517212,-0.08592440187931061,1.206099510192871,-3.045628786087036,0.836408257484436
CID000002802,0.5668208003044128,-0.24185191094875336,1.1038739681243896,-0.6430518627166748,0.9016478061676025,2.0726089477539062,-0.4050951302051544,0.350482314825058,-0.6491496562957764,-0.8665359616279602,-0.0907379761338234,-0.07636290043592453,0.6372827291488647,0.051504407078027725,-1.0879045724868774,-1.8900489807128906,-0.5440943241119385,-2.049583911895752,2.704646348953247,0.21334555745124817,-0.7176389694213867,-1.7354540824890137,-2.763242244720459,0.4744267761707306,3.908707857131958,0.7836438417434692,-2.3121821880340576,2.303943634033203,0.38943108916282654,0.9511052966117859,-2.6243069171905518,-0.617281973361969,-3.6841931343078613,2.789666175842285,0.9535051584243774,0.09332691133022308,3.6717305183410645,0.23861706256866455,2.3148789405822754,0.5182181596755981,-0.41463592648506165,-1.1505000591278076,-0.9064679741859436,0.601207971572876,0.5081932544708252,0.26171624660491943,-0.006794869899749756,-0.2547529339790344,-0.20536397397518158,2.752054452896118,-2.9222726821899414,1.3478425741195679,0.2366531938314438,0.06481966376304626,-0.8564131855964661,0.5900769829750061,-0.06152597814798355,-0.38363924622535706,-0.11862421035766602,-0.21495544910430908,-2.204763174057007,-3.4573044776916504,-0.7037753462791443,0.4918469488620758,0.9667338728904724,-0.9106994271278381,0.2493380755186081,2.6654181480407715,-0.3274455666542053,1.0869840383529663,-0.6097802519798279,-1.4281500577926636,2.233175277709961,-0.4291606843471527,1.2945961952209473,-1.387786865234375,-0.9445589780807495,-0.7063071727752686,1.6545531749725342,0.3599216938018799,-0.40844327211380005,1.8171935081481934,-1.9587770700454712,-0.739181637763977,1.7240833044052124,-0.06520022451877594,-2.5992417335510254,-1.748765230178833,-0.3464514911174774,3.125622034072876,-0.9101917147636414,0.05115778371691704,0.6587613821029663,0.4685782790184021,-3.949868679046631,-1.5085868835449219,1.1230252981185913,-0.9064990282058716,0.25839248299598694,-0.30252212285995483,-2.127779483795166,-0.03247340768575668,2.1672310829162598,-1.590800166130066,-1.9643832445144653,1.1263911724090576,-0.6853897571563721,-2.483734130859375,0.7793214321136475,-1.079163908958435,-0.4335610568523407,-0.9154257774353027,2.4251251220703125,-1.5325428247451782,-0.30837008357048035,1.6554065942764282,0.6474091410636902,0.6213297247886658,-1.0498753786087036,0.12991592288017273,0.7224770784378052,-1.2184652090072632,-3.157261610031128,0.17516493797302246,0.5884571671485901,0.6614401936531067,-2.073828935623169,-1.2801133394241333,0.4438522160053253,-0.36570778489112854,1.544406771659851,-0.8382470011711121,-1.0848175287246704,-0.588327169418335,-0.7040395736694336,-0.27694883942604065,0.5120526552200317,0.7023999691009521,0.1237911805510521,-0.06862528622150421,-0.7355782389640808,-0.6333094239234924,-0.009262621402740479,-1.4010717868804932,-0.46683841943740845,1.2794667482376099,-0.4413953721523285,-0.16082894802093506,0.38026610016822815,-0.3261672556400299,0.15566234290599823,-0.7563605904579163,-0.1499660313129425,1.2139910459518433,-3.0493671894073486,-0.4998559355735779,-0.5734055638313293,1.6569688320159912,-0.20453521609306335,-0.9480528235435486,-1.0479481220245361,0.8297207355499268,-0.5630899667739868,-0.1423673778772354,2.0511343479156494,0.8047553300857544,-0.2900548577308655,2.4700894355773926,-0.8054832220077515,-0.9494625329971313,1.0275728702545166,0.5958326458930969,-0.6682683229446411,-0.6062955856323242,0.7106756567955017,-0.07616625726222992,-0.22151003777980804,-0.3214379549026489,3.6039540767669678,3.5602052211761475,0.3713911175727844,0.2169683873653412,-4.451065540313721,-0.43353188037872314,0.6296508312225342,-0.45407038927078247,2.2022204399108887,-0.121408611536026,-1.5849334001541138,2.1271328926086426,-0.2716434597969055,-1.4289532899856567,-1.2778315544128418,-1.3127334117889404,2.69008207321167,2.125405788421631,-5.089616298675537,-2.420978546142578,-0.10658828169107437,1.349387288093567,-1.6960927248001099,-0.5796707272529602,1.9478847980499268,0.4385416507720947,-0.7224622368812561,-1.2989118099212646,-0.7494455575942993,0.4785171151161194,-0.9428327083587646,-0.3269461989402771,0.5638243556022644,-0.5110798478126526,0.06547503918409348,-0.3812149167060852,-3.1877503395080566,-0.47054386138916016,0.697527289390564,-1.9429388046264648,0.36263224482536316,-0.46513834595680237,-0.3148977756500244,0.14182761311531067,1.5697345733642578,2.1887316703796387,-0.986046314239502,0.25616633892059326,0.07284928858280182,1.273389220237732,-0.5921536087989807,0.07167379558086395,4.908449172973633,0.2325422316789627,1.6431527137756348,-2.010030508041382,-0.2687126100063324,0.8232051730155945,0.1016266942024231,-0.9847749471664429,0.5481078028678894,1.1021133661270142,1.6873424053192139,0.13464459776878357,0.10082577168941498,0.09314549714326859,-0.3422117829322815,0.3053287863731384,0.7679816484451294,-0.4499362111091614,-2.4531798362731934,1.026384949684143,2.066826820373535,-0.5994548797607422,0.4047398865222931,1.4764918088912964,-2.99280047416687,1.1642318964004517
CID000077992,0.41456466913223267,0.009674439206719398,0.44845181703567505,-0.13751229643821716,0.8092653751373291,0.7516734600067139,-0.14442592859268188,-0.05139981210231781,-0.3310701847076416,-0.23469185829162598,-0.0312977209687233,0.02291380614042282,0.002754282671958208,0.047895949333906174,-0.35595640540122986,-0.38882845640182495,-0.2999417185783386,-0.5132710933685303,0.7318975925445557,-0.06522846966981888,-0.1299828141927719,-0.5110077261924744,-1.2554165124893188,-5.135685205459595e-05,0.7328088283538818,0.27945059537887573,-1.0529135465621948,0.5853363871574402,0.20169338583946228,0.147552028298378,-0.9495824575424194,-0.3998354375362396,-1.1117050647735596,0.6897293329238892,0.3061683773994446,-0.05073434114456177,1.0398491621017456,-0.11530518531799316,0.6886584758758545,0.32313022017478943,-0.2594713866710663,-0.5674104690551758,-0.12382157891988754,0.2920854389667511,0.23037293553352356,0.07267782837152481,-0.09931540489196777,-0.10930613428354263,-0.07042284309864044,0.882737934589386,-0.930043637752533,0.5821971297264099,-0.1040559709072113,0.10210695117712021,-0.2636986970901489,-0.07594464719295502,-0.03817479684948921,-0.36352065205574036,-0.12859965860843658,-0.09409376233816147,-0.46320804953575134,-1.1600663661956787,-0.31080853939056396,0.09774655103683472,0.17443054914474487,-0.10091406852006912,-0.396072655916214,1.1345809698104858,-0.08899512887001038,0.3345683217048645,0.047786228358745575,-0.2212693840265274,0.7597682476043701,-0.030291631817817688,0.38772863149642944,-0.18187834322452545,-0.22114983201026917,-0.36787334084510803,0.3884504735469818,0.36125612258911133,-0.27963826060295105,0.25868988037109375,-0.5686199069023132,-0.6343286037445068,0.7458880543708801,-0.061663899570703506,-1.0327471494674683,-0.40584084391593933,-0.1858728677034378,0.7676947116851807,-0.2763859033584595,0.11016920953989029,0.40901413559913635,0.12244238704442978,-1.053478717803955,-0.3898125886917114,0.17313897609710693,-0.26820850372314453,0.061261896044015884,-0.16524212062358856,-0.5712067484855652,-0.006735745817422867,1.1035300493240356,-0.3803033232688904,-0.7817507386207581,0.413482666015625,-0.14515794813632965,-0.5247763991355896,0.2793654203414917,-0.27761101722717285,-0.18539346754550934,-0.39344751834869385,0.9278188347816467,-0.4402818977832794,-0.07414538413286209,0.7213295102119446,0.3825165033340454,0.09438060969114304,-0.48064857721328735,-0.006601877510547638,0.19219931960105896,-0.22755888104438782,-0.6648530960083008,0.01619379222393036,0.02180374413728714,0.18470986187458038,-0.8233156800270081,-0.3931615948677063,0.17169120907783508,-0.22553491592407227,0.2962172329425812,-0.14914456009864807,-0.352045476436615,-0.400920569896698,0.038110874593257904,-0.11323706060647964,0.3996172547340393,0.10026980936527252,-0.04920566827058792,-0.03489146754145622,-0.14773045480251312,-0.11884719133377075,0.5065603256225586,-0.3074171543121338,-0.19095809757709503,0.3780345618724823,0.0919225811958313,0.15090438723564148,-0.003976643085479736,-0.27489590644836426,0.010776183567941189,0.06507185846567154,0.543559730052948,0.4454890191555023,-1.011498212814331,-0.05585189163684845,0.11560962349176407,0.9282793402671814,0.2672880291938782,-0.2585510313510895,-0.7952069640159607,0.23863373696804047,-0.34673017263412476,-0.11521832644939423,0.6826045513153076,0.10108885169029236,-0.1718021035194397,0.6500403881072998,-0.17048487067222595,-0.21486258506774902,0.11692838370800018,0.3406454920768738,-0.31523144245147705,-0.044407591223716736,-0.04540412873029709,-0.16033099591732025,-0.014017161913216114,0.00875156745314598,1.582007646560669,0.8297713994979858,0.19424903392791748,0.1392083764076233,-2.3507392406463623,0.046892955899238586,0.036359213292598724,-0.36178505420684814,0.7455788254737854,-0.272316575050354,-0.25311487913131714,0.715673565864563,-0.2927609086036682,-0.3027024567127228,-0.2874003052711487,-0.08978277444839478,0.35974615812301636,0.7499803304672241,-2.0497734546661377,-0.8600775003433228,-0.014500545337796211,0.7118200063705444,-0.7276999354362488,-0.13550011813640594,0.3631133735179901,-0.07689860463142395,-0.011254429817199707,-0.2266368567943573,-0.38721394538879395,0.33922621607780457,-0.18975457549095154,-0.3952406346797943,0.09722603112459183,-0.19490206241607666,-0.27703142166137695,-0.022869829088449478,-0.9414643049240112,-0.360531210899353,0.2731230854988098,-0.7604169845581055,0.09765344113111496,-0.04383382201194763,-0.1859247386455536,0.08108919858932495,0.8851103782653809,0.38256412744522095,-0.4450365900993347,-0.06684200465679169,0.016564037650823593,0.4443267583847046,-0.26999205350875854,-0.04303378984332085,1.0292450189590454,0.42446449398994446,0.5329100489616394,-0.4982416331768036,-0.2152022421360016,0.21716728806495667,0.1774355173110962,-0.14408646523952484,0.35496509075164795,0.216986745595932,0.5404830574989319,0.17764490842819214,0.11996868997812271,0.12277033179998398,-0.37286704778671265,0.07647334784269333,0.151719331741333,-0.07929117232561111,-0.6504070162773132,0.3150136470794678,0.8258993625640869,-0.17859598994255066,0.09991312026977539,0.24352264404296875,-0.6078881621360779,0.3956233859062195
CID000002249,0.4591544270515442,0.07684354484081268,0.4451507329940796,-0.11277148127555847,0.9049056768417358,0.7692402601242065,-0.04656869173049927,-0.016923077404499054,-0.2477966696023941,-0.2717972993850708,-0.03232153505086899,0.017184298485517502,0.0913025364279747,-0.009715788066387177,-0.30495399236679077,-0.5050439238548279,-0.27771151065826416,-0.6013312339782715,0.8850470185279846,-0.05846523866057396,-0.06757284700870514,-0.5238537788391113,-1.364098072052002,-0.010520055890083313,0.6649152040481567,0.28640300035476685,-1.1269891262054443,0.614902138710022,0.1803339272737503,0.12069085985422134,-1.016013741493225,-0.3326520323753357,-1.142724633216858,0.7399082779884338,0.2503366470336914,-0.13511374592781067,1.0640723705291748,-0.11103194206953049,0.7007620930671692,0.26383107900619507,-0.26915398240089417,-0.5719518661499023,-0.14007268846035004,0.2436588555574417,0.26527485251426697,0.10754360258579254,-0.06430350989103317,-0.12170770019292831,-0.029396817088127136,0.934406578540802,-0.9475769996643066,0.5232021808624268,-0.13264396786689758,0.07438717037439346,-0.265185683965683,-0.03968033194541931,-0.051610857248306274,-0.37001973390579224,-0.005471076816320419,-0.14468030631542206,-0.4666653275489807,-1.1754378080368042,-0.2966592311859131,0.046574145555496216,0.14481055736541748,-0.12680372595787048,-0.3936317265033722,1.2136824131011963,-0.10719633102416992,0.31783226132392883,-0.037785738706588745,-0.22374536097049713,0.8094225525856018,-0.1231066882610321,0.467774361371994,-0.22374269366264343,-0.22845664620399475,-0.3878336548805237,0.3654576241970062,0.35234853625297546,-0.327070951461792,0.21844710409641266,-0.5975014567375183,-0.47766098380088806,0.6254922151565552,-0.027013670653104782,-1.1180009841918945,-0.4177326560020447,-0.15731321275234222,0.7708345651626587,-0.20023031532764435,0.055773451924324036,0.40586984157562256,0.02709915302693844,-1.0910121202468872,-0.4103928208351135,0.14685483276844025,-0.274672269821167,-0.005765486508607864,-0.1598716676235199,-0.6520014405250549,-0.02864668145775795,1.059983491897583,-0.19165587425231934,-0.8637937903404236,0.4292044937610626,-0.1983458697795868,-0.5748763084411621,0.28802117705345154,-0.3353496789932251,-0.1209876760840416,-0.3495091497898102,1.0367658138275146,-0.4067225158214569,-0.12512455880641937,0.773189902305603,0.3784487247467041,0.0711861103773117,-0.5023770928382874,-0.06166587024927139,0.09184655547142029,-0.26405033469200134,-0.5616816878318787,0.05305725336074829,0.02912270464003086,0.26044920086860657,-0.8758666515350342,-0.3694271445274353,0.1512918919324875,-0.19933268427848816,0.2384512722492218,-0.14757966995239258,-0.2924744784832001,-0.18801167607307434,0.10115133225917816,-0.08227776736021042,0.35536283254623413,0.13435548543930054,-0.022888794541358948,-0.038416557013988495,-0.1404886245727539,-0.06362500786781311,0.5072164535522461,-0.36936885118484497,-0.20709867775440216,0.45974671840667725,0.044108644127845764,0.10896757245063782,0.03906097635626793,-0.31728652119636536,-0.018125321716070175,0.07254630327224731,0.5927715301513672,0.536047637462616,-1.0473570823669434,-0.052530720829963684,0.1455029845237732,0.957558274269104,0.14243750274181366,-0.23441612720489502,-0.8095962405204773,0.19849151372909546,-0.3306109309196472,-0.030974168330430984,0.7456176280975342,0.1279749870300293,-0.09995541721582413,0.5781084299087524,-0.21573790907859802,-0.15274515748023987,0.0815393328666687,0.3465729355812073,-0.2995479702949524,-0.03951646387577057,-0.011989153921604156,-0.16909365355968475,-0.01735847257077694,0.008504850789904594,1.5129286050796509,0.8356720805168152,0.22547674179077148,0.19026830792427063,-2.3380961418151855,-0.008070733398199081,0.1301330327987671,-0.38604456186294556,0.7994980812072754,-0.41811034083366394,-0.22458653151988983,0.8602849841117859,-0.3241065740585327,-0.3507773280143738,-0.35163015127182007,-0.022845163941383362,0.34382104873657227,0.7717748284339905,-2.125526189804077,-0.9994515180587769,-0.02800002321600914,0.718750536441803,-0.6523125171661377,-0.14762471616268158,0.3771268129348755,-0.000680878758430481,0.10849422216415405,-0.224784716963768,-0.3984117805957794,0.3677487373352051,-0.23314397037029266,-0.3863651752471924,0.11110484600067139,-0.28194481134414673,-0.29217568039894104,-0.05533096566796303,-1.0284892320632935,-0.3813554346561432,0.28508853912353516,-0.8207781314849854,0.09617630392313004,-0.03791624307632446,-0.06508088856935501,0.1223403662443161,0.9566351175308228,0.3752945065498352,-0.43170854449272156,-0.09042714536190033,0.015387564897537231,0.42149990797042847,-0.21279746294021606,-0.007372040301561356,1.065226435661316,0.5702681541442871,0.5631093978881836,-0.5236963629722595,-0.22150729596614838,0.14388208091259003,0.15637214481830597,-0.13647659122943878,0.3241210877895355,0.2235887050628662,0.6258033514022827,0.1610194742679596,0.18327513337135315,0.06221969053149223,-0.27651044726371765,-0.012111157178878784,0.1412058174610138,-0.1213633269071579,-0.6911299228668213,0.388959139585495,0.9059766530990601,-0.17117665708065033,0.04001616686582565,0.3193226456642151,-0.7308865785598755,0.2752792537212372
CID000216239,0.2440660297870636,0.06254637986421585,0.41892266273498535,-0.164749413728714,0.5575031042098999,0.6876012682914734,-0.06955182552337646,-0.03045395016670227,-0.27959778904914856,-0.19564983248710632,-0.08576260507106781,-0.00426415354013443,-0.0338282436132431,0.05115237832069397,-0.3447383642196655,-0.19310781359672546,-0.2390705943107605,-0.40361273288726807,0.8115224242210388,-0.10782042890787125,-0.06880410015583038,-0.519566535949707,-1.1060755252838135,-0.027900736778974533,0.8656234741210938,0.20910729467868805,-1.1073782444000244,0.540081262588501,0.06488634645938873,0.03029303252696991,-0.8567220568656921,-0.4446077346801758,-1.0141154527664185,0.5717393159866333,0.2437419891357422,-0.0659899041056633,0.8408463001251221,-0.08654423803091049,0.6419560313224792,0.369998037815094,-0.1650579422712326,-0.5531343817710876,-0.01970856636762619,0.29796260595321655,0.26324719190597534,0.052676308900117874,-0.1739598661661148,-0.17225098609924316,-0.020513281226158142,0.878536581993103,-0.813570499420166,0.6825848817825317,-0.11123396456241608,0.08112439513206482,-0.19255369901657104,-0.12977537512779236,-0.04211176186800003,-0.32353225350379944,-0.06942704319953918,-0.07267740368843079,-0.5021111369132996,-1.018637776374817,-0.2681465744972229,0.08489321917295456,0.09357728064060211,-0.20146678388118744,-0.3770209848880768,1.060157299041748,-0.08161294460296631,0.47207340598106384,0.035509563982486725,-0.3433936834335327,0.6059355735778809,0.009687229059636593,0.34837567806243896,-0.05793345347046852,-0.24081726372241974,-0.22448718547821045,0.48997458815574646,0.31590932607650757,-0.1732044517993927,0.2966238856315613,-0.4747965335845947,-0.6336194276809692,0.9997297525405884,-0.03681047260761261,-1.1026854515075684,-0.3571583032608032,-0.160001739859581,0.9776979684829712,-0.19749055802822113,0.03642880916595459,0.307796835899353,0.04889689013361931,-0.9977051019668579,-0.31181085109710693,0.21818630397319794,-0.24413222074508667,0.08466556668281555,-0.07540439069271088,-0.5850763916969299,0.0038142092525959015,1.0588459968566895,-0.3892385959625244,-0.6483126878738403,0.2532598078250885,-0.12180709093809128,-0.39345523715019226,0.1679057478904724,-0.3515598475933075,-0.15756049752235413,-0.3867078721523285,0.8387007713317871,-0.4717020094394684,-0.00910089910030365,0.6729620099067688,0.3663538992404938,0.10745497047901154,-0.3961164057254791,-0.06027025356888771,0.300398051738739,-0.20467521250247955,-0.8914955854415894,0.0836830884218216,-0.0017898567020893097,0.18222197890281677,-0.9465587139129639,-0.35365980863571167,0.25512248277664185,-0.16996051371097565,0.4115496277809143,-0.10517269372940063,-0.39370715618133545,-0.8160191774368286,-0.05438436567783356,-0.011242985725402832,0.35619106888771057,0.03818962350487709,-0.02913738414645195,-0.028387613594532013,0.008410520851612091,-0.04737468808889389,0.43821918964385986,-0.21160471439361572,-0.1732531636953354,0.23089030385017395,0.06665921211242676,0.16090646386146545,-0.018409229815006256,-0.21303506195545197,0.11001257598400116,0.05713507905602455,0.399238646030426,0.4114037752151489,-0.9146046042442322,-0.03557133674621582,0.02740338258445263,0.8205214738845825,0.2634822726249695,-0.16071383655071259,-0.7712098956108093,0.21407903730869293,-0.2503106892108917,-0.0006633847951889038,0.7363750338554382,0.047376375645399094,-0.1554160714149475,0.6276066899299622,-0.1812356859445572,-0.26429837942123413,-0.022138409316539764,0.2314484864473343,-0.3721054792404175,-0.014712285250425339,-0.08198034018278122,-0.11769355833530426,-0.09925323724746704,0.044374603778123856,1.9059417247772217,0.706710934638977,0.1320386379957199,0.08984360843896866,-2.5102875232696533,0.031558141112327576,-0.03906239569187164,-0.246077761054039,0.6756806373596191,-0.09216095507144928,-0.35760781168937683,0.8153104186058044,-0.2370712161064148,-0.2129313349723816,-0.2674282491207123,-0.08150769770145416,0.32616835832595825,0.6939098238945007,-1.9620634317398071,-0.875056803226471,-0.0518462173640728,0.7315258383750916,-1.2876371145248413,-0.09676886349916458,0.4483374357223511,-0.04957079142332077,-0.05694755166769028,-0.3600981831550598,-0.17509110271930695,0.3243240416049957,-0.20766562223434448,-0.3830063045024872,0.10120025277137756,-0.11889509111642838,-0.05866529792547226,-0.06444009393453598,-0.8320531249046326,-0.4412020742893219,0.16895349323749542,-0.6686322093009949,0.005205616354942322,0.029050718992948532,-0.3071332275867462,0.08677463978528976,0.9830875396728516,0.3351990282535553,-0.4064890742301941,-0.12400486320257187,0.08981283009052277,0.46015527844429016,-0.3577195107936859,-0.051174841821193695,0.8665924072265625,0.29488539695739746,0.4611966907978058,-0.40230000019073486,-0.17364472150802612,0.2925496995449066,0.15651248395442963,-0.12253599613904953,0.24906355142593384,0.28469789028167725,0.5986572504043579,0.2597293555736542,0.06206182390451431,0.22093909978866577,-0.5151663422584534,0.10362303256988525,0.15028324723243713,-0.12446672469377518,-0.6679409146308899,0.32614293694496155,0.7017128467559814,-0.10554762184619904,-0.030932538211345673,0.20859292149543762,-0.5234845280647278,0.798072099685669
CID000119182,2.076113700866699,0.2197715938091278,2.243090867996216,-0.031014595180749893,0.20660808682441711,0.7260391712188721,-0.12609735131263733,-0.32403460144996643,-0.31238842010498047,-0.2442266047000885,0.04327097535133362,-0.05089489743113518,-0.35486775636672974,-0.3729461431503296,-2.0154147148132324,-0.4979230761528015,-0.18788427114486694,0.08086180686950684,-0.39653751254081726,-0.62781822681427,0.15530286729335785,-0.7364033460617065,-3.6954846382141113,0.5424463748931885,0.18434780836105347,0.4880346953868866,-1.4582632780075073,1.4293322563171387,0.4787353575229645,0.26945626735687256,-1.3363020420074463,-0.2219637930393219,0.45870441198349,0.8309594988822937,2.473435878753662,-0.018555812537670135,0.26186347007751465,-0.3069774806499481,0.8901621103286743,1.3453660011291504,-0.18653050065040588,0.4996785521507263,0.1502094566822052,0.14262260496616364,0.08859189599752426,0.19139377772808075,0.34328263998031616,0.10327143967151642,-0.09021443128585815,0.3163910508155823,-0.24902154505252838,0.42918047308921814,0.017849493771791458,-0.25786668062210083,-0.34251484274864197,-0.2328563928604126,0.10215848684310913,-0.8951329588890076,-0.003287410130724311,-0.17101523280143738,-0.9066823720932007,-0.1409321427345276,-0.3222091495990753,0.2494932860136032,0.664928674697876,-0.5841010808944702,0.5934228897094727,0.45419129729270935,-0.8781519532203674,0.2379085123538971,0.14319591224193573,-0.1864568591117859,0.5290402770042419,0.16845136880874634,-0.16436082124710083,-0.037513285875320435,-0.21494898200035095,-0.46767714619636536,-0.2639170289039612,-0.022011548280715942,-1.014640212059021,2.2732458114624023,-0.11073970794677734,-0.8185033798217773,1.5671716928482056,-0.1954922378063202,-1.5104974508285522,-1.419073224067688,0.09903106838464737,1.8861849308013916,-0.4643400311470032,0.135818749666214,0.1164766401052475,0.4508329927921295,0.06588578224182129,-1.2693430185317993,0.15315788984298706,-0.30777621269226074,0.07652474194765091,-1.6427369117736816,-0.03453703969717026,-0.6342519521713257,2.000013589859009,-0.729458749294281,-0.7066618800163269,0.6672022342681885,-0.09806762635707855,-0.20250165462493896,0.36328038573265076,0.5904279947280884,0.3310011923313141,0.3481499254703522,1.0468765497207642,0.5281678438186646,0.06513557583093643,0.46678298711776733,0.7314586043357849,-0.039429232478141785,-0.5288878083229065,-0.13981197774410248,0.8612663745880127,-0.0059021227061748505,-2.1691133975982666,0.7434128522872925,-0.7019549608230591,-0.05122847855091095,-0.9172472953796387,-0.3185282051563263,-0.02315014973282814,0.2973732054233551,0.4852684438228607,0.10075192153453827,-1.0273081064224243,-0.24483805894851685,-0.49030929803848267,-0.8241424560546875,0.6437366008758545,0.20753353834152222,-0.19071485102176666,-0.2662121653556824,0.9020655155181885,0.5436699986457825,-0.20801623165607452,0.12059321254491806,-0.4821534752845764,0.06242075562477112,-0.5643318295478821,-0.16243959963321686,-0.2819980978965759,-0.6084321737289429,-0.5267974734306335,-0.6637532711029053,0.1853555291891098,0.7679444551467896,0.200811967253685,0.6957293748855591,0.3011150062084198,0.7226712107658386,0.16697874665260315,-0.03378330543637276,-0.3372578024864197,-0.26072970032691956,-0.1423858255147934,-0.15948286652565002,-0.4108835756778717,0.5650350451469421,-0.11776020377874374,-0.26563888788223267,-0.3804788887500763,-1.3108289241790771,0.04794133082032204,-0.1558414250612259,-0.26485201716423035,0.20399412512779236,0.1351238340139389,-0.14603890478610992,0.25329098105430603,1.13951575756073,3.178868293762207,0.41326504945755005,-0.07807807624340057,0.22715868055820465,-0.49884337186813354,0.2424556016921997,-0.01665099337697029,-0.5289472341537476,1.2770737409591675,-0.15254996716976166,0.33938655257225037,0.667233943939209,-0.06991928815841675,-0.48981350660324097,-0.5362142324447632,-0.6994730234146118,1.8317822217941284,-0.30788078904151917,-0.6985323429107666,-0.3194291889667511,-0.3491261303424835,0.8054279685020447,-2.377936363220215,-0.503045380115509,0.037351567298173904,0.2874849736690521,-0.6870077252388,-0.91713547706604,-0.9820456504821777,1.5858246088027954,-0.06704971194267273,-0.0006348993629217148,0.2748602032661438,-0.22501352429389954,-0.20248526334762573,0.1609424650669098,-0.016857344657182693,-0.22952605783939362,0.9385821223258972,-0.12299798429012299,0.1058933287858963,-0.8840261101722717,-1.292742371559143,-0.714194655418396,0.43725234270095825,0.6808735132217407,-0.48302191495895386,-0.43552476167678833,0.01744481921195984,0.3992108106613159,-0.8986319303512573,-0.9348544478416443,0.5709760189056396,1.124057650566101,1.0934104919433594,-0.7678827047348022,-0.338642954826355,1.6867114305496216,0.3536677360534668,-0.2744339406490326,-0.5220582485198975,1.537921667098999,1.0270936489105225,2.6047158241271973,0.47615528106689453,1.2083286046981812,0.7966365218162537,-0.48688527941703796,0.5210474729537964,-0.31280872225761414,-1.1082082986831665,0.7716367244720459,0.3942829370498657,-0.6440201997756958,-0.02385682798922062,-0.06084071099758148,-0.33358079195022583,-0.579994261264801
CID000004594,0.22251665592193604,0.06796225905418396,0.13445179164409637,-0.07535478472709656,0.0545281283557415,0.2723890542984009,-0.04306637495756149,-0.03239426761865616,-0.14304590225219727,-0.12223111838102341,-0.024864904582500458,0.008317369967699051,-0.08574822545051575,-0.06149573624134064,-0.26816046237945557,-0.1722307801246643,-0.14816173911094666,-0.2922733724117279,0.32305195927619934,-0.07123827189207077,-0.0846518874168396,-0.2522931396961212,-0.3737945854663849,0.06962145864963531,0.5654035210609436,0.07144740223884583,-0.37676799297332764,0.1612510085105896,0.08930376917123795,0.08019505441188812,-0.24160422384738922,-0.1935708224773407,-0.5724687576293945,0.35201823711395264,0.13733506202697754,-0.005144305527210236,0.39044561982154846,0.03387293964624405,0.3947997987270355,0.15897813439369202,-0.14072999358177185,-0.1050533801317215,-0.11566774547100067,0.1039695292711258,0.08392012864351273,-0.03107815608382225,-0.07132559269666672,-0.053544290363788605,-0.02116508036851883,0.41565385460853577,-0.20099319517612457,0.2829902470111847,0.06573987007141113,-0.026482701301574707,-0.016792982816696167,-0.07643917202949524,0.0559147447347641,-0.1571848839521408,-0.12655149400234222,-0.0026621222496032715,-0.15558184683322906,-0.44834089279174805,-0.1353011429309845,0.12817025184631348,0.07476429641246796,-0.0530756339430809,-0.15797415375709534,0.480477899312973,-0.07390081882476807,0.3103870451450348,0.16378237307071686,-0.1631433367729187,0.3829067051410675,-0.055706366896629333,0.1000245064496994,-0.031566403806209564,-0.094593346118927,-0.07128086686134338,0.12195543944835663,0.09139177203178406,-0.1735626459121704,0.18677982687950134,-0.25163352489471436,-0.2655408978462219,0.29039138555526733,-0.00022632628679275513,-0.3235905170440674,-0.059123069047927856,-0.045062463730573654,0.34296709299087524,-0.10464942455291748,0.013039231300354004,0.15362191200256348,0.08467898517847061,-0.4794406592845917,-0.09115682542324066,0.10985976457595825,-0.19008897244930267,0.10565155744552612,-0.146317720413208,-0.25174814462661743,0.020185668021440506,0.6938220262527466,-0.40010279417037964,-0.3573131561279297,0.22757038474082947,-0.06109040230512619,-0.17782194912433624,0.11778675764799118,-0.13317984342575073,-0.06978122144937515,-0.18316476047039032,0.3840704560279846,-0.15841655433177948,0.01765180006623268,0.3145989775657654,0.1189708262681961,-0.06387689709663391,-0.15290513634681702,-0.022466782480478287,0.1613587737083435,-0.1572701781988144,-0.43876343965530396,-0.029916800558567047,-0.0041170790791511536,0.15472638607025146,-0.4265745282173157,-0.08623836189508438,0.0967455506324768,-0.11516604572534561,0.18952897191047668,-0.11434876918792725,-0.31851842999458313,-0.3803202509880066,-0.12249457836151123,-0.006868600845336914,0.2573729157447815,-0.001233913004398346,-0.021287357434630394,0.024728946387767792,-0.020930688828229904,-0.027270717546343803,0.07347266376018524,-0.1316523253917694,-0.067339688539505,0.2183365523815155,0.04548879340291023,0.04267130419611931,0.04964476823806763,-0.11015726625919342,0.09889286756515503,0.09741738438606262,0.05277317762374878,0.239661306142807,-0.5109710693359375,0.13323421776294708,0.03145547956228256,0.48399364948272705,0.2526639997959137,-0.13815876841545105,-0.3870496153831482,0.0624803751707077,-0.14907167851924896,-0.009652668610215187,0.4627538025379181,0.04560481756925583,-0.11178258806467056,0.20532330870628357,-0.10412245988845825,-0.1650322526693344,0.10841092467308044,0.11133366823196411,-0.23591159284114838,0.01974993571639061,0.04429352283477783,-0.03855501115322113,0.026250891387462616,0.05053291097283363,0.7737305164337158,0.20637549459934235,-0.055225733667612076,0.05905981361865997,-0.937472939491272,0.06988377869129181,-0.0558643601834774,-0.09804119914770126,0.27566009759902954,-0.14026746153831482,-0.1572800576686859,0.535753607749939,-0.14006176590919495,-0.12486717104911804,-0.11443939805030823,-0.0926971584558487,0.21636036038398743,0.21498718857765198,-0.8977531790733337,-0.42834270000457764,0.008100977167487144,0.44862866401672363,-0.5415784120559692,-0.06382933259010315,0.1761762499809265,-0.037020981311798096,-0.13938024640083313,-0.17126882076263428,-0.22362558543682098,0.23260420560836792,-0.07947872579097748,-0.029279448091983795,0.0561368502676487,-0.07981528341770172,-0.0969051793217659,-0.034187085926532745,-0.4854300618171692,-0.14052586257457733,0.07768689095973969,-0.35086381435394287,0.012353824451565742,-0.05971638113260269,-0.14236386120319366,0.06842263042926788,0.4362451732158661,0.038104280829429626,-0.11674049496650696,-0.03217461705207825,0.04337208345532417,0.2095467448234558,-0.05612169951200485,0.04803439602255821,0.2612563967704773,0.05203857645392418,0.24125757813453674,-0.2462197244167328,-0.06189243495464325,0.15231721103191376,0.12889009714126587,-0.06460899859666824,0.08565941452980042,0.08320172131061554,0.20438724756240845,0.15950529277324677,0.04077155888080597,0.05657614767551422,-0.13662919402122498,0.0707223191857338,0.16341552138328552,-0.0731397345662117,-0.3610931932926178,0.18416467308998108,0.17196474969387054,0.04062046855688095,0.03155718743801117,0.19911056756973267,-0.401528924703598,0.28653600811958313
CID000003494,1.5695979595184326,0.37283188104629517,1.4254151582717896,-0.3126598000526428,2.4457578659057617,2.1917028427124023,-0.18733316659927368,-0.10904636234045029,-0.8992198705673218,-0.739704430103302,-0.17634880542755127,-0.015079168602824211,-0.0274165328592062,0.09037236869335175,-1.460663080215454,-1.5118695497512817,-0.7250853180885315,-1.6057748794555664,2.351465940475464,-0.1578149050474167,-0.33069685101509094,-1.5193605422973633,-4.0233869552612305,-0.0999339371919632,2.491607666015625,0.7161288261413574,-2.798018455505371,2.127229928970337,0.6684277653694153,0.384179025888443,-3.2633955478668213,-1.156311273574829,-4.101999759674072,2.127562999725342,0.671335756778717,0.032271239906549454,2.9837396144866943,-0.37984198331832886,2.083239793777466,0.8911470174789429,-0.7809046506881714,-1.6201409101486206,-0.2773749828338623,0.9393337368965149,0.8513647317886353,0.21430176496505737,-0.08721202611923218,-0.28204941749572754,-0.23502756655216217,2.9157681465148926,-2.6316869258880615,1.950191617012024,-0.22755946218967438,0.22531528770923615,-0.7755361199378967,-0.04995178431272507,-0.01444203406572342,-1.3517265319824219,-0.2370191067457199,-0.38677355647087097,-1.4978916645050049,-3.6509034633636475,-0.88100266456604,0.3750632405281067,0.5387508869171143,-0.6273295283317566,-1.582424521446228,3.379969596862793,-0.1962619572877884,1.0876045227050781,-0.2531185448169708,-0.636207103729248,2.513414144515991,-0.12774962186813354,1.1292616128921509,0.18754711747169495,-0.6438943147659302,-1.1095308065414429,1.107957363128662,1.3651659488677979,-0.8855668902397156,0.8994622230529785,-1.671667456626892,-2.2071762084960938,2.82391095161438,-0.17915748059749603,-2.4450879096984863,-1.3487253189086914,-0.47004637122154236,1.758185625076294,-0.4409784972667694,0.3163764774799347,1.279852032661438,0.03218929469585419,-3.605339765548706,-1.2045567035675049,0.6205188632011414,-0.7283943295478821,-0.052146390080451965,-0.5413642525672913,-1.6918715238571167,-0.1111123338341713,3.770848512649536,-0.9841349124908447,-2.6121490001678467,1.3771122694015503,-0.41727834939956665,-1.753278374671936,0.8659641742706299,-0.7877070903778076,-0.3660065829753876,-1.1883879899978638,2.792438268661499,-1.3898406028747559,-0.0008932724595069885,2.284868001937866,1.3071620464324951,-0.05199611932039261,-1.4048097133636475,0.004374127835035324,0.3339109420776367,-0.6596567034721375,-1.3015339374542236,0.08633532375097275,0.09111402183771133,0.7703187465667725,-2.744771718978882,-1.1931812763214111,0.47556546330451965,-0.8038315176963806,0.8065281510353088,-0.5445385575294495,-1.202319860458374,-0.7105057239532471,0.281954288482666,-0.09313292056322098,1.161008358001709,0.26094383001327515,-0.004475697875022888,0.004492318257689476,-0.20224273204803467,-0.28209152817726135,1.5625708103179932,-1.0584012269973755,-0.6555736064910889,1.007270336151123,0.24023661017417908,0.44364821910858154,0.18529336154460907,-0.9818059802055359,0.04142142832279205,0.1440703123807907,1.7977172136306763,1.4981082677841187,-3.714398145675659,-0.09498094022274017,0.5359529852867126,3.230149984359741,0.7776824831962585,-0.7384840846061707,-2.470602035522461,0.5288221836090088,-1.0787078142166138,-0.13820232450962067,2.487722873687744,0.1946183741092682,-0.36883997917175293,1.9876388311386108,-0.574595034122467,-0.6360783576965332,0.002106212079524994,1.016513466835022,-1.0662740468978882,-0.06886892765760422,0.019229665398597717,-0.5059139728546143,-0.06387504190206528,0.15957649052143097,5.44162654876709,2.3948068618774414,0.444028377532959,0.5050507187843323,-7.936019420623779,0.18821698427200317,-0.08854485303163528,-1.03836989402771,2.3419947624206543,-0.8513889312744141,-0.8612751364707947,2.548060417175293,-1.0808358192443848,-0.7481704354286194,-1.0914957523345947,-0.2672378122806549,1.1813273429870605,2.3081395626068115,-6.611710548400879,-2.747447967529297,-0.17353641986846924,2.509601593017578,-1.388217568397522,-0.2888526916503906,0.8952302932739258,-0.029745636507868767,-0.15883903205394745,-0.7831738591194153,-1.4640109539031982,1.0179777145385742,-0.6746386289596558,-1.101001501083374,0.3987976014614105,-0.7179088592529297,-0.8428593277931213,-0.19019000232219696,-3.4468436241149902,-1.0531017780303955,0.7013468742370605,-2.704923391342163,0.3418891131877899,0.12764261662960052,-0.22588495910167694,-0.16694031655788422,2.9949605464935303,1.3154956102371216,-1.2969318628311157,-0.12778043746948242,0.041679102927446365,1.642364501953125,-0.9754682183265686,0.09405778348445892,2.872218132019043,1.4966039657592773,1.5911750793457031,-1.5031745433807373,-0.42648395895957947,0.5825098156929016,0.7294330596923828,-0.6654843688011169,1.0598829984664917,0.7392604351043701,2.0648014545440674,0.7825273871421814,0.5268067121505737,0.3681812286376953,-0.943039059638977,0.18725015223026276,0.7600416541099548,-0.30424967408180237,-1.8323780298233032,1.1284235715866089,2.575836181640625,-0.4773384928703308,0.14806388318538666,1.0789453983306885,-2.4339702129364014,0.857003390789032
CID000002118,0.24783769249916077,1.027665376663208,0.7089349627494812,-0.6022819876670837,1.1534123420715332,2.131882667541504,0.11445314437150955,-0.3022369146347046,-0.19405727088451385,0.02140558511018753,0.059430040419101715,0.466775506734848,0.861018180847168,0.3990166187286377,-1.5705864429473877,-2.2125868797302246,-0.01711219549179077,-1.411340594291687,2.0133862495422363,-0.28084656596183777,-0.36789485812187195,-0.8602062463760376,-2.1022586822509766,0.13278236985206604,3.1236021518707275,0.9476574659347534,-1.982568621635437,2.084613084793091,0.5431780219078064,0.9997096657752991,-1.8553712368011475,-0.3540017306804657,-1.2233643531799316,2.224473237991333,0.5682545304298401,-0.6622588634490967,2.928892135620117,0.5398855209350586,1.4007927179336548,-0.6803436279296875,-0.24611489474773407,-0.37362146377563477,-0.5473772883415222,0.7068375945091248,0.40967056155204773,0.6760554313659668,0.4457554221153259,-0.15223075449466705,-0.07077908515930176,2.3431053161621094,-2.7252554893493652,1.404258370399475,0.32047247886657715,-0.061791710555553436,-0.7536642551422119,-0.14351150393486023,-0.16142192482948303,-0.09226259589195251,-0.12362588942050934,-0.3528001010417938,-1.534639835357666,-2.797637701034546,-0.38843825459480286,0.41885367035865784,0.1718558371067047,-1.0477006435394287,0.08295904099941254,1.5739381313323975,0.06925544887781143,0.421889066696167,-0.47942695021629333,-0.7239986658096313,1.1462469100952148,-0.9938617944717407,0.947235643863678,-1.2444074153900146,-0.27281731367111206,-0.35412800312042236,0.7921290397644043,0.19796395301818848,-0.42424094676971436,1.1396958827972412,-0.9697473049163818,-0.04891272634267807,1.4019008874893188,0.4382934868335724,-1.608911156654358,-0.10889513790607452,-0.1009686142206192,4.470470905303955,-1.0141825675964355,-0.4284140169620514,0.4099750220775604,0.2334960252046585,-2.3827459812164307,-1.343502402305603,0.5969889760017395,-0.5236995220184326,0.7376456260681152,-0.18203336000442505,-0.8968148827552795,0.6615537405014038,1.5030543804168701,-1.134487271308899,-1.305710792541504,0.7082915306091309,-0.1755748987197876,-1.7678576707839966,1.0374163389205933,-0.9950580596923828,-0.48826292157173157,-0.24527707695960999,1.033585786819458,-0.6512728929519653,-0.33992281556129456,1.446881651878357,0.6578363180160522,-0.12780128419399261,-0.3479817807674408,0.177660271525383,0.1826409101486206,-0.7609121799468994,-2.843982219696045,0.023705707862973213,0.2168666571378708,0.30089306831359863,-0.5639212131500244,-0.4259014129638672,0.5962976217269897,-1.01887047290802,0.4598062336444855,-0.29281169176101685,-0.8680803179740906,-0.38905954360961914,-1.3535034656524658,-1.3530782461166382,0.7261055111885071,0.2801414132118225,0.4749875068664551,0.3435344994068146,-1.3232812881469727,-0.21805967390537262,0.13566501438617706,-1.2522329092025757,-0.43894046545028687,0.5969440340995789,0.35473838448524475,-0.573168158531189,0.945149838924408,-0.6860443353652954,-0.37618839740753174,-0.5691351890563965,-0.6515909433364868,0.5702098608016968,-2.257981300354004,-0.9091123938560486,0.2800785303115845,0.9438520073890686,-1.062048077583313,-0.4833390712738037,-0.6676501631736755,0.40389877557754517,-0.4302610158920288,-0.12092503905296326,1.0294363498687744,0.7328501343727112,-0.22597447037696838,2.1620993614196777,-0.1399223506450653,-0.5485013723373413,0.4576280117034912,0.19860109686851501,-0.1935364007949829,-0.9538893103599548,0.3439983129501343,-0.31071195006370544,-0.04136904329061508,0.12731803953647614,2.2147724628448486,0.4612303376197815,0.3482135534286499,0.038105715066194534,-1.3342821598052979,-0.020322218537330627,0.14616680145263672,-0.5804276466369629,1.1210908889770508,-0.4972785711288452,-0.6091408133506775,1.4651612043380737,-0.1942460983991623,-1.043069839477539,-0.46692875027656555,-0.8971186280250549,2.4287829399108887,1.415739893913269,-3.139289617538452,-1.223589301109314,-0.5327725410461426,0.5917115211486816,-1.3574055433273315,-0.8766089677810669,1.0989015102386475,0.48809608817100525,-0.8779355883598328,-0.9247032403945923,-0.6426725387573242,-0.005829721689224243,-1.1994783878326416,0.4938200116157532,0.4523734152317047,-0.19465968012809753,0.463321715593338,-0.02657133713364601,-0.02913542091846466,0.11306462436914444,0.35610559582710266,-0.2897554337978363,0.4824950397014618,0.08707292377948761,-0.6691513061523438,-0.3288007974624634,0.556960940361023,0.4576500952243805,-0.25953546166419983,0.23670253157615662,-0.3361159563064575,0.43987712264060974,-1.1294759511947632,0.23095932602882385,1.8158515691757202,0.13681119680404663,1.4109104871749878,-1.3383774757385254,0.11466670036315918,0.5771440863609314,0.5486737489700317,0.0248539038002491,0.472430557012558,0.5455042719841003,1.1610913276672363,-0.5154518485069275,0.6265028119087219,0.38810163736343384,0.028654085472226143,0.13999763131141663,0.03545938804745674,0.09947970509529114,-1.0752381086349487,0.724703311920166,1.4164226055145264,-0.6245450973510742,-0.24377696216106415,1.1896116733551025,-1.4561947584152222,0.6637362837791443
CID000005734,0.22421333193778992,0.02745424583554268,0.24040818214416504,0.0009092539548873901,-0.19435730576515198,0.44991642236709595,-0.4409258961677551,0.039734579622745514,-0.18508875370025635,-0.34538811445236206,0.3315470218658447,-0.19292831420898438,-0.2105913907289505,-0.13435238599777222,-0.7605295777320862,-0.7614682912826538,-0.4628154933452606,-0.9034127593040466,1.3983910083770752,-0.15567627549171448,-0.09004026651382446,-0.8806055784225464,-0.8020144104957581,-0.3476513624191284,1.8596135377883911,0.4903523921966553,-1.016439437866211,1.045899748802185,0.2684449255466461,0.5882967114448547,-0.774186909198761,-0.09656980633735657,-2.462749481201172,0.5736993551254272,0.2900770902633667,-0.011698409914970398,0.4641718566417694,-0.04865213483572006,1.2851693630218506,0.4204576909542084,-0.4259549677371979,-0.3258759081363678,-0.05411253124475479,0.018442168831825256,0.3689468204975128,-0.02463977411389351,-0.3629353642463684,-0.38218000531196594,0.5920388698577881,1.4915276765823364,-0.921515703201294,1.0517196655273438,-0.050973955541849136,-0.0855172872543335,-0.1780797839164734,-0.29338759183883667,-0.38971078395843506,-0.8777089715003967,-0.07249002158641815,0.021586161106824875,-0.8347774147987366,-1.6360857486724854,-0.17664769291877747,0.441407710313797,0.5233400464057922,0.017570585012435913,-0.48862361907958984,1.4244372844696045,-0.2358298897743225,1.6724189519882202,0.14730733633041382,-1.0457926988601685,1.2626551389694214,-0.018904298543930054,0.4948325455188751,-0.39531272649765015,-0.2983481287956238,-0.5397127866744995,0.673832356929779,0.33241087198257446,-0.5874636769294739,0.7703173756599426,-1.031346082687378,-0.7394182682037354,0.6426241993904114,-0.16509446501731873,-0.8120956420898438,-0.5027308464050293,-0.1782967895269394,0.3167228698730469,-0.08772403001785278,0.32807087898254395,0.1887710690498352,-0.27297693490982056,-2.9079062938690186,-0.43424350023269653,0.15585021674633026,-0.337275892496109,0.5515820980072021,-0.028284765779972076,-0.8444728851318359,-0.7132607102394104,0.8058828711509705,-1.0961052179336548,-0.5365113615989685,0.18984204530715942,-0.009041406214237213,-0.7877570986747742,0.277515709400177,-0.4262925684452057,-0.6069847345352173,-0.6673139929771423,1.1846222877502441,-0.6533175110816956,-0.23980341851711273,0.9051871299743652,0.15343168377876282,0.06353677809238434,-0.21980346739292145,-0.008438987657427788,0.6696690320968628,-0.5136618614196777,-0.7642674446105957,0.11240218579769135,-0.041793882846832275,0.4826000928878784,-0.8270835876464844,-0.3722623288631439,0.3348079323768616,0.0006489565130323172,0.3590831160545349,-0.02600465901196003,-1.0838029384613037,-0.38924285769462585,0.07934237271547318,-0.13192127645015717,0.5743354558944702,0.2914857864379883,-0.055552370846271515,-0.13658884167671204,-0.07847708463668823,0.06618063151836395,0.046810321509838104,-0.4647698700428009,-0.301472008228302,0.4837845265865326,-0.006913045421242714,-0.278790682554245,0.3579385578632355,-0.350049763917923,0.17745846509933472,0.1219475269317627,0.10860516130924225,0.7855838537216187,-1.9516770839691162,-0.1481226235628128,0.2661918103694916,1.0737065076828003,0.25377264618873596,-0.8776203989982605,-0.8907931447029114,-0.04187750816345215,-0.3573959171772003,0.04718663543462753,2.0531790256500244,0.0004189535975456238,-0.270692378282547,0.16232462227344513,-0.15293754637241364,-0.8814760446548462,0.3379776179790497,0.8697012662887573,-0.531805157661438,0.1622956246137619,-0.19257953763008118,-0.16822385787963867,-0.107654869556427,0.16517430543899536,2.0579993724823,0.7229411602020264,0.0875512957572937,-0.13338834047317505,-2.7391772270202637,0.3855431079864502,0.3470308482646942,-0.23038838803768158,1.1538673639297485,-0.3240053653717041,-0.6202226877212524,1.2739975452423096,-0.7538142204284668,-0.4645710587501526,-0.25029614567756653,-0.19966642558574677,0.8282957673072815,0.7201318144798279,-2.3185875415802,-1.6874696016311646,0.21773123741149902,1.3943440914154053,-0.803612470626831,-0.1326407492160797,0.7007930278778076,-0.056961119174957275,-0.667901873588562,-0.6517937779426575,-0.43799763917922974,0.08118437230587006,-0.2607952058315277,-0.20063787698745728,0.22002890706062317,-0.22477522492408752,-0.24921585619449615,-0.028859496116638184,-1.4444494247436523,-0.16222389042377472,0.4317963719367981,-0.9597594738006592,0.34383076429367065,0.03562314063310623,-0.3835514783859253,0.4010617434978485,1.276161551475525,0.40753173828125,-0.16877712309360504,0.1925971806049347,-0.0016513653099536896,1.0275293588638306,-0.15464860200881958,0.28051501512527466,0.8151467442512512,-0.002923145890235901,0.9487334489822388,-0.640776515007019,-0.1883096992969513,0.363926500082016,0.16612718999385834,-0.0673779845237732,0.40307337045669556,0.16668754816055298,1.0784958600997925,0.3074752390384674,0.2324821501970291,0.12987396121025085,-0.7242027521133423,-0.07150110602378845,0.30103981494903564,-0.07514767348766327,-1.71511709690094,0.701319694519043,1.104435920715332,-0.12014555931091309,0.09956931322813034,0.6322536468505859,-1.9455938339233398,0.42433643341064453
CID005311181,0.16386649012565613,0.009956512600183487,0.14805273711681366,-0.03317614644765854,0.2797412872314453,0.34886404871940613,-0.026862069964408875,-0.0934252068400383,-0.12445294111967087,-0.09948985278606415,-0.032764747738838196,0.02664773352444172,0.022753313183784485,0.0005709882825613022,-0.11741579324007034,-0.07808090001344681,-0.10330167412757874,-0.17634326219558716,0.16080625355243683,-0.06539800018072128,-0.05253886058926582,-0.1720501035451889,-0.47441428899765015,0.02843828871846199,0.2672714591026306,0.07600650936365128,-0.3988593518733978,0.15540669858455658,0.0661630630493164,0.003282729536294937,-0.3260435461997986,-0.14560100436210632,-0.37892648577690125,0.24505078792572021,0.12737257778644562,-0.017528697848320007,0.4413721561431885,-0.026381630450487137,0.2716330289840698,0.12662345170974731,-0.07746759802103043,-0.17462649941444397,-0.05134715884923935,0.10482778400182724,0.08112049102783203,0.009357098489999771,-0.05976427346467972,-0.05682535469532013,-0.04937175661325455,0.3038152754306793,-0.396010160446167,0.17134763300418854,-0.0046202391386032104,-0.03484806418418884,-0.07606794685125351,-0.03176555037498474,0.033985696732997894,-0.08401631563901901,-0.043589625507593155,0.029603898525238037,-0.14695794880390167,-0.4788936376571655,-0.15407618880271912,0.039185769855976105,0.06611134111881256,-0.029033027589321136,-0.1619558036327362,0.42983555793762207,0.0016002357006072998,0.13310357928276062,0.07798594236373901,-0.09006544202566147,0.273415744304657,0.030500266700983047,0.11545822024345398,-0.021498167887330055,-0.09844470024108887,-0.12198245525360107,0.19673624634742737,0.11658848822116852,-0.09515529870986938,0.1068079024553299,-0.19056960940361023,-0.2602059841156006,0.32325199246406555,-0.03767983615398407,-0.42353296279907227,-0.15709041059017181,-0.03514137119054794,0.34920260310173035,-0.0859861820936203,0.04022623971104622,0.15075458586215973,0.08177333325147629,-0.38610517978668213,-0.1321803778409958,0.11597767472267151,-0.12102045863866806,0.0690983384847641,0.01296296063810587,-0.22242647409439087,-0.002005748450756073,0.3453850746154785,-0.23119476437568665,-0.29180753231048584,0.13387314975261688,-0.0934879407286644,-0.16775068640708923,0.08165545761585236,-0.07839319109916687,-0.07722526043653488,-0.18547041714191437,0.3045535385608673,-0.17084217071533203,-0.021726660430431366,0.23904934525489807,0.09165610373020172,0.08206803351640701,-0.1634489893913269,0.021269679069519043,0.08961829543113708,-0.05969909578561783,-0.327880322933197,0.007851297035813332,0.05223991721868515,0.10022838413715363,-0.2898792028427124,-0.14362427592277527,0.10943026840686798,-0.06943586468696594,0.13497331738471985,-0.07193630933761597,-0.2197142094373703,-0.18029572069644928,-0.02114817500114441,-0.048627544194459915,0.1532343626022339,0.03594646602869034,-0.03702697902917862,-0.003356996923685074,-0.03348506987094879,-0.034195493906736374,0.19506573677062988,-0.06346604973077774,-0.08558446168899536,0.1493625044822693,0.02115056663751602,0.0718412920832634,0.01230371743440628,-0.07283199578523636,-0.006318701431155205,0.05021010711789131,0.22683730721473694,0.17089995741844177,-0.3001062870025635,0.0633128210902214,0.041049275547266006,0.30988800525665283,0.1420270949602127,-0.07584674656391144,-0.28838786482810974,0.09746571630239487,-0.07743652164936066,-0.0224328450858593,0.1485825479030609,0.03926415368914604,-0.06459791958332062,0.23416702449321747,-0.08936776220798492,-0.13405680656433105,0.036609478294849396,0.1239471584558487,-0.15484683215618134,-0.01201697438955307,-0.015912368893623352,-0.03130824863910675,0.004081066697835922,0.07099580764770508,0.5030064582824707,0.40006664395332336,0.013945251703262329,0.020490795373916626,-0.8876419067382812,0.012029357254505157,-0.001326136291027069,-0.10081242769956589,0.26437172293663025,-0.04611925035715103,-0.08818738162517548,0.2519718408584595,-0.03964190185070038,-0.1118474006652832,-0.08854518830776215,-0.08910275995731354,0.11226077377796173,0.3017768859863281,-0.7825789451599121,-0.3001866936683655,-0.00040139444172382355,0.24207067489624023,-0.3720007836818695,-0.033169861882925034,0.12334595620632172,-0.019031405448913574,-0.07540884613990784,-0.13721168041229248,-0.11134400218725204,0.162394180893898,-0.03729775920510292,-0.14446458220481873,0.013030089437961578,-0.08657196164131165,-0.03630969300866127,-0.030281322076916695,-0.2508019804954529,-0.14020343124866486,0.08237723261117935,-0.22534197568893433,0.025897622108459473,-0.029198449105024338,-0.08883552253246307,0.009411423467099667,0.25287044048309326,0.16050167381763458,-0.16298140585422516,-0.04262276738882065,0.04221312329173088,0.23866187036037445,-0.10288414359092712,-0.09972503781318665,0.44968312978744507,0.05764845013618469,0.1998462975025177,-0.16605731844902039,-0.09573401510715485,0.06937020272016525,0.0926186591386795,-0.05988668277859688,0.0605967678129673,0.06798498332500458,0.17734317481517792,0.14040353894233704,0.04253692552447319,0.053292542695999146,-0.16533634066581726,-0.001706629991531372,0.07102209329605103,-0.05320097506046295,-0.2505340874195099,0.13364127278327942,0.2607347071170807,-0.04061175510287285,0.036965470761060715,0.06839300692081451,-0.20321495831012726,0.22358940541744232
CID000148192,-0.026952248066663742,0.06483664363622665,0.8645439743995667,-0.09528367966413498,-0.5078986287117004,-0.10898371785879135,-0.09373930096626282,-0.17454950511455536,-0.09081558883190155,-0.5091195106506348,-0.126167893409729,0.1261158138513565,0.09046897292137146,0.44740235805511475,-0.592910647392273,0.13207557797431946,-0.2865266501903534,-0.5830087661743164,0.47697508335113525,-0.06871965527534485,0.36303824186325073,-0.7210282683372498,-1.094266653060913,0.5244568586349487,1.8224700689315796,0.41538795828819275,-2.603536605834961,0.8081877827644348,-0.2652207016944885,-0.09667208790779114,-0.31804028153419495,-0.676243007183075,0.3792986273765564,1.1136857271194458,0.3817121386528015,-0.02674390748143196,-0.24388408660888672,-0.010223880410194397,1.5272752046585083,1.374610424041748,0.24667243659496307,-0.20102660357952118,-0.4230968654155731,0.4461681544780731,0.5723586678504944,0.1252416968345642,0.028850430622696877,-0.019741423428058624,0.35095083713531494,1.197755217552185,0.33693259954452515,1.240071415901184,-0.09423583000898361,0.030569113790988922,-0.08592046797275543,-0.8478138446807861,0.1610010862350464,-0.2746901512145996,-0.1458550989627838,-0.1841723620891571,-0.8212087154388428,0.012830470688641071,-0.36285680532455444,0.0638575553894043,0.029572609812021255,-0.8001511096954346,-0.27144357562065125,1.5291334390640259,-0.4427316188812256,0.9596994519233704,0.3043898940086365,-0.2688668370246887,-0.2029697448015213,-0.24237526953220367,0.42953863739967346,-0.33914393186569214,0.021730514243245125,-0.01263958215713501,0.8290799260139465,-0.0005857944488525391,-0.37250813841819763,0.14972276985645294,-0.7787617444992065,-0.6497620940208435,1.2753770351409912,0.15939263999462128,-2.2996628284454346,-0.13817857205867767,0.0038978904485702515,3.7579774856567383,-0.5249900817871094,-0.3751906454563141,0.5878909230232239,0.12002015858888626,0.004724178463220596,-0.5524587631225586,0.31878024339675903,-0.8605713844299316,0.12642113864421844,-0.32214537262916565,-1.07239830493927,0.14236947894096375,1.9182674884796143,-1.66183340549469,-0.5001253485679626,0.023548945784568787,-0.012744113802909851,-0.44477516412734985,0.02259921282529831,-0.6479613780975342,-0.15437600016593933,-0.3966592252254486,1.0699437856674194,-0.16530728340148926,0.23655372858047485,0.8935347199440002,0.4854806959629059,0.23696742951869965,-0.26255226135253906,-0.02219192311167717,1.3258928060531616,-0.35405492782592773,-4.749983310699463,0.20518697798252106,-0.1951839029788971,0.9331279397010803,-1.5344154834747314,-0.26633504033088684,0.2488226741552353,-0.3052348792552948,0.9636189937591553,-0.15264996886253357,-0.536322295665741,-6.77591609954834,-0.3401940166950226,-0.02539122849702835,0.7091373801231384,0.11182230710983276,0.40261146426200867,0.2035769373178482,-0.12184911966323853,-0.013847732916474342,0.024458641186356544,-0.3311854302883148,0.00011558085680007935,0.2826334238052368,0.3874147832393646,0.5429157614707947,-0.26774802803993225,-0.19996152818202972,-0.09788210690021515,-0.07163917273283005,-0.25369957089424133,0.5471864938735962,0.1795441061258316,-0.33828362822532654,-0.13529571890830994,1.02961003780365,0.21093091368675232,0.025627240538597107,-1.74373197555542,0.1705513298511505,-0.04582544416189194,-0.05589306354522705,1.2166337966918945,0.41057270765304565,-0.3674556016921997,-0.02990470826625824,-0.4517585039138794,-0.5927712917327881,0.6560717225074768,0.1923433542251587,-0.2376134693622589,0.03250012919306755,0.2067982405424118,-0.08698271960020065,-0.0483369380235672,0.19643868505954742,4.472484588623047,-0.1351904273033142,0.3123307228088379,-0.021084953099489212,-2.188117027282715,0.28849363327026367,-0.2560431957244873,-0.03804885596036911,0.6226608753204346,-0.5563550591468811,-0.4709114730358124,2.422459602355957,-0.32861563563346863,-0.4978044033050537,-0.3568127751350403,-0.1608618199825287,0.39885395765304565,0.04239692538976669,-0.7655990123748779,-1.409461259841919,0.06717788428068161,0.9986090660095215,-6.812269687652588,-0.24723412096500397,1.2894841432571411,-0.12144866585731506,-1.016753911972046,-0.310340940952301,0.3055477440357208,0.6172387599945068,-0.08443452417850494,-0.491409569978714,-0.3329387307167053,-0.08622903376817703,0.26901715993881226,0.0690101832151413,0.20619790256023407,-0.7649218440055847,0.13978436589241028,0.2444840669631958,0.3869493901729584,-0.036327388137578964,-0.3380400240421295,0.4218294024467468,2.082476854324341,-0.23005671799182892,0.06832326203584671,-0.37781351804733276,-0.09153331816196442,0.3515014052391052,-0.5547518134117126,-0.14173389971256256,-0.845262885093689,-0.19358906149864197,0.27218562364578247,-0.5727001428604126,-0.24985411763191223,0.33594468235969543,0.1945231854915619,0.05013154819607735,0.23028554022312164,0.1948956996202469,1.0040234327316284,0.885932981967926,0.08450528234243393,0.08899961411952972,-0.5532724857330322,0.13451378047466278,0.37706053256988525,-0.30374425649642944,-1.5968374013900757,0.4172300100326538,0.06556493043899536,-0.2538250982761383,-0.06911096721887589,0.4631478488445282,-0.15594229102134705,5.1307549476623535
CID000002541,0.566183865070343,0.11773481220006943,0.5227311253547668,-0.15337952971458435,0.9477950930595398,0.8885431885719299,-0.10335300117731094,-0.009815756231546402,-0.30609700083732605,-0.3264606297016144,-0.03452117368578911,0.02961178869009018,0.04307253658771515,-0.02541733905673027,-0.40685728192329407,-0.6329864859580994,-0.28734809160232544,-0.7049920558929443,1.0293391942977905,-0.04850461333990097,-0.12019532918930054,-0.5876014232635498,-1.596156358718872,0.023444168269634247,0.9575396776199341,0.3376099765300751,-1.2606581449508667,0.7689030766487122,0.1750200390815735,0.18949781358242035,-1.1780786514282227,-0.35576534271240234,-1.4739158153533936,0.9019391536712646,0.2759416401386261,-0.1479775309562683,1.2592473030090332,-0.11503002047538757,0.8939809203147888,0.3600414991378784,-0.3349446952342987,-0.6852247714996338,-0.1607901155948639,0.24206601083278656,0.3158116340637207,0.14035522937774658,-0.05654124170541763,-0.15033331513404846,-0.02745075151324272,1.1625231504440308,-1.0416263341903687,0.7091147899627686,-0.15779370069503784,0.1221083551645279,-0.3172075152397156,-0.02757812663912773,-0.025465503334999084,-0.4755634069442749,-0.05518009513616562,-0.17536389827728271,-0.6291566491127014,-1.4225648641586304,-0.35172396898269653,0.07356907427310944,0.1955450028181076,-0.1563747227191925,-0.4647129774093628,1.4301379919052124,-0.09899289160966873,0.40733999013900757,-0.021722175180912018,-0.3439149558544159,0.9370512962341309,-0.04322085902094841,0.5065684914588928,-0.25565776228904724,-0.2760167419910431,-0.40774205327033997,0.43506211042404175,0.40852636098861694,-0.3841593265533447,0.3663133680820465,-0.7121108770370483,-0.6836168169975281,0.8525996208190918,-0.04521581158041954,-1.183826208114624,-0.4925198554992676,-0.2011469304561615,0.8847737908363342,-0.2573951780796051,0.07604752480983734,0.4440648853778839,0.036464422941207886,-1.3936351537704468,-0.48931461572647095,0.213339701294899,-0.3501432240009308,0.05440682917833328,-0.22060999274253845,-0.7873252034187317,-0.011541012674570084,1.418178915977478,-0.335962176322937,-1.0238368511199951,0.49499309062957764,-0.19969722628593445,-0.6900632977485657,0.2971935272216797,-0.3732989728450775,-0.17397384345531464,-0.42134904861450195,1.204606294631958,-0.465801477432251,-0.11583083868026733,0.9193532466888428,0.4985302686691284,0.05561499670147896,-0.5264418125152588,-0.0243348628282547,0.15554960072040558,-0.2753368616104126,-0.7042554616928101,0.05480791628360748,0.05157189816236496,0.34237736463546753,-1.102299451828003,-0.48366042971611023,0.16380718350410461,-0.3062053322792053,0.32656604051589966,-0.22017858922481537,-0.38275110721588135,-0.34825897216796875,0.0731305480003357,-0.08232356607913971,0.4368995726108551,0.11778213828802109,0.012562237679958344,-0.07202091813087463,-0.15562812983989716,-0.07691918313503265,0.5759801268577576,-0.45951417088508606,-0.2542656660079956,0.47932887077331543,0.07739025354385376,0.09561313688755035,0.04348326101899147,-0.387531042098999,-0.011643394827842712,0.020492326468229294,0.6315560340881348,0.6102626323699951,-1.3999072313308716,-0.09644868969917297,0.18159815669059753,1.1513748168945312,0.24531683325767517,-0.2706228494644165,-0.9457640647888184,0.2621205747127533,-0.380166620016098,-0.021667983382940292,0.9089141488075256,0.14254838228225708,-0.16834697127342224,0.7033789157867432,-0.22049236297607422,-0.20239892601966858,0.09435108304023743,0.42147332429885864,-0.3838704228401184,-0.06438932567834854,-0.009568152949213982,-0.19268295168876648,-0.03871831297874451,0.031865738332271576,1.9656939506530762,1.0369458198547363,0.24915046989917755,0.2690370976924896,-2.843083381652832,-0.0108221136033535,0.10329119861125946,-0.4390568733215332,0.9661613702774048,-0.45940089225769043,-0.3050693869590759,1.094451904296875,-0.40350595116615295,-0.39118415117263794,-0.4197727143764496,-0.09242359548807144,0.4238620102405548,0.8753177523612976,-2.550328493118286,-1.1797847747802734,0.019583754241466522,0.9183017015457153,-0.8452093601226807,-0.17974820733070374,0.45304879546165466,-0.005852340720593929,0.08370132744312286,-0.2831072509288788,-0.49672776460647583,0.43515583872795105,-0.29846251010894775,-0.4240107238292694,0.14478576183319092,-0.28470954298973083,-0.3162262439727783,-0.07853289693593979,-1.2738763093948364,-0.43110471963882446,0.31605878472328186,-0.9873740077018738,0.0977628156542778,-0.02586039900779724,-0.17396041750907898,0.12166907638311386,1.1833524703979492,0.4824043810367584,-0.5107923746109009,-0.06244979798793793,0.023029662668704987,0.5520542860031128,-0.25729236006736755,-0.0009350664913654327,1.182329773902893,0.5788190364837646,0.6342757344245911,-0.6112926602363586,-0.21891608834266663,0.23062646389007568,0.21731120347976685,-0.17387402057647705,0.405659943819046,0.2775956690311432,0.7718572020530701,0.23172420263290405,0.2292255461215973,0.10275275260210037,-0.3436843156814575,0.009429916739463806,0.20380930602550507,-0.17361044883728027,-0.888615608215332,0.4800805151462555,1.0395816564559937,-0.20225070416927338,0.05794467031955719,0.44833508133888245,-0.9381291270256042,0.3587903380393982
CID000110635,1.0361196994781494,0.1828887015581131,0.5963816046714783,0.16755132377147675,0.17562419176101685,0.10115867853164673,-0.291543573141098,0.02895379066467285,0.009720832109451294,-0.08084554970264435,0.02524247020483017,0.1164446473121643,-0.14905911684036255,-0.502446174621582,-0.13816232979297638,-0.39733806252479553,-0.4108833372592926,-0.7765084505081177,-0.47119954228401184,-0.3561496138572693,-0.10043268650770187,-0.3067260682582855,-0.25237953662872314,0.015331283211708069,1.0396883487701416,0.009280703961849213,-0.499664306640625,0.20723176002502441,-0.15118327736854553,0.046692728996276855,-0.7257024645805359,-0.11834613978862762,-0.09117139875888824,0.13121767342090607,0.08337406814098358,0.04883112385869026,0.8887037038803101,0.03253593668341637,0.3403952121734619,0.5399806499481201,-0.229418084025383,0.10984040051698685,-0.1542513221502304,0.07606267184019089,0.060417503118515015,0.2856663763523102,0.22145429253578186,0.09408991783857346,-0.003535393625497818,0.5791906714439392,-0.07601629197597504,0.08614939451217651,-0.12287672609090805,-0.2204698622226715,0.07925941795110703,0.02069646120071411,0.31972283124923706,-0.16316261887550354,-0.2497043013572693,-0.18251900374889374,-0.4596930146217346,-0.9795659184455872,0.011437878012657166,0.21530556678771973,0.012757234275341034,0.003950133919715881,-0.4515860378742218,1.015333652496338,-0.2221861332654953,0.29388630390167236,0.43517667055130005,-0.2808227837085724,0.25908464193344116,0.17264164984226227,0.039719730615615845,0.19301354885101318,-0.2930774986743927,-0.04442552477121353,-0.16578158736228943,0.12807032465934753,-0.5755752921104431,0.2460961490869522,-0.14432509243488312,-0.6550923585891724,-0.14330299198627472,0.17359870672225952,-0.8041617274284363,-0.2697035074234009,0.1306382119655609,0.36668530106544495,-0.0978723019361496,-0.04884946346282959,0.23699739575386047,0.5399674773216248,-0.18404501676559448,-0.1249099150300026,0.2696709632873535,-0.2438286691904068,0.1566275656223297,-0.13091032207012177,-0.3892821967601776,-0.24922604858875275,2.8719730377197266,-0.7794149518013,-0.7173389792442322,0.5936216115951538,-0.048779167234897614,-0.22123634815216064,0.22455304861068726,0.31009969115257263,0.06922970712184906,-0.4385421872138977,0.37500160932540894,-0.23929914832115173,0.0692572146654129,0.4760317802429199,0.16889052093029022,0.2243620902299881,-0.03872224688529968,-0.043220244348049164,0.5152443647384644,0.24561350047588348,-1.6225717067718506,-0.39596855640411377,-0.07972417026758194,0.06825527548789978,0.20044489204883575,-0.06119965761899948,0.1488509327173233,-0.5410024523735046,0.20905286073684692,-0.022331399843096733,-0.16373682022094727,-1.2827068567276,-0.1093229129910469,-0.05296207591891289,0.6219203472137451,-0.03694245219230652,-0.09198705852031708,0.27744272351264954,0.3634381890296936,0.2868880033493042,0.306957483291626,-0.3607777953147888,-0.026102706789970398,0.6663834452629089,-0.09153293073177338,0.01555149257183075,-0.24755547940731049,-0.4780656099319458,0.1823304295539856,0.0575905367732048,0.2545768618583679,0.3656708598136902,-0.14141930639743805,0.419666588306427,0.11693364381790161,1.379495620727539,0.1975943148136139,-0.3749031126499176,-1.0241855382919312,-0.06542909145355225,-0.290090411901474,0.1839754730463028,-0.12956291437149048,0.20535211265087128,-0.3235541582107544,-0.08148716390132904,-0.12387153506278992,-0.31835389137268066,0.11180880665779114,0.21350935101509094,-0.11656288802623749,0.07906445115804672,0.3677999675273895,0.14047005772590637,-0.03181403502821922,0.11687839031219482,1.057089924812317,0.37062734365463257,0.13634958863258362,0.23367704451084137,-0.7024151086807251,0.02726253867149353,-0.49244487285614014,-0.26278457045555115,0.24247246980667114,-0.303857684135437,0.19035081565380096,1.2273231744766235,0.043254852294921875,-0.023092031478881836,-0.2568136751651764,-0.6692441701889038,0.3220580518245697,-0.08181893080472946,-1.470913052558899,-0.23433278501033783,-0.1379747986793518,0.7319964170455933,-1.943914771080017,0.09445212036371231,-0.03652364760637283,-0.1511608511209488,-0.3166126012802124,0.17563189566135406,-1.0637835264205933,0.36730247735977173,0.022549927234649658,-0.12878724932670593,0.013937912881374359,0.0063051157630980015,-0.39973363280296326,0.0665559396147728,-0.18711906671524048,-0.42648881673812866,0.1518198400735855,-0.03872588649392128,0.1310226172208786,0.4588417112827301,-0.2987760305404663,-0.07445086538791656,0.41376447677612305,0.05242082476615906,-0.48842620849609375,0.2889111340045929,0.36733877658843994,0.3931635022163391,0.002202006056904793,0.09035392105579376,0.0389980748295784,0.048736732453107834,0.3339619040489197,-0.4914185404777527,-0.506054162979126,0.14213469624519348,0.02413979172706604,-0.05901085585355759,0.2107463926076889,-0.12474159896373749,-0.4026128947734833,0.3729570209980011,0.02931697852909565,-0.05969523638486862,-0.08902528882026672,-0.034527912735939026,0.3421996533870697,-0.01315975934267044,-0.7964727282524109,0.19211554527282715,0.008104801177978516,0.31886234879493713,-0.01799914613366127,0.3152824640274048,-0.2349051684141159,0.5791192054748535
CID000005358,0.24606266617774963,0.037579476833343506,0.22691787779331207,-0.05944634601473808,0.5432823300361633,0.4705709218978882,-0.026970073580741882,-0.007837817072868347,-0.10673944652080536,-0.17413288354873657,-0.013810438103973866,0.018418580293655396,-0.021538861095905304,0.013711214065551758,-0.16683819890022278,-0.29762002825737,-0.16413649916648865,-0.4176535904407501,0.5424994230270386,-0.030772553756833076,-0.11391670256853104,-0.2803204655647278,-0.7893068790435791,-0.043885067105293274,0.3953399360179901,0.17609016597270966,-0.6707805395126343,0.28546735644340515,0.09071725606918335,0.08895179629325867,-0.588354229927063,-0.18791049718856812,-0.6932398676872253,0.4556316137313843,0.13397890329360962,-0.08047550171613693,0.7266671061515808,-0.057610563933849335,0.4778476357460022,0.17130790650844574,-0.1705661118030548,-0.34061184525489807,-0.07267563045024872,0.11429642140865326,0.14002564549446106,0.05727384239435196,-0.057853300124406815,-0.08472855389118195,-0.010574199259281158,0.5813310146331787,-0.6355330348014832,0.2575375437736511,-0.09375995397567749,0.0719706267118454,-0.13183727860450745,0.020420432090759277,-0.04680854082107544,-0.21047767996788025,0.000746672973036766,-0.10349422693252563,-0.26142406463623047,-0.7496619820594788,-0.17599819600582123,0.03340686112642288,0.08416597545146942,-0.055894091725349426,-0.2253609001636505,0.7231317758560181,-0.026120614260435104,0.20541790127754211,-0.003019563853740692,-0.15494900941848755,0.4466748535633087,-0.01486206240952015,0.3089064061641693,-0.13182401657104492,-0.11090434342622757,-0.20361240208148956,0.21803073585033417,0.1493827998638153,-0.19001156091690063,0.11804681271314621,-0.3680095970630646,-0.26711001992225647,0.28244295716285706,-0.017252709716558456,-0.6587532758712769,-0.28720542788505554,-0.09783217310905457,0.4434468448162079,-0.12399780750274658,0.03988019376993179,0.23857444524765015,0.009605668485164642,-0.665669858455658,-0.2649044394493103,0.0962991863489151,-0.15929453074932098,0.010474057868123055,-0.09917129576206207,-0.39719316363334656,-0.0248845387250185,0.6090547442436218,-0.05444177985191345,-0.5423046946525574,0.2845138907432556,-0.09887088090181351,-0.3354862630367279,0.1652514934539795,-0.20452697575092316,-0.060254499316215515,-0.23582395911216736,0.6784651279449463,-0.216840922832489,-0.07244723290205002,0.4442550539970398,0.23304741084575653,0.05197538435459137,-0.30209118127822876,-0.00786617025732994,0.04628154635429382,-0.14567650854587555,-0.319119393825531,0.0255371555685997,-0.0030215978622436523,0.1833314299583435,-0.4998267889022827,-0.22204594314098358,0.0807080864906311,-0.1522018164396286,0.14979562163352966,-0.10066377371549606,-0.14855585992336273,-0.1350887417793274,0.034711793065071106,-0.0604887418448925,0.25294286012649536,0.10187143087387085,-0.009607706218957901,-0.013497650623321533,-0.07097084075212479,-0.08365583419799805,0.27698346972465515,-0.2127101868391037,-0.1016964316368103,0.2742900550365448,-0.001026339828968048,0.048379749059677124,0.022308513522148132,-0.18430224061012268,-0.0014350339770317078,0.04493623971939087,0.3454912006855011,0.30824312567710876,-0.5955119132995605,-0.03677472472190857,0.08810100704431534,0.5951553583145142,0.09983252733945847,-0.16645079851150513,-0.44918394088745117,0.14853155612945557,-0.21281082928180695,-0.06652983278036118,0.381470263004303,0.05060543119907379,-0.0703866109251976,0.33707764744758606,-0.11842337250709534,-0.07434248924255371,0.05520188435912132,0.20642393827438354,-0.1665915846824646,-0.0295389536768198,0.0033726319670677185,-0.11924496293067932,-0.019299158826470375,-0.007704012095928192,0.7672445774078369,0.6110100746154785,0.1343195140361786,0.1450752317905426,-1.391229271888733,0.001293182373046875,0.11112885922193527,-0.22487019002437592,0.45366162061691284,-0.276091068983078,-0.1597282886505127,0.4496902525424957,-0.21016156673431396,-0.22289754450321198,-0.19216997921466827,-0.028444550931453705,0.17837676405906677,0.4295446276664734,-1.2847894430160522,-0.6549299955368042,-0.01147594302892685,0.4483148455619812,-0.3680558204650879,-0.0938374474644661,0.2030334621667862,-0.024739284068346024,0.1256609559059143,-0.14140139520168304,-0.2573963403701782,0.2426510751247406,-0.14277178049087524,-0.19233031570911407,0.0828884094953537,-0.16566228866577148,-0.19789551198482513,-0.05644521862268448,-0.5992940068244934,-0.23643279075622559,0.17068475484848022,-0.44142255187034607,0.031079746782779694,-0.013594632968306541,-0.05925265699625015,0.10596602410078049,0.5714336037635803,0.2594788670539856,-0.23907269537448883,-0.0450172983109951,0.0036525949835777283,0.20673756301403046,-0.17579922080039978,-0.016443558037281036,0.8099651336669922,0.4015641212463379,0.3216412663459778,-0.3396545946598053,-0.1295919269323349,0.10956715792417526,0.09360124170780182,-0.0918123722076416,0.21051229536533356,0.11788388341665268,0.39150574803352356,0.07896360754966736,0.09409371018409729,0.03530431166291237,-0.16762998700141907,-0.009358547627925873,0.05789783224463463,-0.07038088142871857,-0.46836063265800476,0.23655277490615845,0.5487629771232605,-0.11126327514648438,0.017449509352445602,0.22498539090156555,-0.3927974998950958,0.13141164183616638
CID000003510,0.15035007894039154,0.03655017912387848,0.17591015994548798,-0.033104658126831055,0.28171080350875854,0.42774271965026855,-0.048195332288742065,-0.053667087107896805,-0.16460071504116058,-0.11180713027715683,-0.07986469566822052,-0.014328541234135628,-0.024743398651480675,0.06550009548664093,-0.205330491065979,-0.08787032961845398,-0.1378234475851059,-0.23105795681476593,0.3783544898033142,-0.06120140105485916,-0.033041179180145264,-0.28683191537857056,-0.5865774154663086,0.03040260821580887,0.32893019914627075,0.1153317391872406,-0.4523411989212036,0.23496195673942566,0.07626314461231232,0.03588219732046127,-0.49650126695632935,-0.2103899121284485,-0.626046359539032,0.29472994804382324,0.14280937612056732,-0.05304786562919617,0.7031496167182922,-0.05026824399828911,0.3362165689468384,0.13314250111579895,-0.13600577414035797,-0.251283198595047,-0.0143197700381279,0.11539984494447708,0.11080269515514374,0.00830075889825821,-0.04764363914728165,-0.08593610674142838,-0.0429842546582222,0.41249650716781616,-0.5312784314155579,0.26983642578125,-0.08022128790616989,0.025639347732067108,-0.062107112258672714,-0.013929296284914017,0.02625036984682083,-0.19706088304519653,-0.11383052170276642,-0.005970165133476257,-0.15244954824447632,-0.8486601710319519,-0.15374572575092316,0.04900002479553223,0.07247628271579742,-0.07958147674798965,-0.2097657322883606,0.5866743326187134,-0.03274429589509964,0.18070732057094574,0.05457969009876251,-0.1319589614868164,0.342634916305542,0.01774628832936287,0.18923461437225342,-0.05283198133111,-0.17130139470100403,-0.11892084777355194,0.255582720041275,0.11247488111257553,-0.16950133442878723,0.08245360851287842,-0.2580537796020508,-0.38600030541419983,0.5727781057357788,-0.002337506040930748,-0.4691564440727234,-0.2116391509771347,-0.08748411387205124,0.2837367653846741,-0.0923442617058754,0.03556490316987038,0.21007323265075684,0.11309151351451874,-0.6982043385505676,-0.22912392020225525,0.11616817116737366,-0.09769364446401596,0.061710163950920105,-0.035802826285362244,-0.2972438931465149,-0.05628882348537445,0.5554255247116089,-0.2515307664871216,-0.3760327696800232,0.22369928658008575,-0.026527266949415207,-0.2048252820968628,0.06308779120445251,-0.1629251390695572,-0.0867237001657486,-0.30721285939216614,0.484456866979599,-0.26117104291915894,-0.04526102542877197,0.32524558901786804,0.17930595576763153,0.06338822841644287,-0.23604078590869904,-0.015481006354093552,0.11746392399072647,-0.11265036463737488,-0.3565521836280823,-0.049029648303985596,0.01245306245982647,0.06013425439596176,-0.2908708155155182,-0.18947777152061462,0.1719418168067932,-0.08047658950090408,0.19059891998767853,-0.041184429079294205,-0.3047564923763275,-0.3561598062515259,0.010830648243427277,-0.05168243497610092,0.26043128967285156,-0.028276395052671432,-0.027888715267181396,-0.06424609571695328,-0.031503334641456604,-0.029360026121139526,0.22232769429683685,-0.1389889419078827,-0.11661359667778015,0.18389852344989777,-0.03585624694824219,0.12691739201545715,-0.036119312047958374,-0.1284189224243164,0.07905851304531097,0.06725698709487915,0.2489502727985382,0.24657674133777618,-0.5062386989593506,-0.0036325454711914062,0.059899695217609406,0.486857533454895,0.15923817455768585,-0.06492573022842407,-0.28995728492736816,0.0985489934682846,-0.11773387342691422,-0.05333317443728447,0.2510369122028351,0.02098463661968708,-0.09141865372657776,0.29207471013069153,-0.11931181699037552,-0.16867123544216156,-0.011526614427566528,0.1601586937904358,-0.21794860064983368,0.00393044576048851,-0.027023106813430786,-0.04064378887414932,-0.008799686096608639,0.018354345113039017,0.800899088382721,0.49609625339508057,0.03407444804906845,0.053261447697877884,-1.4381465911865234,0.009254701435565948,-0.019681241363286972,-0.1370028257369995,0.31515780091285706,-0.07112038880586624,-0.16321802139282227,0.20973041653633118,-0.08082108944654465,-0.11546637862920761,-0.10739437490701675,-0.07853606343269348,0.15208397805690765,0.3523029685020447,-1.0757133960723877,-0.3983671963214874,-0.06268827617168427,0.36397549510002136,-0.5098440647125244,-0.03733845055103302,0.19282276928424835,-0.06225326284766197,-0.058362990617752075,-0.13260136544704437,-0.08069037646055222,0.219323992729187,-0.08272948861122131,-0.20633192360401154,0.044464416801929474,-0.07842377573251724,-0.0593273788690567,-0.014453008770942688,-0.4175117015838623,-0.20888808369636536,0.09029951691627502,-0.34794822335243225,0.005597151815891266,-0.020229529589414597,-0.15169598162174225,0.034838005900382996,0.30302679538726807,0.148217111825943,-0.18843898177146912,-0.07102204114198685,0.07224991917610168,0.1873677372932434,-0.12372053414583206,-0.03464783355593681,0.6115209460258484,0.09581790119409561,0.26262664794921875,-0.21507740020751953,-0.08367684483528137,0.13197991251945496,0.09594392776489258,-0.06744227558374405,0.15107668936252594,0.07031814754009247,0.31100529432296753,0.17881223559379578,0.06228296458721161,0.06950922310352325,-0.19140592217445374,-0.01312989741563797,0.07591598480939865,-0.03782476484775543,-0.33552783727645874,0.1587495505809784,0.33911994099617004,-0.032392218708992004,-0.0018865428864955902,0.07392819225788116,-0.33217093348503113,0.35905125737190247
CID000005381,0.39815810322761536,0.5117841958999634,1.017240047454834,0.14739388227462769,0.2634722888469696,0.5697190761566162,-0.6619614362716675,-0.3213403820991516,-0.596169114112854,0.03499417006969452,0.613968551158905,-0.3580048978328705,-0.7571996450424194,-0.2891194224357605,-0.8728994727134705,-0.06943777948617935,-0.7239211797714233,-0.28405988216400146,0.026114843785762787,0.6472207903862,0.2914995551109314,-0.7388949394226074,-0.6795191168785095,0.05340498685836792,1.5100494623184204,0.033745601773262024,-1.2897114753723145,1.062400460243225,0.41873347759246826,-0.1291917860507965,-1.399057149887085,-0.6839640736579895,-0.9918314218521118,0.28179869055747986,0.3947714567184448,-0.21607190370559692,0.20274139940738678,-0.14295697212219238,0.7296559810638428,0.3953338861465454,-0.11445141583681107,-0.6583230495452881,0.16772441565990448,0.3996884226799011,0.5042294859886169,0.04865165427327156,0.3995423913002014,-0.3863118290901184,-0.09132426977157593,0.8508753180503845,-0.6024306416511536,1.3713901042938232,0.093655526638031,-0.034737490117549896,-0.22367312014102936,-0.31186649203300476,0.055475134402513504,-0.7620156407356262,-0.29062962532043457,0.2935675382614136,-0.965165376663208,-1.1015470027923584,-0.26860150694847107,0.3502902686595917,0.5990607738494873,-0.771034836769104,-2.547800302505493,1.2081464529037476,-0.19907636940479279,1.0476386547088623,-0.04186347872018814,-0.3066520094871521,0.8000867366790771,0.22175092995166779,-0.420328289270401,0.49065491557121277,-0.28430479764938354,-0.2977008819580078,0.6043710708618164,1.6107006072998047,-0.15258283913135529,0.2303142249584198,-0.6595236659049988,-1.9378350973129272,2.364997386932373,0.24184639751911163,-0.4028617739677429,-0.38487380743026733,-0.23244868218898773,0.4317138195037842,0.1099468320608139,0.21841120719909668,0.3588668406009674,0.014306120574474335,-1.0631206035614014,-0.910304844379425,-0.17424380779266357,-0.1662902981042862,0.3154427409172058,-0.7752453684806824,0.2763410210609436,-0.530771791934967,2.405268430709839,-0.8665192127227783,-0.6189403533935547,0.924519956111908,-0.04870197921991348,-0.4696201980113983,0.2282511442899704,-0.17075327038764954,-0.6928893327713013,-1.6627649068832397,-0.20864851772785187,-1.403483271598816,0.3390693664550781,0.5248372554779053,0.4813448488712311,-0.20493431389331818,-0.772308349609375,0.20398937165737152,1.0687308311462402,-0.0017361082136631012,-2.0009660720825195,0.28834447264671326,-0.08969886600971222,0.8370504379272461,-0.3676181435585022,-0.424930602312088,0.8663042783737183,-0.9377867579460144,0.7293535470962524,0.05144583433866501,-0.8302882313728333,-3.448343515396118,-0.17617134749889374,-0.3161918520927429,0.38719040155410767,-0.20794004201889038,-0.21094605326652527,-0.14757859706878662,0.25718438625335693,0.31108570098876953,1.0015252828598022,-0.17289720475673676,-0.7112382650375366,0.04343331605195999,-0.13613122701644897,0.2542356550693512,-0.05849223583936691,-0.3565370738506317,1.175269365310669,0.17153260111808777,0.6696622371673584,0.589381992816925,-0.5571034550666809,-0.3615095019340515,0.6136879920959473,3.2851431369781494,1.0440878868103027,-0.6638590097427368,-1.6978304386138916,0.9614788293838501,-0.7016813158988953,-0.1017281711101532,0.26186543703079224,-0.14376366138458252,-0.3799355924129486,1.5595343112945557,0.33620643615722656,-0.9692885279655457,-0.38759762048721313,0.5045877695083618,-0.8071997165679932,-0.06496426463127136,0.3197270929813385,-0.27594059705734253,0.39596253633499146,0.13654352724552155,4.698457717895508,0.737943172454834,0.014262235723435879,0.03180275857448578,-6.35962438583374,0.23957550525665283,-0.7346906065940857,-0.39349377155303955,0.6711583733558655,0.10375701636075974,-0.3130698800086975,0.9306066036224365,-1.5278373956680298,-0.37990814447402954,-0.46775689721107483,-0.026291824877262115,-0.06734970957040787,1.1228461265563965,-2.010143518447876,-0.47867459058761597,-0.17842277884483337,0.7214817404747009,-1.4426445960998535,0.05284978821873665,-0.031668949872255325,-0.38955071568489075,-1.1064941883087158,-0.19984430074691772,-0.8128525018692017,0.6658148765563965,-0.6882202625274658,-0.9589260220527649,-0.007683776319026947,-0.3605806529521942,-0.08454857766628265,0.031573716551065445,-0.45834100246429443,-0.7243266105651855,0.26514625549316406,-1.1518839597702026,0.32064342498779297,0.29748451709747314,-1.4008581638336182,0.20901373028755188,0.9055804014205933,0.20318244397640228,-1.8808847665786743,0.01842666231095791,0.20129208266735077,1.1949564218521118,-1.199971318244934,0.08553720265626907,0.38295072317123413,0.03402925282716751,0.17186465859413147,-0.24909716844558716,-0.25668561458587646,0.4591667354106903,0.40643325448036194,-0.4376593232154846,0.697016179561615,0.03356806933879852,0.10008520632982254,1.581451654434204,0.042737364768981934,0.34238845109939575,-2.4422247409820557,0.202559694647789,1.0045667886734009,-0.10705791413784027,-1.1309700012207031,0.5887808799743652,0.5285637974739075,0.03364294767379761,0.3871345520019531,0.8109452128410339,-0.4151240587234497,1.409925937652588
CID000004211,0.5003727674484253,0.0697694942355156,0.5256906151771545,-0.11876122653484344,1.0440466403961182,0.7069748044013977,-0.04423928260803223,-0.0726156011223793,-0.29087209701538086,-0.23784352838993073,-0.0531744658946991,-0.05800873413681984,0.03027396649122238,0.05557630956172943,-0.2638883590698242,-0.6005460023880005,-0.2631937861442566,-0.5824337601661682,0.8137128353118896,0.0061538368463516235,-0.05699083209037781,-0.43144169449806213,-1.4941918849945068,-0.01406298577785492,0.5740967988967896,0.2861779034137726,-0.9687316417694092,0.7080986499786377,0.23809656500816345,0.10099539160728455,-1.0631972551345825,-0.3457430601119995,-1.2087602615356445,0.7784682512283325,0.26136717200279236,-0.07780944555997849,1.0226614475250244,-0.06870479881763458,0.6798713207244873,0.2183883786201477,-0.23653720319271088,-0.7088643908500671,-0.08743802458047867,0.26498180627822876,0.2752037048339844,0.12375850975513458,-0.013603050261735916,-0.12838499248027802,-0.05045638605952263,0.8582305908203125,-0.8902643918991089,0.5918148756027222,-0.10468503832817078,0.057964637875556946,-0.27793651819229126,-0.05857815593481064,-0.01072797179222107,-0.36759814620018005,-0.013118261471390724,-0.12063732743263245,-0.5602101683616638,-1.1765819787979126,-0.35108482837677,0.031438421458005905,0.17852813005447388,-0.14500170946121216,-0.5108723640441895,1.190801978111267,-0.11113917082548141,0.18733584880828857,-0.07671822607517242,-0.18679313361644745,0.8288052082061768,-0.021571233868598938,0.3422132134437561,-0.2111692726612091,-0.20690453052520752,-0.4176310896873474,0.34995999932289124,0.48303672671318054,-0.27793043851852417,0.21820449829101562,-0.5249651074409485,-0.5501878261566162,0.6708093881607056,-0.06679507344961166,-0.9640179872512817,-0.41834867000579834,-0.18602359294891357,0.6835641860961914,-0.19747674465179443,0.09688900411128998,0.39483654499053955,0.09095989167690277,-1.098116397857666,-0.4165480136871338,0.156279519200325,-0.27315908670425415,0.049924395978450775,-0.11786068230867386,-0.6096185445785522,-0.0014337822794914246,1.1524287462234497,-0.21852988004684448,-0.8665031790733337,0.45167794823646545,-0.18734964728355408,-0.6040552258491516,0.31142938137054443,-0.2821337878704071,-0.11159837245941162,-0.39625072479248047,0.958055317401886,-0.40803563594818115,-0.12202821671962738,0.751695454120636,0.3915088176727295,0.042999617755413055,-0.4770686626434326,-0.046543437987565994,0.08897118270397186,-0.21974647045135498,-0.44727885723114014,0.01898873969912529,0.06488712131977081,0.2782154977321625,-0.8957009315490723,-0.39298877120018005,0.10676887631416321,-0.22543489933013916,0.19949153065681458,-0.22434045374393463,-0.2061578929424286,-0.09465920925140381,0.13200171291828156,-0.09980356693267822,0.30594348907470703,0.130783349275589,-0.016520319506525993,-0.08254782110452652,-0.17808054387569427,-0.1303732991218567,0.6303393244743347,-0.3868218958377838,-0.25196897983551025,0.4411700963973999,0.01701396331191063,0.08424071222543716,0.06145944818854332,-0.3130611777305603,-0.017161374911665916,0.013315282762050629,0.7372711300849915,0.5115440487861633,-1.2008750438690186,-0.12249638140201569,0.157663032412529,0.9836642146110535,0.13562248647212982,-0.23227453231811523,-0.7789833545684814,0.30165886878967285,-0.38146889209747314,0.024025537073612213,0.7050730586051941,0.048953376710414886,-0.15623898804187775,0.6389381289482117,-0.19036956131458282,-0.05930016189813614,0.06061352416872978,0.2968192994594574,-0.2681746482849121,-0.08394933491945267,-0.03234805911779404,-0.19075648486614227,0.003801470622420311,0.07851212471723557,1.6609441041946411,0.8713713884353638,0.19336222112178802,0.2173750251531601,-2.4317662715911865,-0.024736344814300537,0.0320337638258934,-0.3892681896686554,0.8131400942802429,-0.33088231086730957,-0.21815335750579834,0.8721394538879395,-0.22169896960258484,-0.2872312664985657,-0.3755546808242798,0.007336304523050785,0.35508105158805847,0.8532902598381042,-2.1668734550476074,-0.8748660683631897,-0.07025843858718872,0.7266174554824829,-0.45926952362060547,-0.14841100573539734,0.2668660283088684,0.006709970533847809,0.06290525197982788,-0.20356051623821259,-0.43530380725860596,0.29013416171073914,-0.28165164589881897,-0.44608479738235474,0.09001684933900833,-0.26995301246643066,-0.29429692029953003,-0.07403209060430527,-1.0250881910324097,-0.3950842320919037,0.2421053946018219,-0.8197045922279358,0.05237828940153122,-0.005567248910665512,-0.1452343463897705,0.08221634477376938,0.9984907507896423,0.44080549478530884,-0.5502403378486633,-0.08429566025733948,-0.020312577486038208,0.5503451228141785,-0.2519059479236603,0.03990191966295242,0.9916607141494751,0.5495755076408386,0.5041994452476501,-0.5430018305778503,-0.17220927774906158,0.10639853030443192,0.22387531399726868,-0.19093842804431915,0.24519191682338715,0.20854218304157257,0.548539936542511,0.24321842193603516,0.13710279762744904,0.06364323198795319,-0.2638208270072937,0.015052501112222672,0.1645028293132782,-0.1395123153924942,-0.6246681213378906,0.3597511053085327,0.8813350200653076,-0.1517859548330307,0.07329191267490387,0.34584560990333557,-0.7320054173469543,0.11026667058467865
