drug,0,1,2,3,4,5,6,7,8,9,10,11,12,13,14,15,16,17,18,19,20,21,22,23,24,25,26,27,28,29,30,31,32,33,34,35,36,37,38,39,40,41,42,43,44,45,46,47,48,49,50,51,52,53,54,55,56,57,58,59,60,61,62,63,64,65,66,67,68,69,70,71,72,73,74,75,76,77,78,79,80,81,82,83,84,85,86,87,88,89,90,91,92,93,94,95,96,97,98,99,100,101,102,103,104,105,106,107,108,109,110,111,112,113,114,115,116,117,118,119,120,121,122,123,124,125,126,127,128,129,130,131,132,133,134,135,136,137,138,139,140,141,142,143,144,145,146,147,148,149,150,151,152,153,154,155,156,157,158,159,160,161,162,163,164,165,166,167,168,169,170,171,172,173,174,175,176,177,178,179,180,181,182,183,184,185,186,187,188,189,190,191,192,193,194,195,196,197,198,199,200,201,202,203,204,205,206,207,208,209,210,211,212,213,214,215,216,217,218,219,220,221,222,223,224,225,226,227,228,229,230,231,232,233,234,235,236,237,238,239,240,241,242,243,244,245,246,247,248,249,250,251,252,253,254,255
CID005362420,0.25838568806648254,2.5158684253692627,2.0051825046539307,-0.3808528780937195,2.0817456245422363,6.812089920043945,-0.4271602928638458,-0.1821679323911667,-2.7426726818084717,0.30262041091918945,-0.17456462979316711,-0.18293587863445282,-0.12353932112455368,-1.4759800434112549,-2.076439380645752,1.2250765562057495,-1.2672739028930664,0.1775399148464203,-3.345660448074341,0.2739858329296112,0.17902971804141998,-1.9260509014129639,-5.267917156219482,1.3925734758377075,6.215031147003174,-0.25267937779426575,-3.8197362422943115,4.392673015594482,0.6907588243484497,10.623973846435547,-2.8804163932800293,-1.5973037481307983,-1.172590732574463,1.1150883436203003,3.9181413650512695,-1.1714413166046143,1.0569565296173096,-0.6730558276176453,3.1656973361968994,0.02471204102039337,-0.2182909995317459,-0.9952643513679504,0.7437508702278137,1.4985806941986084,0.9752207398414612,0.836127758026123,-1.097991943359375,-0.9592368006706238,-0.426607608795166,1.134616494178772,0.5142682790756226,5.663566589355469,0.74261075258255,-0.6199589967727661,-1.9769060611724854,1.247164011001587,-0.13288578391075134,-1.8628413677215576,-5.390339374542236,1.9598249197006226,0.14729471504688263,-2.397451400756836,-1.8299176692962646,1.442404866218567,1.4442369937896729,-1.5497758388519287,-1.165506362915039,2.5609891414642334,-1.48019540309906,4.372776031494141,-0.3328720033168793,-2.8459153175354004,2.4195942878723145,0.6758540272712708,-1.8600268363952637,0.38391801714897156,-2.2674498558044434,-1.2839490175247192,0.13220831751823425,2.782343864440918,-3.4467527866363525,3.54007625579834,-0.7254270911216736,-5.654577732086182,14.379773139953613,0.7622117400169373,-2.3557183742523193,-2.6480162143707275,-1.1127713918685913,3.5689663887023926,-0.9229387640953064,1.0314321517944336,1.5427346229553223,1.4030886888504028,-3.2118892669677734,-1.0677201747894287,1.8912174701690674,0.4661098122596741,0.28450292348861694,-1.5100855827331543,-0.43541964888572693,-0.27317410707473755,15.09543514251709,-5.655915260314941,-2.414250612258911,2.0762152671813965,-0.22643108665943146,0.2012988030910492,0.2671402096748352,3.603957176208496,-1.7083473205566406,-1.4113619327545166,1.3914015293121338,-3.403982400894165,1.0381585359573364,2.0405614376068115,-0.5728486180305481,-0.7052278518676758,-2.086944103240967,-0.47640925645828247,1.9908572435379028,-0.4630921483039856,-5.112894535064697,-0.7714200019836426,0.04780419543385506,2.1184723377227783,-4.734767436981201,-0.8473526835441589,2.863464593887329,-2.9447286128997803,3.055495500564575,0.046614065766334534,-3.967113971710205,-8.735501289367676,-0.41540467739105225,-0.9198710322380066,0.9400901794433594,-1.5671764612197876,-1.0839358568191528,-0.9823387265205383,0.6490068435668945,0.17971913516521454,2.7401647567749023,0.3398131728172302,-1.8489540815353394,-0.7758650183677673,-1.5395033359527588,1.2066773176193237,0.26840758323669434,-2.2832984924316406,1.016418695449829,-0.38505035638809204,0.0005037859082221985,1.3712189197540283,-1.0920288562774658,-0.41337868571281433,0.5622532367706299,1.3936619758605957,6.803018569946289,-1.0816375017166138,-2.435549259185791,0.7785715460777283,-3.883904457092285,-0.3897235095500946,2.520996332168579,1.2735544443130493,-1.4114102125167847,5.326550006866455,0.38162046670913696,-3.1174697875976562,-1.00728440284729,1.6624280214309692,-3.015359401702881,-0.4677926301956177,-0.9989420175552368,0.20024552941322327,-0.5126635432243347,0.9125251173973083,20.2187557220459,-0.05790702998638153,-1.11642587184906,0.05210015922784805,-25.848918914794922,-0.61124187707901,-0.49337831139564514,-1.1568981409072876,1.1174345016479492,1.377913475036621,-5.730556488037109,1.6236906051635742,-2.3795206546783447,0.09932882338762283,-0.9585466384887695,-1.9274117946624756,1.9757601022720337,1.6097912788391113,-6.889412879943848,-2.0971262454986572,-0.18111692368984222,3.4504311084747314,-5.923696517944336,-0.8572772741317749,-1.1680092811584473,-0.2401527613401413,-2.6927545070648193,-3.6275577545166016,-0.9056627154350281,0.6150444149971008,-3.141730308532715,-0.9451195001602173,0.7185382843017578,-1.2401010990142822,1.057201862335205,-0.24887870252132416,-0.3508783280849457,-3.9143893718719482,0.9803273677825928,-1.4469784498214722,0.9663856625556946,0.1901739537715912,-2.2168726921081543,-0.44396987557411194,1.8676633834838867,1.2424378395080566,-1.580281138420105,-0.04455452412366867,1.1706336736679077,5.5025787353515625,-4.218757629394531,0.21539990603923798,-0.3100822865962982,0.6712948679924011,1.3633100986480713,-1.2900840044021606,-0.7865872383117676,4.995922565460205,0.7962859869003296,-0.26088273525238037,1.8518061637878418,1.9125587940216064,1.2774403095245361,0.5854350924491882,0.589098334312439,3.31406307220459,-6.645742416381836,-0.033316634595394135,4.077583312988281,-0.9531718492507935,-1.8328291177749634,1.6330525875091553,0.7009372115135193,-0.19540198147296906,0.03696933388710022,1.9226198196411133,-1.9978244304656982,6.638410568237305
CID000002462,0.8652526140213013,0.7817263603210449,0.5719513893127441,-0.017610929906368256,0.8326378464698792,2.661708116531372,0.04974015802145004,0.1618935912847519,-1.3391914367675781,-0.5659100413322449,-0.5533536076545715,-0.08443368971347809,-1.2322046756744385,0.0959617868065834,-3.3293447494506836,-0.7762614488601685,-1.02112877368927,-0.7448279857635498,-0.7220330834388733,0.031149383634328842,0.07111246883869171,-1.2961779832839966,-3.4542667865753174,0.7453439831733704,2.7052178382873535,0.23060065507888794,-2.6020870208740234,2.052910327911377,0.6874794960021973,-0.623196005821228,-2.2760777473449707,-1.219947099685669,-2.782905340194702,1.5471875667572021,0.36756518483161926,-0.10011058300733566,2.9138882160186768,-0.35324013233184814,2.4753785133361816,1.6255362033843994,-0.006216767244040966,-0.3068573474884033,-0.14842469990253448,0.7690985798835754,0.8547570109367371,0.4937911331653595,-0.17872321605682373,-0.22673045098781586,0.08170641958713531,2.6219308376312256,-0.8639938235282898,3.4432475566864014,0.00024205073714256287,0.025027375668287277,0.017630964517593384,-0.48943498730659485,-0.41750916838645935,-1.1958056688308716,-0.28316426277160645,-0.6062588095664978,-1.321885585784912,-4.746303558349609,-0.0605657584965229,0.4856819808483124,0.39345017075538635,-0.9517630934715271,-2.3699111938476562,2.6496007442474365,-0.9208365678787231,2.2601256370544434,-0.010870635509490967,-0.7640776038169861,1.6134427785873413,-0.17946062982082367,0.8527023196220398,0.06970369070768356,-0.7380975484848022,-1.3936010599136353,1.0870474576950073,1.0092949867248535,-1.5260909795761108,0.8041667938232422,-1.251266598701477,-2.1473183631896973,4.840072154998779,-0.19151537120342255,-1.6094279289245605,0.06670568883419037,-0.35957109928131104,3.1416358947753906,-0.7268698811531067,-0.3235746920108795,0.5212782621383667,0.2204427719116211,-3.861630916595459,-1.098755121231079,1.1128792762756348,-0.7210173010826111,0.4514734745025635,0.529629647731781,-0.6940391063690186,0.06311802566051483,6.091840744018555,-5.647912979125977,-2.3133394718170166,1.2833131551742554,-0.3636398911476135,-1.7295434474945068,0.6052151918411255,-0.12874799966812134,-0.7097424864768982,-0.8935675621032715,2.680053472518921,-1.0996828079223633,-0.3498070240020752,2.3598215579986572,0.3292732536792755,-0.052010536193847656,-0.5374306440353394,-0.22926785051822662,1.7219154834747314,-0.11350284516811371,-4.198766231536865,0.5721578001976013,0.494285523891449,0.33056601881980896,-2.522454023361206,-1.068700909614563,0.6902010440826416,-1.2925935983657837,0.6391234993934631,-0.38301438093185425,-0.8786207437515259,-4.701601028442383,0.06734836101531982,-0.05634520575404167,1.2671992778778076,0.1259775012731552,1.163642168045044,-0.25578773021698,1.0355112552642822,0.4328491985797882,1.0597325563430786,-0.8346459865570068,-0.7982891201972961,0.349549800157547,-0.611478328704834,0.4044937193393707,0.39481306076049805,-0.5862917900085449,0.6253286600112915,0.5191431045532227,2.1795601844787598,1.1408650875091553,-2.11309552192688,0.33888936042785645,1.0588364601135254,5.546683311462402,0.5101819038391113,-0.5383079051971436,-1.593986988067627,0.7901233434677124,-1.253143310546875,-0.6393029093742371,1.6424707174301147,0.44511276483535767,-0.6855524182319641,1.2345162630081177,-0.34618592262268066,-1.2069660425186157,0.13204726576805115,1.0151667594909668,-0.8492077589035034,0.07302597165107727,0.5330795049667358,-0.8187247514724731,0.6418588161468506,0.31796854734420776,7.557804107666016,0.23681534826755524,-0.17264361679553986,0.24616122245788574,-14.746465682983398,0.559522271156311,0.027711937204003334,-0.32236164808273315,2.8280622959136963,-0.5254031419754028,-1.4033873081207275,2.7781548500061035,-2.5612964630126953,-0.887253999710083,-1.1967025995254517,-0.41461652517318726,0.7511895298957825,1.855008602142334,-3.6194045543670654,-2.1396570205688477,-0.11348775029182434,2.1644961833953857,-4.2724480628967285,-0.026376156136393547,1.427781581878662,-0.5389032363891602,-1.761612892150879,-1.9639798402786255,-0.9790124893188477,0.7083601951599121,-0.7435755729675293,-0.9291821122169495,-0.16291843354701996,-0.9853459596633911,-0.40968966484069824,-0.5549634099006653,-2.1108903884887695,-2.321014881134033,0.8128716945648193,-1.4991322755813599,0.5559024810791016,0.24657592177391052,-0.964622437953949,0.059112582355737686,2.2994916439056396,0.3917633295059204,0.0475141741335392,-0.21556079387664795,0.40464842319488525,2.708085536956787,-1.685962438583374,-0.6052771806716919,0.37328678369522095,-0.28208285570144653,0.8560190200805664,-1.6732394695281982,-0.36231693625450134,0.4625818729400635,0.6095843315124512,-0.3574000597000122,1.2083470821380615,0.3479299247264862,2.423053026199341,1.099673867225647,0.7615143060684204,0.18733654916286469,-1.921936273574829,-0.2869890630245209,1.7564804553985596,-0.3514549732208252,-2.471343755722046,1.465767741203308,0.7959949374198914,-0.2667914927005768,0.2997104823589325,0.5930664539337158,-1.8580244779586792,2.74943470954895
CID000004543,1.9515360593795776,0.21686112880706787,0.8991104960441589,-0.012470278888940811,0.9736416339874268,1.2103664875030518,-0.5883220434188843,-0.22575455904006958,-0.8292315602302551,-0.1358453631401062,-0.5635609030723572,0.39346712827682495,0.3434097468852997,0.06548940390348434,-0.7789801955223083,-1.747079610824585,-0.45999306440353394,-1.4071805477142334,2.2328107357025146,0.06603770703077316,-0.8141452074050903,-1.1168559789657593,-3.0347900390625,0.26633313298225403,1.8213365077972412,0.5371008515357971,-1.5130844116210938,1.8547004461288452,1.2275995016098022,-0.09049396961927414,-2.6476874351501465,-1.6221143007278442,-4.008360862731934,1.8216679096221924,0.9821298718452454,-0.2915292978286743,5.411073207855225,-0.568935215473175,1.758847951889038,2.173844575881958,-0.5599729418754578,-1.0072170495986938,-0.2813449800014496,0.6645930409431458,0.21757401525974274,0.41905057430267334,0.6382144093513489,-0.02795116975903511,0.042684365063905716,2.4679603576660156,-3.222477436065674,1.7890503406524658,-0.25665366649627686,0.6764026880264282,-0.4100707471370697,0.19556158781051636,0.442229300737381,-1.1519242525100708,0.6468323469161987,-1.9414056539535522,-1.7379097938537598,-5.364546298980713,-0.19833028316497803,0.17292103171348572,0.4038829207420349,-0.6319803595542908,-3.3110854625701904,3.5289015769958496,-0.5718106031417847,0.30334219336509705,-0.983866810798645,-0.12331537902355194,1.9504033327102661,0.2281562089920044,1.4924410581588745,-1.099732518196106,-0.38620883226394653,-0.9660890102386475,0.8520738482475281,0.8699647188186646,-0.3838428258895874,0.6380183100700378,-1.723029613494873,-0.6035667657852173,4.165326118469238,-0.3116820752620697,-2.256247043609619,-1.1198780536651611,-0.4596208930015564,2.3550326824188232,-0.3197256624698639,0.20435652136802673,0.9608851671218872,0.10413870215415955,-4.934866428375244,-0.8681434392929077,0.8181401491165161,-0.8226993680000305,0.07774131745100021,-2.162773370742798,-1.1219618320465088,0.14274568855762482,4.441228866577148,-0.6481274962425232,-1.6939659118652344,1.5649535655975342,-0.8307410478591919,-2.460430145263672,0.33518749475479126,-1.1043128967285156,-0.7490586638450623,-0.5040748715400696,2.886153221130371,-0.5626569986343384,-0.4605920910835266,2.4684503078460693,-0.29865556955337524,-0.7304762005805969,-0.42394790053367615,-0.13155123591423035,1.3513211011886597,0.07603276520967484,-2.789898633956909,0.08432652056217194,0.7375136613845825,1.463531255722046,0.4087703227996826,-1.1953332424163818,0.5393968224525452,-1.670238971710205,0.3054637908935547,-1.0504835844039917,-0.37955474853515625,-2.812248706817627,0.4494083523750305,-0.2058703452348709,1.354838252067566,0.19963939487934113,-0.006979566067457199,-1.0960944890975952,-1.340828537940979,-0.9254473447799683,1.1834371089935303,-1.1996484994888306,-0.8865756392478943,0.7574434876441956,-0.670263946056366,0.05657488480210304,0.03552746772766113,-0.7813611030578613,0.4841102361679077,0.7876482605934143,1.6803786754608154,1.8321853876113892,-2.0425949096679688,-0.32637929916381836,0.8237716555595398,2.53987717628479,0.5890985131263733,-0.3173413574695587,-0.5632055997848511,0.9153341054916382,-0.7347184419631958,-0.0692247748374939,1.8422398567199707,0.363949716091156,-0.7619814276695251,-0.38563990592956543,-0.42112982273101807,-0.6822930574417114,0.6503437161445618,0.8241705298423767,-0.5219046473503113,0.35630637407302856,0.019815824925899506,-1.0492559671401978,0.5815052390098572,0.58965003490448,6.311952590942383,3.2542572021484375,1.102791428565979,1.2875169515609741,-9.7405366897583,-0.7280130386352539,-0.23117604851722717,-1.5821644067764282,1.454908013343811,-1.8777294158935547,-0.7860772609710693,2.4262001514434814,-2.3287220001220703,-1.633276104927063,-1.2147020101547241,-0.4443829655647278,0.2047511488199234,2.5267114639282227,-4.410872459411621,-2.046290397644043,-0.4639013111591339,1.464905858039856,-4.966765403747559,-0.32425034046173096,1.7884892225265503,0.18856707215309143,-0.4728386700153351,-0.8545688390731812,-0.4871959090232849,0.6253442764282227,-0.47616469860076904,-1.5880422592163086,-0.4021090865135193,-1.1878275871276855,0.21845760941505432,-0.4458686411380768,-2.298146963119507,-1.7394154071807861,0.6672043204307556,-1.1741615533828735,-0.4415583908557892,0.3700449466705322,-0.725688636302948,0.2563573122024536,1.1637849807739258,1.4637584686279297,-0.11807800084352493,1.0949392318725586,-0.3011282682418823,-0.24624893069267273,-0.7961956858634949,0.3271579444408417,3.4464480876922607,1.7625700235366821,0.6609785556793213,-2.0558712482452393,-0.950340211391449,-0.25335386395454407,0.5441170334815979,-0.02868695557117462,0.20336174964904785,0.13943621516227722,2.381441116333008,0.3307669758796692,0.5534443259239197,0.4751206040382385,-1.493958830833435,0.003534269519150257,0.48822084069252014,-0.7289912104606628,-2.258362054824829,1.2390378713607788,1.3236807584762573,-0.3279034495353699,1.314353346824646,2.1152138710021973,-2.977966070175171,2.0238912105560303
CID000001972,0.34206780791282654,0.2591974437236786,0.7980020642280579,-0.4243549704551697,0.5129772424697876,0.7718083262443542,-0.06915727257728577,0.12081123143434525,-0.2304309755563736,-0.7599048018455505,0.06044163554906845,-0.34102246165275574,-0.09441797435283661,-0.16639849543571472,-0.6942386627197266,-0.6713641881942749,-0.2912483215332031,-0.5901029706001282,0.7871891856193542,-0.24990783631801605,0.049573443830013275,-1.2806203365325928,-2.248628616333008,0.17104177176952362,1.616161823272705,0.7119358777999878,-1.9693377017974854,0.6360840797424316,0.19080543518066406,0.06695801764726639,-0.8615376949310303,-0.3288523554801941,-1.1002322435379028,1.0180914402008057,0.39185795187950134,0.4376216232776642,1.5075739622116089,-0.252471387386322,1.0198092460632324,0.21131612360477448,-0.5730131268501282,-0.5233514308929443,-0.07815004885196686,0.7232335209846497,0.2628032863140106,0.20896776020526886,-0.34417659044265747,-0.238900825381279,-0.09584492444992065,1.1973122358322144,-0.696242094039917,1.045058012008667,-0.9626042246818542,0.16646885871887207,0.020845159888267517,-0.6798858642578125,-0.027726564556360245,-0.5349208116531372,0.09938270598649979,-0.6719886064529419,-2.059375286102295,-1.8513339757919312,-0.20163224637508392,-0.06173040717840195,0.24388393759727478,-0.16356579959392548,0.05030788481235504,1.231178641319275,-0.2367311716079712,0.3753316402435303,-0.18476179242134094,-0.46207621693611145,1.224617600440979,-0.5370157361030579,0.7217614650726318,-0.422943651676178,-0.23017849028110504,-0.16927355527877808,0.9436607956886292,-0.18566344678401947,-0.3075209856033325,0.060879193246364594,-0.47192835807800293,-0.8412986397743225,0.7714093923568726,0.34943443536758423,-0.9466725587844849,-0.027995094656944275,-0.041489552706480026,2.175560712814331,-0.032310232520103455,0.17256414890289307,0.30871570110321045,-0.017443224787712097,-0.9054126143455505,-0.294319212436676,0.876136302947998,-0.9447526335716248,-0.11463987827301025,-0.2072121948003769,-0.7948353886604309,-0.01782422512769699,1.0289530754089355,-1.7602812051773071,-0.6642419099807739,0.8559657335281372,-0.04212329536676407,-1.1450738906860352,0.18565383553504944,-0.4910757541656494,-0.5483510494232178,-0.12960851192474365,1.7984579801559448,0.0785863921046257,-0.14540793001651764,1.2276103496551514,0.2932318449020386,0.2098434418439865,-0.4071160554885864,-0.2883230149745941,0.6494944095611572,-0.08492934703826904,-1.7167152166366577,0.3840135931968689,0.5161784291267395,0.13841208815574646,-4.726779937744141,-0.334602952003479,0.15696878731250763,-0.47676217555999756,0.08350705355405807,-0.3550370931625366,-0.2248665988445282,-1.6535354852676392,0.20893985033035278,-0.12259333580732346,0.23056672513484955,0.31710466742515564,-0.21842074394226074,-0.20116257667541504,-0.004208371043205261,0.5905176401138306,0.4043908715248108,-0.7091658115386963,-0.21793007850646973,0.010799720883369446,0.3012953996658325,-0.13836614787578583,0.0350416824221611,-0.5676630139350891,-0.09497131407260895,0.006067685782909393,0.4148826003074646,0.708996057510376,-1.505387544631958,-0.22961124777793884,-0.16595619916915894,1.0338690280914307,-0.056637249886989594,-0.502662718296051,-2.025247812271118,0.23313793540000916,-0.36290791630744934,0.05329374969005585,0.8688705563545227,0.3190101087093353,-0.2769409716129303,0.32832592725753784,-0.04130098223686218,0.24230900406837463,0.12101487815380096,0.5002135038375854,-0.10912583023309708,-0.22877219319343567,-0.3383694887161255,-0.18501609563827515,-0.1213279664516449,0.3107092082500458,2.9911277294158936,0.5356972217559814,0.537205159664154,0.07458369433879852,-3.3462600708007812,0.5889490246772766,-0.11009085923433304,-0.28288739919662476,0.8758741021156311,-0.7401613593101501,0.4637622833251953,0.9562072157859802,-0.9543627500534058,-0.6228994727134705,-0.48725461959838867,0.03678083419799805,0.683749794960022,-0.00816354900598526,-2.9483230113983154,-1.4146157503128052,-0.09778356552124023,1.4374430179595947,-2.0559983253479004,-0.1384124755859375,1.2842265367507935,-0.22860321402549744,-1.5498509407043457,-0.587522029876709,0.24552544951438904,0.8329282402992249,-0.22366997599601746,-0.3938245177268982,0.3477635383605957,-0.14348754286766052,-0.04923884570598602,-0.2818666696548462,-2.9667961597442627,-0.5055883526802063,0.2931564450263977,-1.2373545169830322,0.11516061425209045,-0.19860011339187622,-0.4873213768005371,0.0817028060555458,1.9136630296707153,0.4401381015777588,0.16304492950439453,-0.09422164410352707,0.09125664830207825,0.39865151047706604,-0.2557755410671234,0.004141390323638916,0.43520402908325195,0.14840680360794067,0.2887573838233948,-0.7459259033203125,0.30482709407806396,-0.21470312774181366,0.33902519941329956,-0.0058126747608184814,0.5098626017570496,0.569729208946228,1.9609662294387817,0.33319783210754395,0.3505810797214508,0.010266050696372986,-0.03625292330980301,-0.0075904931873083115,0.1460563987493515,-0.12107324600219727,-1.4276537895202637,0.7465323209762573,1.2679567337036133,-0.12799382209777832,0.6980779767036438,0.30197590589523315,-0.5527482628822327,1.5686427354812622
CID000443871,1.916135311126709,0.4821733236312866,1.0653884410858154,-0.129366934299469,2.3496205806732178,2.6356987953186035,-0.7551640272140503,-0.1622520238161087,-0.9715209007263184,-0.4078575372695923,-0.5838800072669983,-0.43037962913513184,-0.46408557891845703,-0.5138644576072693,-1.086916208267212,-1.405049204826355,-0.7864806056022644,-1.3397904634475708,1.8286210298538208,-0.08220613747835159,-0.6015506386756897,-1.4016084671020508,-4.139991760253906,0.2598094642162323,3.243408441543579,0.7545803785324097,-2.2484567165374756,1.6938241720199585,0.8600166440010071,0.6149343848228455,-2.8338091373443604,-1.187870979309082,-4.645434856414795,1.9602175951004028,1.204759120941162,-0.03217115253210068,2.541842222213745,-0.676196277141571,2.155667304992676,0.7835472226142883,-0.7967615723609924,-1.5214375257492065,-0.09733201563358307,1.109803557395935,1.0102200508117676,0.5135139226913452,0.32503828406333923,-0.6841680407524109,0.33933505415916443,2.8721327781677246,-2.989645004272461,1.6795215606689453,-0.33411091566085815,-0.01756962388753891,-0.7420588135719299,-0.40229952335357666,0.3349408805370331,-1.415024995803833,-0.5810995101928711,0.569221019744873,-2.1469719409942627,-3.0846407413482666,-1.866925597190857,0.5272679328918457,0.7492274045944214,-1.1577483415603638,-1.3896180391311646,3.3556430339813232,-0.400690495967865,1.2692052125930786,-0.029570017009973526,-0.9881418943405151,1.7453405857086182,0.3396168649196625,0.7942851781845093,-0.5257457494735718,-0.9971104264259338,-1.332269549369812,0.9522218108177185,1.9245896339416504,-0.9858254790306091,0.9931976795196533,-1.3918898105621338,-2.3453190326690674,2.1637864112854004,-0.22615355253219604,-1.6638009548187256,-2.3489575386047363,-0.5927961468696594,1.4247183799743652,-0.7066501379013062,0.6771484017372131,1.003649115562439,0.31239837408065796,-3.081064462661743,-1.3064883947372437,0.25939467549324036,-0.2704315781593323,-0.008428230881690979,-0.5694463849067688,-1.9981331825256348,-0.09058967232704163,2.8600306510925293,-2.5922112464904785,-2.348497152328491,1.5041100978851318,-0.6577481031417847,-1.3231892585754395,0.8064291477203369,-0.3392341136932373,-0.8194490671157837,-1.3230925798416138,1.7136117219924927,-1.6566146612167358,0.6020373106002808,2.0268940925598145,1.134894609451294,-0.07151316106319427,-1.2505431175231934,0.2857191562652588,-0.12517079710960388,-0.3973161280155182,-3.4005980491638184,0.327279657125473,-0.05566975846886635,1.2830288410186768,-2.161841630935669,-0.9160116910934448,0.415665864944458,-0.9961631298065186,0.9120339155197144,-0.43622103333473206,-1.2998480796813965,-2.1978254318237305,-0.40638577938079834,-0.32938650250434875,0.99534672498703,0.05496208369731903,0.11386480182409286,0.09226617217063904,-0.022071270272135735,0.5460389852523804,1.8580751419067383,-0.5442416667938232,-0.4660874903202057,0.5221740007400513,-0.023699887096881866,0.18690234422683716,0.46780458092689514,-1.018550157546997,0.22610941529273987,0.20844127237796783,1.6803170442581177,1.1628245115280151,-3.415146589279175,0.7548632025718689,0.42582711577415466,4.358650207519531,1.3968967199325562,-0.8462041616439819,-1.499884843826294,0.7638729214668274,-1.2444630861282349,-0.13597163558006287,1.785876989364624,0.30109521746635437,-0.26463961601257324,2.371290683746338,-0.9623609781265259,-1.1259397268295288,-0.03500841557979584,0.9345035552978516,-0.8810693621635437,-0.22610309720039368,0.320863276720047,-0.5379665493965149,0.001514676958322525,0.36228612065315247,3.7392046451568604,4.4561262130737305,-0.13726556301116943,-0.05460204556584358,-6.417783737182617,0.18374262750148773,-0.42147424817085266,-1.0845214128494263,3.195249319076538,-0.10103242099285126,-0.5845598578453064,2.359792709350586,0.21274444460868835,-0.7216784954071045,-0.5834715962409973,-1.252683162689209,1.293269157409668,3.0463221073150635,-6.668627738952637,-2.582089424133301,0.19701947271823883,2.0301902294158936,-2.519235372543335,-0.24230028688907623,0.17571477591991425,-0.07958104461431503,-1.369619607925415,-1.0813261270523071,-2.4530675411224365,0.8280547261238098,-0.80359947681427,-1.1361278295516968,0.6744608879089355,-0.48104214668273926,-0.9093388319015503,-0.09445696324110031,-2.9779675006866455,-1.1563725471496582,0.6454073786735535,-1.9817936420440674,0.041074782609939575,-0.2573562562465668,-1.320511817932129,0.151658296585083,3.1868269443511963,3.0911476612091064,-1.8716295957565308,0.048540662974119186,-0.0819462239742279,2.0257527828216553,-1.0157911777496338,-0.44397374987602234,4.748600959777832,0.6528886556625366,1.2089424133300781,-1.5407354831695557,-0.3153294622898102,1.067065954208374,1.0157859325408936,-0.16445790231227875,0.9559439420700073,0.9127153754234314,0.9545684456825256,1.112721562385559,0.18760646879673004,0.48671311140060425,-1.1104047298431396,-0.11382054537534714,0.7981783151626587,-0.3260633647441864,-1.6538959741592407,1.194928765296936,1.6030032634735107,-0.2068990021944046,0.029553500935435295,1.1074753999710083,-1.625557541847229,1.688968300819397
CID000003325,0.12270572036504745,-0.2056470513343811,0.12685856223106384,0.23250944912433624,0.5204313397407532,0.14947211742401123,-0.12942947447299957,-0.07513256371021271,-0.19503742456436157,-0.40407082438468933,-0.17072638869285583,0.04822034388780594,0.07240848988294601,0.03550157696008682,0.18327566981315613,0.028605647385120392,-0.17199431359767914,-0.17373257875442505,0.3032047748565674,0.22392380237579346,0.1603849083185196,0.04791538789868355,-0.2767907679080963,0.21360215544700623,0.2378358244895935,0.28272175788879395,-0.18745872378349304,0.21648529171943665,0.052821654826402664,0.2299823760986328,-0.24999138712882996,-0.04916629567742348,-0.24838775396347046,0.2861025929450989,0.27288782596588135,-0.05277695879340172,0.4108761250972748,-0.11040933430194855,0.016710052266716957,-0.166920468211174,-0.33872127532958984,-0.13480575382709503,-0.27669498324394226,-0.1132679134607315,0.07489673793315887,-0.11892305314540863,0.2028656005859375,-0.008278394117951393,-0.0012801364064216614,0.16864261031150818,-0.11572332680225372,0.1974843144416809,-0.058965157717466354,-0.15261808037757874,-0.19709759950637817,-0.08449569344520569,-0.02403116784989834,-0.11201553046703339,-0.14421331882476807,0.05486921966075897,0.05126480758190155,-0.23578083515167236,-0.26393699645996094,0.14671140909194946,0.2517068684101105,-0.023535117506980896,-0.2942490875720978,0.17458347976207733,-0.12867367267608643,-0.09732970595359802,0.07412855327129364,0.13848038017749786,0.48824945092201233,-0.004236973822116852,0.11742284148931503,-0.08281651884317398,0.010896233841776848,-0.035483330488204956,0.3226834833621979,0.2888132333755493,-0.2991037368774414,0.1782294511795044,-0.24081939458847046,-0.18714679777622223,-0.172472283244133,-0.06684393435716629,-0.343810498714447,-0.398342490196228,-0.03172922134399414,0.19310221076011658,0.21468837559223175,0.27910885214805603,0.2536962628364563,0.051930688321590424,-0.4281201660633087,-0.27005934715270996,-0.11489845812320709,-0.08790045976638794,-0.2948450744152069,-0.22475767135620117,-0.06375216692686081,-0.15690572559833527,0.26679539680480957,-0.2790755331516266,-0.3159646689891815,0.1904096007347107,0.17761406302452087,-0.37081119418144226,0.32202792167663574,0.003079955466091633,-0.23489509522914886,0.02168221026659012,0.22347137331962585,0.010138053447008133,-0.09603649377822876,-0.04741287603974342,0.046736788004636765,0.13121017813682556,-0.17002741992473602,-0.03717828914523125,0.18172645568847656,-0.006910596042871475,-0.15456250309944153,0.04058379679918289,0.08067986369132996,0.02502588927745819,-0.1785549521446228,-0.08214576542377472,0.09268273413181305,-0.26169559359550476,-0.08256315439939499,0.04825405031442642,-0.19938284158706665,-0.023828858509659767,0.1516266018152237,-0.32271116971969604,0.060371458530426025,0.037794120609760284,-0.0256577730178833,0.03685642406344414,-0.07277898490428925,-0.1388942450284958,0.35070788860321045,-0.10596722364425659,0.017603807151317596,0.14377257227897644,-0.04837888851761818,0.11192134022712708,0.10826093703508377,-0.24277889728546143,0.016212858259677887,-0.08898119628429413,0.20698699355125427,0.27703139185905457,-0.0617680698633194,0.11528100818395615,-0.017348486930131912,0.2993299067020416,0.1443006843328476,-0.013394247740507126,-0.25953003764152527,-0.05004020035266876,-0.07271948456764221,-0.06628156453371048,0.19865158200263977,-0.027592293918132782,-0.08012527972459793,0.21421442925930023,-0.04322204366326332,0.07907052338123322,0.015107765793800354,0.2022392451763153,-0.12905362248420715,0.04723677411675453,-0.060939595103263855,0.04819035530090332,0.05184648558497429,-0.004538649693131447,0.18890807032585144,0.2843150794506073,0.16302363574504852,-0.03725621849298477,-0.06973785161972046,-0.020931754261255264,0.1545385718345642,-0.20578068494796753,0.14155076444149017,-0.09625294804573059,-0.12904325127601624,0.27035850286483765,-0.0022971630096435547,-0.20550057291984558,-0.12609243392944336,-0.2887785732746124,0.18964289128780365,0.28922900557518005,-0.25685447454452515,-0.20326478779315948,-0.009392399340867996,0.14248406887054443,-0.12407545745372772,-0.10564157366752625,-0.04217115417122841,-0.011467356234788895,-0.32406383752822876,-0.18203942477703094,-0.2009715437889099,-0.006156653165817261,-0.11460897326469421,-0.20884090662002563,-0.029533836990594864,-0.26304781436920166,-0.1116122156381607,0.15770402550697327,-0.4121178686618805,-0.10426657646894455,0.0006528701633214951,-0.2341867983341217,-0.030917592346668243,-0.3559189438819885,0.1909128725528717,0.023846399039030075,-0.020937643945217133,-0.03043617308139801,-0.4010445475578308,0.10489645600318909,-0.18629397451877594,0.15410208702087402,-0.09974706918001175,0.011322836391627789,-0.03712157905101776,0.10980962216854095,0.17256297171115875,0.0028099864721298218,0.01090509444475174,0.15089236199855804,0.34205400943756104,-0.03311293199658394,0.15166795253753662,-0.0038672536611557007,0.1750757396221161,-0.020001672208309174,0.238420307636261,-0.0534333735704422,-0.16163679957389832,-0.2886887192726135,0.2618059813976288,-0.003941677510738373,-0.24211642146110535,0.04787691310048103,0.26051047444343567,-0.32808566093444824,0.06817924231290817,0.23878762125968933,-0.34574469923973083,0.034709881991147995
CID000000159,0.6867510080337524,-0.14927911758422852,1.1469734907150269,-0.2673599421977997,1.3945913314819336,2.0461597442626953,0.5440126061439514,-0.6678496599197388,-1.0343791246414185,-0.607149600982666,-0.20712409913539886,-0.3741946816444397,-0.5833451747894287,0.007639441639184952,-2.1946516036987305,-1.1149227619171143,-0.6218969225883484,-1.8220757246017456,0.7596134543418884,0.05584321916103363,-0.8398865461349487,-1.2389905452728271,-3.2489113807678223,-0.3855845630168915,3.442993640899658,0.6002941131591797,-2.958380699157715,1.3931220769882202,0.1325642466545105,-0.8153294324874878,-2.557457685470581,-1.221655011177063,-3.2937984466552734,1.4241154193878174,1.03610098361969,-0.2650091350078583,0.9185560941696167,-0.2552447021007538,1.8978221416473389,1.1766364574432373,0.050480976700782776,-0.9863033294677734,0.13222816586494446,1.0892448425292969,0.9695752263069153,0.20475681126117706,-1.5154261589050293,-0.17435991764068604,-0.08887022733688354,2.234330654144287,-3.937373161315918,1.4278631210327148,-0.36279284954071045,0.05254537984728813,-1.05037522315979,-0.8309812545776367,-0.09471692144870758,-1.1061456203460693,-0.2454133927822113,-0.039869632571935654,-1.5255155563354492,-0.808643102645874,-0.4536510705947876,0.7421494722366333,0.2153845876455307,-0.6908323168754578,-1.4102003574371338,2.852626085281372,-0.725521445274353,0.8289304971694946,-0.04653031378984451,-1.1278120279312134,1.683335781097412,0.1768268644809723,0.10642953217029572,0.3287009298801422,-0.7923621535301208,-1.2407562732696533,0.7963317632675171,1.6541213989257812,-2.6459357738494873,0.546471357345581,-1.0478228330612183,-1.6892043352127075,4.588118076324463,0.09657883644104004,-1.8745450973510742,-0.6754797101020813,-0.2444992959499359,3.7597625255584717,-0.29551100730895996,0.012808606028556824,0.7444144487380981,1.1424603462219238,-0.535027265548706,-1.2018955945968628,1.1183297634124756,-1.1801073551177979,0.128739595413208,-0.8801699876785278,-1.7663397789001465,-0.17949217557907104,0.6154585480690002,-5.664730072021484,-1.5659250020980835,1.0805445909500122,-0.17213687300682068,-1.6559836864471436,0.13084423542022705,0.6861093044281006,-0.3115251660346985,-2.091240167617798,2.1517961025238037,-0.7989781498908997,0.09020770341157913,1.8479218482971191,1.0343741178512573,-0.1971333920955658,-1.9262193441390991,0.12143316864967346,1.084205985069275,-0.14186707139015198,-3.9930672645568848,0.261208713054657,0.015392627567052841,0.9865932464599609,-4.014946460723877,-0.5046102404594421,0.46631890535354614,-1.214794635772705,0.6661704778671265,-0.07766301184892654,-1.4933664798736572,-7.095361232757568,-0.7939565181732178,0.04529212415218353,0.9578051567077637,0.3971171975135803,0.2690602242946625,-0.2586328089237213,-0.2710256576538086,-0.16293402016162872,0.8658998012542725,-0.9462061524391174,0.006628744304180145,1.4553766250610352,-0.5160917639732361,0.5539631247520447,0.4418999254703522,-0.8608034253120422,0.7095741033554077,-0.7876996994018555,1.5120289325714111,1.0605950355529785,-2.842616319656372,-0.7336580157279968,0.47766607999801636,5.076315402984619,0.7847747802734375,-0.7254509329795837,-1.9879082441329956,0.38909241557121277,-1.978063702583313,0.13155944645404816,2.6174280643463135,0.07716690748929977,-0.7559846639633179,0.6454282999038696,-0.1924135535955429,-1.36292564868927,-0.1654898226261139,1.4790267944335938,-0.8296986222267151,-0.10248468816280365,-0.5406307578086853,-0.35594722628593445,0.05553373694419861,0.376227468252182,4.839413642883301,2.6070351600646973,0.028935886919498444,0.5439507365226746,-7.685561180114746,0.39481407403945923,0.055828750133514404,-0.7603793740272522,3.3145549297332764,-0.299127995967865,-1.401398777961731,2.1770546436309814,-2.3249199390411377,-0.6645467877388,-0.47536811232566833,-2.27317214012146e-05,0.49318966269493103,1.643871545791626,-4.316640377044678,-2.11897873878479,-0.6329262256622314,1.4941478967666626,-4.93319034576416,-0.8909581303596497,-0.02040020003914833,-0.42770281434059143,-2.6654608249664307,-1.2316826581954956,-1.298426628112793,1.0093672275543213,-1.0230985879898071,-1.0473037958145142,0.02317795902490616,-1.4185420274734497,-0.2001904398202896,0.07653315365314484,-1.928295373916626,-2.132097005844116,0.49558135867118835,-1.511600136756897,0.4312901198863983,0.3531108796596527,-0.8685718774795532,0.5869232416152954,3.9187443256378174,1.0263220071792603,-1.3153228759765625,0.2612752318382263,0.12510448694229126,1.1148322820663452,-1.308557152748108,0.6884486079216003,4.889514923095703,-0.7619702816009521,1.0435625314712524,-0.9955966472625732,-0.307737797498703,0.12115450948476791,0.6148941516876221,-0.14826838672161102,0.4069957733154297,-0.005151484161615372,1.3962651491165161,0.509009838104248,0.03589057922363281,-0.24625271558761597,-0.7385391592979431,-0.06558868288993835,1.3422967195510864,-0.651898980140686,-2.0324859619140625,1.1675324440002441,0.4032967984676361,0.23519928753376007,-0.47757914662361145,0.9675069451332092,-1.6734154224395752,4.305157661437988
CID000003676,7.961392879486084,0.7103265523910522,7.200038909912109,-0.8733551502227783,7.878943920135498,11.737627983093262,-1.7651829719543457,-1.6951183080673218,-3.5087640285491943,-2.223262071609497,0.14361310005187988,-0.5874543190002441,0.4748944640159607,-0.19538149237632751,-8.406598091125488,-6.954782009124756,-3.458371639251709,-9.118746757507324,12.755518913269043,0.5077257752418518,0.032022617757320404,-6.925901889801025,-18.94660186767578,0.046808116137981415,16.992277145385742,5.478444576263428,-14.715965270996094,8.204405784606934,1.0947941541671753,3.491638660430908,-14.89819049835205,-4.7909064292907715,-17.197031021118164,10.42789363861084,3.5694427490234375,-0.43187713623046875,14.194869995117188,-1.9610164165496826,9.155349731445312,3.5807502269744873,-2.184281587600708,-7.6118693351745605,0.8817924857139587,4.694828987121582,3.686732053756714,1.7078555822372437,-1.420565128326416,-1.4541658163070679,-0.9083160758018494,15.03486156463623,-12.672892570495605,13.776354789733887,-2.5080387592315674,2.1565914154052734,-3.301156759262085,-1.0840604305267334,0.3033377230167389,-5.518463611602783,-2.1220171451568604,-0.8915245532989502,-8.847521781921387,-15.781000137329102,-4.24629545211792,2.100519895553589,3.469852924346924,-2.881664752960205,-8.5374174118042,13.465657234191895,-0.5995142459869385,9.433408737182617,-0.7242045998573303,-4.873171329498291,12.331974029541016,0.9834296703338623,5.039199352264404,-1.9705393314361572,-4.433447360992432,-6.528524398803711,5.871031284332275,5.686333179473877,-5.55396842956543,6.536491394042969,-7.139358043670654,-10.092182159423828,11.273969650268555,0.1327987015247345,-13.298486709594727,-3.7578282356262207,-3.002631425857544,19.040206909179688,-3.0007855892181396,1.8963178396224976,6.174761772155762,-0.5816914439201355,-15.485774993896484,-7.643928527832031,1.5261094570159912,-2.7274727821350098,0.603049099445343,-2.1593010425567627,-8.940217018127441,0.5558773875236511,17.77178192138672,-9.646795272827148,-11.652854919433594,6.054728984832764,-0.2576287090778351,-7.1002326011657715,4.030900955200195,-4.108908653259277,-1.017356276512146,-7.607714653015137,12.428107261657715,-10.19160270690918,-1.1971160173416138,11.596418380737305,9.487859725952148,-0.09348113089799881,-5.366032123565674,-0.6673224568367004,1.597640872001648,-3.234471082687378,-15.737010955810547,0.36860641837120056,0.1141870766878128,5.18046760559082,-14.893708229064941,-7.7981390953063965,3.8531081676483154,-6.128383159637451,4.614925384521484,-2.14973783493042,-8.265830993652344,-13.294041633605957,1.7128218412399292,-0.14316175878047943,5.658341407775879,0.6261199116706848,-0.44358137249946594,-0.8034931421279907,-0.9683901071548462,-0.14909517765045166,7.4776411056518555,-5.330658912658691,-3.8009610176086426,5.680876731872559,1.8685657978057861,1.5935062170028687,0.6247828602790833,-4.523660182952881,1.5425747632980347,-0.20720268785953522,4.958513259887695,6.079437255859375,-15.019420623779297,-0.09482388198375702,2.502302646636963,16.723281860351562,4.370792388916016,-5.369966506958008,-8.664188385009766,3.1805202960968018,-7.36375093460083,-0.6625263690948486,11.008769035339355,2.9811320304870605,-2.491631507873535,10.896810531616211,-2.866997241973877,-5.829484939575195,-1.7075016498565674,6.837303161621094,-4.469200611114502,-0.162353977560997,-0.8625538945198059,-3.390056610107422,-2.155158758163452,-0.9533114433288574,24.654027938842773,8.211735725402832,4.067677974700928,3.051034688949585,-31.569686889648438,1.2663230895996094,-1.4839365482330322,-5.7352375984191895,12.636012077331543,-2.5494627952575684,-5.084042072296143,12.55380916595459,-7.648566246032715,-2.7001214027404785,-4.015020370483398,-0.22155500948429108,6.398470401763916,7.537876605987549,-36.66177749633789,-14.936295509338379,0.05541316419839859,11.857983589172363,-15.743720054626465,-0.5927227139472961,6.1396803855896,-0.4989282786846161,-8.671573638916016,-5.661711692810059,-9.419421195983887,5.9798712730407715,-5.4862141609191895,-5.57623815536499,2.2192304134368896,-2.131300210952759,-4.196924209594727,0.4780887961387634,-10.59132194519043,-5.586981296539307,3.5359530448913574,-9.32886028289795,1.413289189338684,-0.39680853486061096,-2.202192783355713,2.248868942260742,14.361613273620605,4.027585029602051,-10.138720512390137,0.19572806358337402,0.10122135281562805,8.366665840148926,-4.4459228515625,0.4893046021461487,11.972944259643555,3.1007444858551025,9.859495162963867,-6.981631278991699,-1.8607466220855713,5.447648048400879,3.4502429962158203,-1.1341094970703125,5.373969078063965,3.444704055786133,10.006800651550293,0.6667860150337219,2.8342206478118896,2.8609910011291504,-5.47085428237915,-0.49583661556243896,4.59165620803833,-2.569182872772217,-8.748897552490234,5.7488884925842285,8.298395156860352,-1.2551028728485107,0.5144914388656616,4.935267925262451,-10.028919219970703,11.276678085327148
CID000065027,0.3821258544921875,-0.16472971439361572,0.013265714049339294,0.025563588365912437,0.14956939220428467,0.08650718629360199,-0.2048163115978241,0.08275438845157623,-0.04091743007302284,-0.17335011065006256,0.008180985227227211,-0.07842613756656647,0.02329915389418602,0.030321668833494186,0.17931511998176575,-0.22292450070381165,-0.08921431005001068,-0.1520593762397766,0.39565300941467285,0.1517878770828247,0.06454028189182281,-0.1510409265756607,-0.304857075214386,0.10207514464855194,0.26132023334503174,0.2629224359989166,-0.3380255699157715,0.161454439163208,-0.13650424778461456,-0.15702861547470093,-0.13256072998046875,0.09595510363578796,-0.31404584646224976,0.25806325674057007,0.2134656012058258,0.05926927551627159,0.40688496828079224,-0.045379601418972015,0.37878602743148804,0.22776392102241516,0.08314190804958344,-0.11870278418064117,0.08148640394210815,0.07885616272687912,0.08903498947620392,-0.01541094109416008,-0.2694212794303894,-0.1992298662662506,-0.10778889060020447,0.1999790370464325,-0.2219802439212799,0.1257636547088623,-0.14875128865242004,0.06619857251644135,0.08703494071960449,0.02755683660507202,-0.012567717581987381,-0.10151510685682297,-0.11696863174438477,-0.0714327022433281,-0.3999220132827759,-0.5230732560157776,-0.08584137260913849,-0.21795225143432617,-0.11948881298303604,-0.00585012324154377,0.11850271373987198,0.28143441677093506,-0.025981463491916656,-0.06670581549406052,0.18767301738262177,0.0903889611363411,0.25730475783348083,0.02908048778772354,0.2003912776708603,-0.11275435239076614,-0.16957387328147888,-0.059374354779720306,0.002648398280143738,0.08618821203708649,-0.2096366137266159,0.17293937504291534,-0.19167152047157288,-0.21889154613018036,0.011669233441352844,0.21254494786262512,-0.2855547070503235,0.027446351945400238,0.024734558537602425,0.49820879101753235,-0.12286897003650665,-0.03396446257829666,-0.03975933790206909,0.18442484736442566,-0.5231771469116211,-0.19477900862693787,0.015348292887210846,-0.0070498064160346985,0.13651937246322632,-0.25815367698669434,-0.15825621783733368,0.07543705403804779,0.0702470988035202,-0.19630785286426544,-0.08645178377628326,0.06484925001859665,0.061567116528749466,-0.1241290420293808,0.20887324213981628,0.08341106027364731,0.03725577890872955,-0.042075853794813156,0.1620517522096634,0.017083648592233658,-0.07137437164783478,0.11729556322097778,0.1469573676586151,-4.076119512319565e-05,-0.10915029048919678,-0.0013616327196359634,0.014459215104579926,-0.2066839635372162,-0.41373270750045776,0.02868436835706234,0.07195955514907837,0.09829118847846985,-0.1933126002550125,-0.14614532887935638,-0.032040905207395554,-0.01538906991481781,0.2232138216495514,0.043899670243263245,-0.04198060184717178,-0.10645618289709091,-0.13302479684352875,0.05255424231290817,0.136969193816185,0.04608110710978508,-0.11924102902412415,-0.24384859204292297,-0.19831149280071259,0.07291831821203232,0.1113913357257843,-0.26461610198020935,-0.11474258452653885,0.29924753308296204,-0.09113121032714844,-0.2205801010131836,0.03098401054739952,-0.12345736473798752,0.16303929686546326,0.025745416060090065,0.11549372971057892,0.07908108830451965,-0.24801410734653473,-0.025599272921681404,-0.006310862489044666,0.239060640335083,0.15632614493370056,-0.03161594271659851,-0.2774735689163208,0.005565498024225235,-0.11692139506340027,0.30089762806892395,0.2262122929096222,0.04882233589887619,-0.08718240261077881,0.0889563113451004,0.22384978830814362,-0.2322651594877243,-0.019949473440647125,-0.02398735284805298,-0.08941899240016937,0.026288386434316635,-0.18928003311157227,0.1079614907503128,0.15249237418174744,0.12150486558675766,0.17479988932609558,0.07479463517665863,0.2957773208618164,0.07657146453857422,0.1236184760928154,0.022398099303245544,0.005043303593993187,-0.21236591041088104,0.2643839120864868,-0.20061984658241272,0.09312078356742859,0.3393535614013672,0.12187986075878143,-0.15370796620845795,-0.12258721888065338,0.06366640329360962,0.17741239070892334,0.37466907501220703,-0.11795264482498169,-0.34735560417175293,-0.09058232605457306,0.11204354465007782,-0.19226786494255066,-0.10390662401914597,0.11480274796485901,0.07660207152366638,0.044496893882751465,-0.13438726961612701,-0.1456899791955948,0.0480399951338768,-0.03671150654554367,-0.16270196437835693,0.04868017137050629,-0.12286356836557388,-0.18827790021896362,-0.04021216183900833,-0.21448519825935364,-0.09129124879837036,0.13641712069511414,-0.3329477310180664,-0.14399686455726624,-0.09595957398414612,-0.15343345701694489,-0.16194093227386475,0.20441412925720215,0.006658855825662613,-0.10010187327861786,-0.1981939673423767,0.058695804327726364,0.11842675507068634,-0.13148221373558044,-0.05652197450399399,0.2763984799385071,0.06656359136104584,0.1408940851688385,-0.2110578417778015,0.026482336223125458,0.0504891574382782,0.18121953308582306,0.15406423807144165,-0.12051989138126373,0.2241348773241043,0.016666412353515625,0.05523616075515747,0.014847987331449986,-0.0256163589656353,-0.16516152024269104,-0.0323602631688118,0.04519016295671463,-0.22243502736091614,-0.24445435404777527,0.09352706372737885,0.055618032813072205,0.051636721938848495,-0.05118914693593979,0.06030627712607384,-0.35710492730140686,-0.026577234268188477
CID000002662,-0.1149749904870987,-0.08196400851011276,0.16138947010040283,0.2739846110343933,0.1975330114364624,0.22091630101203918,-0.22974498569965363,-0.35507291555404663,-0.11805189400911331,-0.2593727111816406,-0.08164480328559875,-0.16771717369556427,-0.10405690968036652,0.21501047909259796,0.24772006273269653,-0.3489062786102295,-0.20130619406700134,-0.4714510142803192,0.2564791440963745,0.05030374228954315,-0.4096110463142395,-0.201274573802948,-0.06639216095209122,0.008461594581604004,0.013941172510385513,0.2870365381240845,-0.18372878432273865,0.33250999450683594,0.1600881665945053,0.09166686236858368,0.09121520817279816,-0.17633582651615143,-0.2586250305175781,0.10105535387992859,0.3145878314971924,-0.1443607658147812,0.14336073398590088,-0.10464067757129669,0.224668487906456,0.09646479785442352,-0.06841951608657837,0.06615614145994186,-0.1284412145614624,0.0417049266397953,0.020880524069070816,0.023059319704771042,0.03895143046975136,-0.18527498841285706,0.05587263032793999,-0.07734023034572601,-0.27346566319465637,-0.0529356375336647,0.37874794006347656,0.10028383135795593,-0.1236019879579544,-0.20997746288776398,-0.003285260871052742,-0.03574357554316521,0.24237462878227234,0.0562051422894001,-0.2771230638027191,-0.4698999524116516,-0.35084596276283264,0.16841141879558563,-0.13485479354858398,-0.055940914899110794,0.006666688248515129,0.2642834782600403,-0.022233199328184128,0.1000780314207077,0.013122282922267914,0.020800549536943436,0.15377506613731384,-0.039606332778930664,0.19884897768497467,-0.10533648729324341,-0.3931437134742737,-0.27147912979125977,-0.09587276726961136,0.12752293050289154,0.2541176676750183,-0.26204800605773926,-0.22890518605709076,0.01749429851770401,0.5448923110961914,0.04544096067547798,-0.42233747243881226,-0.11243033409118652,0.10024871677160263,0.3612356185913086,-0.07905037701129913,0.36518970131874084,0.117369145154953,-0.3651541471481323,-0.31458064913749695,-0.28339409828186035,-0.10486236214637756,-0.07490649074316025,0.19915638864040375,0.008915899321436882,-0.38512471318244934,0.16373009979724884,-0.05716824531555176,0.13071072101593018,0.16712576150894165,0.26791611313819885,0.22483180463314056,-0.033075325191020966,-0.06410375237464905,0.08361044526100159,-0.19766202569007874,0.26871806383132935,0.1854754388332367,-0.1547544002532959,0.24186702072620392,0.12922483682632446,-0.04719775915145874,0.19378522038459778,-0.17660211026668549,-0.30901259183883667,0.09107349812984467,-0.31850001215934753,-0.2678845524787903,0.10232261568307877,-0.14408400654792786,0.22964495420455933,0.04313459247350693,-0.1024484932422638,-0.09483344852924347,-0.13738295435905457,0.3393650949001312,-0.16878293454647064,0.10929057747125626,0.09978803992271423,0.11410210281610489,-0.08649171888828278,-0.15824097394943237,0.0466582253575325,-0.11765527725219727,0.22831274569034576,0.006226770579814911,-0.15659178793430328,0.02307773008942604,-0.36721527576446533,-0.13255812227725983,0.13299143314361572,0.06748805195093155,0.1203588992357254,-0.006929226219654083,-0.31041595339775085,0.15470831096172333,-0.19498082995414734,-0.11405566334724426,0.13826677203178406,0.11795959621667862,-0.36299580335617065,-0.4461718499660492,0.0504523441195488,0.13600701093673706,-0.10872607678174973,-0.23081645369529724,-0.10906572639942169,-0.07860896736383438,-0.2542473375797272,-0.05417504161596298,0.20365934073925018,-0.32794541120529175,-0.0433783121407032,0.13650447130203247,-0.2187301516532898,0.0942065641283989,-0.13549979031085968,-0.1684533655643463,0.056113407015800476,-0.39725422859191895,0.1262403279542923,-0.2836001515388489,0.17186634242534637,0.38085857033729553,0.2144206315279007,0.25026360154151917,0.18659941852092743,-0.012476138770580292,-0.2285211980342865,-0.16910341382026672,0.06820415705442429,0.20769305527210236,-0.18650434911251068,0.3944680094718933,0.08735525608062744,0.16274774074554443,-0.22728532552719116,-0.22327499091625214,0.07289174199104309,0.34688800573349,0.2535645067691803,0.06574837863445282,-0.20613865554332733,-0.07905976474285126,0.1766773760318756,-0.11424762010574341,-0.10909155756235123,0.2808831036090851,-0.14638742804527283,-0.13616974651813507,-0.0945148915052414,-0.10241647809743881,0.05496230721473694,-0.10261517763137817,-0.12369651347398758,-0.1693233847618103,0.16789716482162476,0.17596524953842163,0.1271156668663025,-0.2118401825428009,-0.1680222600698471,0.24263820052146912,-0.11980801820755005,-0.007126033306121826,-0.19928205013275146,-0.20826126635074615,-0.0658877044916153,0.12394359707832336,0.4758431613445282,-0.26131507754325867,-0.0716618075966835,0.24106383323669434,0.19049276411533356,-0.16307494044303894,-0.20952385663986206,0.10308817028999329,0.3409528434276581,0.18065844476222992,-0.09512969106435776,-0.10162408649921417,0.11712340265512466,0.15045037865638733,-0.16604456305503845,0.12827932834625244,0.43914616107940674,0.07706476002931595,0.03751731291413307,0.28093239665031433,0.21402272582054138,-0.1835658848285675,-0.005910297855734825,0.15777188539505005,-0.1813613772392273,-0.22610348463058472,0.19751253724098206,0.19997575879096985,-0.3280739188194275,-0.18149949610233307,0.220178484916687,-0.2030801624059677,0.043503791093826294
CID000003059,0.31422480940818787,-0.11874519288539886,0.2190144658088684,0.07563689351081848,0.20243549346923828,0.16817590594291687,0.020361796021461487,-0.20459283888339996,-0.4974837303161621,0.05548165738582611,-0.04769980534911156,-0.15127702057361603,-0.2600696086883545,0.1293337196111679,0.06647995114326477,0.23328113555908203,-0.16556429862976074,-0.11736907064914703,-0.0332607701420784,0.2254200279712677,-0.1719290018081665,-0.19053469598293304,-0.6637076735496521,0.1820513904094696,0.8078150153160095,0.04137755185365677,0.3786233365535736,0.26592302322387695,0.07319952547550201,0.4248300790786743,-0.5073094964027405,-0.43292051553726196,-1.4251718521118164,0.23939575254917145,0.2432824671268463,0.1769299954175949,0.42487096786499023,-0.014290202409029007,0.30649974942207336,0.11763817071914673,-0.05989176779985428,0.07555340975522995,-0.02060091495513916,0.1034344881772995,0.27952641248703003,-0.06499853730201721,-0.030015289783477783,-0.31269729137420654,-0.15273113548755646,0.2211553156375885,0.20259031653404236,0.3063805401325226,-0.0029588229954242706,-0.0011182799935340881,-0.2728182375431061,0.033308375626802444,0.17298007011413574,-0.211099773645401,-0.14773844182491302,0.04318305104970932,-0.18460868299007416,-0.9460728168487549,-0.15831711888313293,0.09898383915424347,0.07898292690515518,-0.4295859634876251,0.009178563952445984,0.34571775794029236,0.0033590225502848625,0.1453474760055542,-0.0076387859880924225,-0.26301074028015137,0.22232182323932648,0.15305355191230774,0.0027856193482875824,0.008127830922603607,-0.05453009158372879,-0.1829213798046112,0.3250916600227356,0.5711990594863892,-0.23933768272399902,0.47194740176200867,-0.0825745016336441,-0.5427985191345215,0.5490885376930237,-0.14163357019424438,0.5117502212524414,-0.10405509918928146,-0.20248211920261383,-0.28357627987861633,-0.20221863687038422,-0.2559913992881775,0.061433255672454834,-0.19969671964645386,-0.9884462356567383,-0.12600550055503845,0.14423297345638275,0.0004115253686904907,-0.06237923353910446,-0.03214903920888901,-0.04749029502272606,-0.036637015640735626,0.4101054072380066,-0.45092886686325073,0.014418426901102066,-0.04938260465860367,0.03134731948375702,-0.29675203561782837,0.1179584488272667,-0.12408088147640228,-0.13719157874584198,-0.06856875121593475,0.08093537390232086,-0.15161412954330444,0.1612301468849182,0.11996091902256012,0.24074822664260864,0.03809816390275955,-0.19833771884441376,0.11083287745714188,0.23832088708877563,-0.1139022707939148,0.12304259836673737,0.010413143783807755,-0.09509614109992981,-0.03540005162358284,-0.03828933835029602,-0.08964954316616058,0.18574941158294678,-0.1769476681947708,0.22231626510620117,0.11112088710069656,-0.40991657972335815,-0.3548743724822998,-0.3219451904296875,-0.3224983811378479,0.17737115919589996,-0.06786155700683594,0.005869217216968536,-0.256839781999588,0.09084045141935349,-0.015716269612312317,0.19886310398578644,0.10536680370569229,-0.2888629734516144,-0.20813779532909393,-0.020061418414115906,-0.027680158615112305,-0.16241107881069183,-0.17530180513858795,0.021138332784175873,0.3184424340724945,0.0006150752305984497,0.06306812167167664,-1.3050665855407715,-0.01645299792289734,0.08072564005851746,0.2723316252231598,0.3965591788291931,0.25054627656936646,0.2448536455631256,0.12054678052663803,-0.2298617959022522,-0.08412696421146393,0.07288229465484619,0.2747190594673157,-0.22562895715236664,0.5961081981658936,-0.06182439625263214,-0.5016785264015198,0.04203174263238907,-0.03988956660032272,-0.36325502395629883,-0.13455024361610413,0.020902469754219055,-0.20157331228256226,-0.03660648316144943,0.1263410747051239,1.8707902431488037,0.16036184132099152,-0.1847066581249237,-0.09183938801288605,-0.6565423011779785,0.0694875419139862,-0.4635746479034424,0.08095663785934448,0.6611133813858032,0.2891273498535156,-0.2585586607456207,0.022892426699399948,-0.12923744320869446,0.0996064841747284,-0.10590663552284241,-0.09059488773345947,0.5947844982147217,0.4186915457248688,-1.0804147720336914,-0.3437163829803467,0.06630843877792358,0.2556380033493042,-0.005295999348163605,0.050210725516080856,-0.0036113932728767395,-0.20359066128730774,-0.331085741519928,-0.39445987343788147,-0.08397053182125092,0.05332622304558754,-0.219359889626503,-0.17871958017349243,0.000906236469745636,-0.22943845391273499,-0.1793559491634369,-0.0744829922914505,-0.29012975096702576,-0.17896917462348938,0.2343352735042572,-0.3683149218559265,-0.08732452988624573,0.32439228892326355,-0.5932166576385498,0.03372857719659805,0.5949718952178955,-0.15082132816314697,-0.15551069378852844,-0.2790234684944153,-0.09418514370918274,0.32306352257728577,-0.3045920729637146,-0.19236120581626892,0.012297987937927246,0.2748012840747833,0.05047241970896721,-0.07735520601272583,-0.012397706508636475,0.17067505419254303,0.11409240961074829,-0.14959517121315002,0.012264508754014969,0.34171703457832336,0.04887177050113678,0.8707071542739868,-0.11323754489421844,0.2260124236345291,-0.5808678269386292,0.03340357169508934,0.2607784867286682,-0.0625663623213768,-0.22382822632789612,0.09629765152931213,0.022469472140073776,-0.1159137710928917,-0.05892205983400345,0.2284267544746399,-0.5108706951141357,0.48332709074020386
CID000001302,0.8896241188049316,0.09388858079910278,1.1414250135421753,0.016789784654974937,0.5051799416542053,2.024306535720825,-0.30153602361679077,0.04716053605079651,-1.612389326095581,-1.1743768453598022,0.11141590029001236,-0.48569101095199585,0.6800575256347656,-0.16749846935272217,-2.933804750442505,-1.5386101007461548,-0.7034592628479004,-1.0593088865280151,2.6261143684387207,0.23793566226959229,-0.22981591522693634,-1.9672527313232422,-4.368185043334961,0.6087840795516968,3.971137762069702,0.31313177943229675,-3.4093101024627686,4.032863616943359,0.9075781106948853,1.5700221061706543,-3.603240966796875,-1.3745030164718628,-4.652123928070068,2.56396746635437,1.143454670906067,0.26894107460975647,2.1726021766662598,-0.6403677463531494,2.3933660984039307,1.0056703090667725,-0.9891176223754883,-1.3767890930175781,-0.42405298352241516,1.1648422479629517,0.9856361746788025,0.5666359663009644,-0.04182598739862442,-0.5862769484519958,-0.31927362084388733,3.3676857948303223,-1.4856855869293213,2.9711456298828125,-0.03287096694111824,-0.017227977514266968,-0.2553487718105316,-0.09615420550107956,0.3509409725666046,-1.4288511276245117,-0.24985024333000183,-0.5469350814819336,-1.638361930847168,-3.736645460128784,-0.5279014706611633,0.2843656539916992,0.9516409039497375,-0.6241041421890259,-1.1208173036575317,3.576735019683838,-0.7593555450439453,1.4360973834991455,-0.09363153576850891,-0.9759368300437927,2.3384957313537598,-0.3850105106830597,0.9394291043281555,-1.1344767808914185,-1.0076556205749512,-1.4073238372802734,1.326173186302185,1.477620005607605,-0.38601231575012207,1.6610264778137207,-1.8027524948120117,-2.0676183700561523,6.318085193634033,0.15140971541404724,-3.7166738510131836,-0.8344036340713501,-0.7789422273635864,3.3491291999816895,-0.014092804864048958,0.2031358927488327,1.168769121170044,-0.17178037762641907,-4.713154315948486,-1.2508141994476318,0.6689927577972412,-0.5205575823783875,-0.14223572611808777,-0.27913355827331543,-2.1908936500549316,0.08562511205673218,5.723753929138184,-2.8219895362854004,-2.229724645614624,1.1450996398925781,-0.0789402648806572,-1.9316080808639526,0.8437701463699341,-1.0120617151260376,-0.5660074949264526,-0.5855844020843506,2.8926029205322266,-0.9368289709091187,-0.41308116912841797,2.616594076156616,1.8533610105514526,-0.13429376482963562,-1.5396437644958496,-0.19758740067481995,1.586003303527832,-0.2153664231300354,-2.6042540073394775,0.8698807954788208,-0.040594376623630524,0.9163880944252014,-2.551374912261963,-1.5306591987609863,1.3698281049728394,-0.16740760207176208,0.848124623298645,-0.5333232283592224,-2.532405376434326,-1.8662726879119873,-0.1246439665555954,0.07710838317871094,1.2757295370101929,0.14426805078983307,-0.6235090494155884,-0.7182437181472778,-0.9951712489128113,-0.9144129157066345,0.8995571732521057,-1.265179991722107,-1.0355149507522583,0.1625552475452423,0.06237664446234703,0.8110836744308472,-0.2010105699300766,-0.7880920767784119,-0.2546960413455963,0.037370339035987854,0.25685375928878784,1.8694592714309692,-2.742459535598755,-1.38358736038208,1.1533700227737427,1.7610108852386475,1.2995644807815552,-0.7146410942077637,-1.5624598264694214,0.5713538527488708,-0.7625093460083008,0.1849900186061859,4.764787673950195,0.1488475799560547,-0.47056543827056885,2.013265609741211,-0.0777517557144165,-1.6545162200927734,0.6617235541343689,1.6148911714553833,-1.474171757698059,-0.050460368394851685,-0.21726876497268677,-0.25217291712760925,-0.5324211716651917,0.16575971245765686,9.661836624145508,2.0933680534362793,-0.046887509524822235,0.6334533095359802,-7.739197731018066,-0.8728857636451721,-0.8837835192680359,-0.5815829634666443,2.3972344398498535,-0.7861179709434509,-1.9530329704284668,3.3536312580108643,-2.3547728061676025,-0.7740838527679443,-1.8588680028915405,-0.2713589072227478,1.577655553817749,2.270465612411499,-5.091278076171875,-3.159088611602783,0.09347742795944214,2.4880003929138184,-2.5538253784179688,-0.7484930753707886,1.6358987092971802,0.37292173504829407,-1.152166724205017,-1.5932856798171997,-0.8647425174713135,0.555255115032196,-1.870949149131775,-0.7815588116645813,0.3634050488471985,-0.814334511756897,0.2984012961387634,-0.4592529535293579,-2.493715524673462,-1.277411699295044,0.9088117480278015,-2.882347583770752,0.04256107285618782,-0.535969614982605,-1.1745717525482178,0.07149738073348999,2.0686440467834473,1.0520845651626587,-1.2165416479110718,0.4046509861946106,0.42038384079933167,1.1445928812026978,-1.2211494445800781,0.39545005559921265,3.654951810836792,0.10014315694570541,1.5678460597991943,-1.8529198169708252,0.050581589341163635,1.1185132265090942,0.9511725902557373,-0.7351465821266174,0.5437210202217102,0.5780893564224243,1.729906439781189,1.7233562469482422,0.3891732394695282,0.8666709661483765,-1.184192180633545,0.12027245759963989,1.0804136991500854,-0.5044056177139282,-2.3170688152313232,2.1539313793182373,2.0565896034240723,-1.6608301401138306,0.14201883971691132,1.5053972005844116,-4.598818302154541,1.5391316413879395
CID000003161,1.4518781900405884,0.5460383296012878,3.3755733966827393,0.3383532166481018,1.0989341735839844,3.98551082611084,-0.914467453956604,-1.548011302947998,-2.7602031230926514,-0.566745400428772,-0.7113274335861206,-0.29867249727249146,-0.7219358682632446,0.8452289700508118,-4.463448524475098,-0.6704100370407104,-1.9741522073745728,-0.8893733024597168,1.8189738988876343,0.8421429991722107,0.48977723717689514,-2.525392532348633,-10.837292671203613,0.34139639139175415,3.6099236011505127,1.8230178356170654,-7.330126762390137,2.3416008949279785,2.469280242919922,1.703920841217041,-3.876612901687622,-0.2492467314004898,-2.0924596786499023,2.105313777923584,1.8555185794830322,-1.4045919179916382,-0.13331952691078186,-0.37175992131233215,3.4860479831695557,1.7859315872192383,-2.655048131942749,-1.291743278503418,-1.3887423276901245,2.1411705017089844,0.14781543612480164,0.13846786320209503,0.21836689114570618,-0.8752701282501221,0.8147885203361511,2.724680185317993,-1.2611758708953857,4.2935028076171875,1.889854907989502,-0.81812584400177,-0.9094640612602234,-1.1329742670059204,-0.31061163544654846,-3.0953209400177,-0.3382938504219055,0.03828863427042961,-2.617382526397705,1.5290008783340454,-0.8269656896591187,2.182771921157837,0.5615797638893127,-2.2195918560028076,-1.4493649005889893,4.383495330810547,-2.4358274936676025,2.444838523864746,-0.9574713706970215,-2.025845766067505,3.29064679145813,1.056785225868225,2.663414478302002,-0.6459929943084717,-0.8176453113555908,-0.7871148586273193,2.087975025177002,0.94427090883255,-1.8270769119262695,3.905025005340576,-0.4519248306751251,-5.188419342041016,11.103555679321289,-0.39419007301330566,-6.036150932312012,-2.4047791957855225,-0.4326261579990387,7.35228967666626,0.3161713778972626,1.3600056171417236,1.2497378587722778,0.9020524621009827,1.8128173351287842,-1.8526372909545898,1.0430667400360107,-0.8785345554351807,-0.4393576383590698,-1.0289145708084106,-0.4072146415710449,-0.25744664669036865,4.468280792236328,-4.760722637176514,-2.6407721042633057,1.8403109312057495,-1.2340643405914307,-4.088108539581299,1.8530410528182983,0.4798475205898285,-2.3854739665985107,1.5230070352554321,2.2377970218658447,-0.7111979722976685,0.2929758131504059,2.6971988677978516,2.68689227104187,0.033995434641838074,-2.185124635696411,0.059631481766700745,3.0986058712005615,-1.2451746463775635,-9.152657508850098,-0.04251681640744209,-0.11962532997131348,0.7229207754135132,-5.623722553253174,-2.260806083679199,0.9981855154037476,-1.8837696313858032,1.6445170640945435,0.3300173580646515,-3.5353024005889893,-6.167810916900635,1.1035226583480835,-0.1314350962638855,1.6620677709579468,-0.19575251638889313,-0.9286733865737915,-1.5493812561035156,0.40862104296684265,-0.35719847679138184,0.8304994702339172,-1.2248157262802124,-1.9515159130096436,-0.398370623588562,0.23442205786705017,-1.1494992971420288,-0.07824285328388214,-1.4668375253677368,0.004854433238506317,-0.5455209016799927,0.9656634330749512,1.0521901845932007,-3.1692819595336914,2.1482889652252197,2.391885280609131,2.4233763217926025,0.23360726237297058,-1.9151588678359985,-5.414876461029053,1.2668575048446655,-1.1983035802841187,-0.9364749789237976,-0.526017427444458,-1.0520292520523071,-0.7932457327842712,3.135009765625,-2.8974618911743164,-4.507845401763916,0.24355445802211761,2.084015130996704,-2.3111116886138916,0.7691259384155273,-1.3134126663208008,-0.4191487431526184,0.26685434579849243,1.9222004413604736,8.726313591003418,0.43513786792755127,-1.1614210605621338,-0.2357761114835739,-20.350631713867188,0.9288357496261597,-0.49984753131866455,-0.9553223252296448,5.9051408767700195,0.23005864024162292,-2.33797025680542,7.431570529937744,-3.1038057804107666,-0.46426597237586975,-2.0944509506225586,-0.719326376914978,3.381685972213745,1.604825496673584,-6.58603572845459,-3.0647642612457275,0.017516545951366425,5.855642795562744,-9.89598274230957,0.49127110838890076,3.6760246753692627,-1.1900204420089722,-4.41573429107666,-3.548473358154297,-1.1322643756866455,3.0059123039245605,-3.084371566772461,-1.1026935577392578,2.203670024871826,-1.2440378665924072,-0.2261461466550827,-0.11448515951633453,-2.7544960975646973,-3.151214838027954,1.4361770153045654,-2.785715341567993,1.3909218311309814,0.12474861741065979,-4.608414173126221,-0.7765973210334778,9.142422676086426,1.0392478704452515,-0.7965688705444336,-1.2283357381820679,-0.8697121143341064,5.923165798187256,-5.478358268737793,-0.1996641606092453,1.4260221719741821,0.4356526732444763,2.1190218925476074,-1.8557428121566772,-0.8241685628890991,2.245612621307373,0.31120944023132324,-1.3576568365097046,1.932660460472107,6.673272132873535,3.2555534839630127,3.0430779457092285,-0.5561106204986572,1.4189882278442383,-0.8443283438682556,-0.36493414640426636,3.6594793796539307,-1.2547067403793335,-3.0432121753692627,3.0711381435394287,1.6798983812332153,-0.243272066116333,-0.06286650896072388,2.610440254211426,0.8263458609580994,4.292543888092041
CID000000191,0.6254057884216309,0.2391291707754135,0.8092347979545593,0.20943859219551086,-0.24016395211219788,0.9343743920326233,-0.12069112062454224,0.23362194001674652,-0.4222072958946228,0.05125357210636139,-0.32668107748031616,-0.07937987148761749,-0.08174699544906616,0.0009982511401176453,-0.7097260355949402,-0.1904504895210266,-0.30473592877388,-0.29809442162513733,0.6548729538917542,-0.01423153281211853,-0.21058829128742218,-0.4429246187210083,-1.9836727380752563,0.3578189015388489,2.1158041954040527,0.2111903727054596,-0.4871107339859009,0.8543370962142944,0.2719041705131531,1.000118374824524,-0.5384741425514221,-0.6791796088218689,-1.54046630859375,0.7190689444541931,1.0924596786499023,-0.1933141052722931,1.5780006647109985,-0.30533933639526367,0.8111586570739746,0.15946701169013977,-0.14327816665172577,0.025595825165510178,0.09934987872838974,0.2314475029706955,-0.061205945909023285,-0.146390900015831,-0.14177244901657104,-0.36704352498054504,-0.006199531257152557,0.3251439929008484,-0.48072415590286255,1.101562261581421,0.01069926843047142,-0.2048145830631256,-0.5425541400909424,-0.22166456282138824,0.26264265179634094,-0.45437830686569214,-1.3635039329528809,0.2636287808418274,-0.5937538743019104,-1.9979777336120605,-0.41455763578414917,0.38134562969207764,0.31174543499946594,-0.20656293630599976,-0.2446867674589157,0.677421510219574,-0.14134159684181213,0.9014555215835571,0.24432706832885742,-0.9234393239021301,0.949958860874176,0.1793997883796692,0.574537992477417,-0.10209628939628601,-0.28582996129989624,-0.31486985087394714,0.5617347955703735,0.5282413959503174,-0.52599036693573,1.7328124046325684,-0.2156369388103485,-2.05641508102417,1.605362057685852,0.032660115510225296,-0.2914467453956604,-1.0386594533920288,-0.17260922491550446,1.1477197408676147,-0.02658713422715664,0.1664348989725113,-0.14389899373054504,0.32590723037719727,-1.7409065961837769,-0.2763693034648895,0.23908643424510956,-0.031290650367736816,0.2607603073120117,-0.9741793870925903,-0.1587730050086975,-0.05328649282455444,0.9530210494995117,-1.268686056137085,-0.33064404129981995,0.3326220214366913,-0.2550581097602844,0.1204691082239151,0.4824100136756897,0.12778861820697784,-0.45068269968032837,-0.03241487592458725,0.1647602915763855,-0.1467469483613968,0.043804168701171875,0.2785859704017639,0.5374506115913391,-0.06192126125097275,-0.35420310497283936,-0.011162295937538147,0.5051183104515076,-0.08312322199344635,-1.2558401823043823,0.33201590180397034,-0.003102995455265045,0.06808635592460632,-0.5474069714546204,-0.37074562907218933,0.22458548843860626,-0.9236949682235718,0.5514957308769226,0.18325892090797424,-1.435082197189331,-1.232265830039978,-0.4812076687812805,-0.16844616830348969,0.21402156352996826,-0.20129163563251495,-0.02712787315249443,-0.11191273480653763,-0.0773792564868927,0.18167531490325928,0.31730836629867554,0.055510200560092926,-0.3578334450721741,-0.01752985268831253,-0.269300639629364,0.05018584430217743,0.15058885514736176,-0.48123541474342346,0.20257186889648438,0.06303343921899796,-0.35343343019485474,0.33743515610694885,-0.7398415207862854,0.6617600917816162,-0.0016305637545883656,0.7177989482879639,1.2580548524856567,0.02540316805243492,-0.30726224184036255,0.15208040177822113,-0.17935609817504883,-0.19874972105026245,0.6038119792938232,0.23259520530700684,-0.21133747696876526,1.2323110103607178,-0.04533220827579498,-1.244208812713623,-0.21711024641990662,0.1607738733291626,-0.18147309124469757,0.1607069969177246,-0.9608469605445862,-0.15800470113754272,0.33633244037628174,0.8320403099060059,2.8029944896698,1.296609878540039,-0.05249933898448944,0.005574602633714676,-2.2514588832855225,0.2513357102870941,-0.29461872577667236,-0.1308300793170929,1.1880316734313965,0.2407500445842743,-0.850161612033844,0.5087416768074036,-0.2808705270290375,0.034495167434215546,0.06223021447658539,-0.17598174512386322,1.5246480703353882,-0.01596478372812271,-3.0468153953552246,-0.9816861152648926,0.15918688476085663,0.8176003098487854,-1.553851842880249,0.021584616973996162,0.44968080520629883,0.09129117429256439,-0.5955456495285034,-1.136027216911316,-0.21032780408859253,0.6387327313423157,-0.3752249777317047,0.01040959358215332,0.5549084544181824,-0.21081605553627014,0.08500944077968597,0.16457277536392212,-0.4620712399482727,-0.4391361474990845,0.5076702833175659,-0.6061651706695557,0.10710087418556213,0.011867884546518326,-1.1537073850631714,-0.17091506719589233,0.2775942385196686,1.343937873840332,-0.5133675336837769,-0.05288655310869217,0.0216089878231287,0.4698554277420044,-1.2163738012313843,-0.003117542713880539,1.649732232093811,0.3566363751888275,0.4524959921836853,-0.2807602286338806,-0.22769367694854736,1.5825285911560059,0.2916134297847748,-0.19527065753936768,0.005677402019500732,1.4217199087142944,0.2113104909658432,1.2902981042861938,-0.2158668488264084,1.0266517400741577,-0.7803134918212891,0.3285670280456543,0.3877486288547516,-0.1798609495162964,-0.6907997727394104,0.6304006576538086,0.1594007909297943,-0.09565871208906174,0.11286693811416626,0.071434885263443,-0.9515079259872437,0.7251657247543335
CID000003324,0.536662757396698,-0.4184672236442566,0.3374485671520233,0.10295487940311432,-0.08392348140478134,0.5411452651023865,-0.1387038230895996,0.18247821927070618,-0.19623787701129913,-0.2651436924934387,-0.29839378595352173,-0.11689843237400055,-0.09462844580411911,-0.20002694427967072,-0.5458664894104004,-0.3058362603187561,-0.2604907751083374,-0.3279302716255188,0.39196401834487915,0.1770964115858078,0.1249305009841919,-0.2760024964809418,-0.6795333027839661,0.13476184010505676,1.8503018617630005,0.04281195253133774,-0.9635071754455566,0.6539458632469177,0.5051519870758057,-0.015757247805595398,-0.271702378988266,-0.2894076108932495,-0.4026636779308319,0.24069850146770477,0.5018784403800964,-0.017595238983631134,0.5696207284927368,-0.11701246351003647,0.5205726623535156,0.2845395803451538,-0.12598948180675507,0.23017647862434387,0.00757722370326519,0.2777676284313202,0.12132491171360016,0.12072952091693878,-0.16063542664051056,-0.18295247852802277,0.0773083046078682,0.5750922560691833,-0.5231198668479919,0.7179319858551025,-0.026993580162525177,-0.05825333297252655,-0.36928069591522217,-0.09230592101812363,0.29081231355667114,-0.3186551332473755,-0.18913733959197998,0.045907825231552124,-0.46156975626945496,-0.5475994944572449,-0.326211154460907,0.21817469596862793,0.2559598684310913,0.05357861518859863,-0.015161573886871338,0.4229705333709717,-0.048512205481529236,0.4748436212539673,0.040139034390449524,-0.3263047933578491,0.5195246338844299,0.04123418778181076,-0.029953844845294952,-0.07686688750982285,-0.10709185898303986,-0.20079483091831207,0.13925032317638397,0.06072315573692322,-0.10953009128570557,1.1029000282287598,-0.20851436257362366,-0.992139458656311,0.6916788220405579,-0.06600446254014969,-0.8503541946411133,-0.6254743337631226,-0.07439462840557098,1.515342354774475,-0.2105664759874344,0.16553792357444763,-0.051670849323272705,0.2157529890537262,-0.6469636559486389,-0.0509992390871048,0.14578092098236084,-0.009122075513005257,0.21295683085918427,-0.573438286781311,-0.18163789808750153,-0.0012739971280097961,0.14803478121757507,-0.6449241042137146,-0.3912285268306732,0.3042278587818146,-0.07593394815921783,0.06367248296737671,0.30097702145576477,0.0018628323450684547,-0.4235510230064392,-0.03393454849720001,0.18232959508895874,0.0798979178071022,-0.004664868116378784,0.2760472297668457,0.5886873602867126,0.13569465279579163,0.02085248753428459,0.08157127350568771,0.4848478138446808,-0.03462817519903183,-1.3590599298477173,0.24170827865600586,-0.06866943091154099,0.0032504163682460785,-0.8974126577377319,-0.2323068529367447,0.02513592690229416,0.11729174107313156,0.3645695745944977,0.02249787747859955,-0.8007239699363708,-1.3527692556381226,-0.3495591878890991,-0.10218098759651184,0.15967491269111633,0.10923552513122559,-0.11647339165210724,-0.12091696262359619,-0.06681479513645172,0.11773057281970978,0.19239817559719086,-0.18403790891170502,-0.009003885090351105,0.10169639438390732,-0.08167126774787903,0.05739176273345947,-0.02950151078402996,-0.12569433450698853,0.1087547242641449,0.07382325828075409,-0.2303219735622406,0.1867939680814743,-0.3795981705188751,0.23925995826721191,0.07686570286750793,0.5467689037322998,0.3943403363227844,-0.09821856766939163,-0.35832083225250244,-0.20120345056056976,-0.10800469666719437,-0.3833288252353668,0.4036220908164978,-0.09011770784854889,-0.11379838734865189,0.10784775018692017,-0.09092257916927338,-0.827306866645813,0.0032084237318485975,-0.03980402648448944,-0.061779361218214035,0.16576895117759705,-0.472206175327301,-0.027897261083126068,0.15191051363945007,0.5977311134338379,2.315830945968628,1.2794078588485718,-0.12286661565303802,-0.10932580381631851,-1.4043563604354858,0.10024139285087585,-0.15434207022190094,0.01518314704298973,1.2008205652236938,0.09594698995351791,-0.13462010025978088,0.6157429218292236,0.006861773785203695,0.028671182692050934,0.08298428356647491,0.16668279469013214,0.9545702934265137,-0.11765673756599426,-1.8627177476882935,-0.5783699154853821,0.05586213991045952,0.6508731245994568,-1.290340542793274,0.08564133942127228,0.574251115322113,0.1571749746799469,-0.7224164009094238,-0.8319834470748901,-0.2870384752750397,0.6054253578186035,-0.1535613238811493,0.07205682247877121,0.5407984852790833,0.03388860076665878,0.09315760433673859,-0.029207438230514526,-0.12375609576702118,-0.39403268694877625,0.14120280742645264,-0.07204088568687439,0.06098286807537079,-0.1228257417678833,-0.9074361324310303,0.051105860620737076,0.20246660709381104,0.8942131996154785,-0.3644692897796631,-0.07682548463344574,0.008056450635194778,0.2419123649597168,-0.6101714968681335,-0.021700255572795868,1.4088228940963745,0.14446307718753815,0.38732439279556274,-0.20174811780452728,-0.011908762156963348,0.8334409594535828,0.2256365269422531,-0.05345121771097183,0.08143852651119232,0.758495032787323,-0.027933187782764435,1.0133004188537598,-0.086379773914814,0.2858338952064514,0.09826540946960449,0.3185463547706604,0.17616787552833557,-0.08142361044883728,-0.6032310724258423,0.5801038146018982,0.20159122347831726,-0.2474246323108673,-0.03219914063811302,-0.11847478896379471,-0.3651285469532013,1.026516079902649
CID000004911,0.4081661105155945,0.23329280316829681,0.45932164788246155,-0.0034263618290424347,0.18254312872886658,0.7957262992858887,-0.1861761510372162,-0.04728299379348755,-0.2696714997291565,-0.09023638814687729,0.09763111919164658,0.14562664926052094,-0.0714033767580986,0.07999579608440399,-0.4012753367424011,-0.01582762598991394,-0.18062500655651093,-0.5645802021026611,0.5507180690765381,0.34596216678619385,-0.11638046056032181,-0.3190453350543976,-0.5350611209869385,-0.06246087700128555,0.32039812207221985,0.23691754043102264,-0.36645933985710144,0.46509891748428345,-0.03156682848930359,0.1596621870994568,-0.4858027696609497,-0.6257067322731018,-1.108076810836792,0.28521010279655457,0.22820068895816803,-0.021852947771549225,0.31831255555152893,-0.07072869688272476,0.6099368333816528,0.11163465678691864,-0.16687960922718048,-0.17039257287979126,-0.06922131031751633,0.4488105773925781,0.49987858533859253,-0.16665847599506378,-0.12288424372673035,-0.14175622165203094,0.24784502387046814,0.5913075804710388,-0.14579840004444122,0.5085633993148804,0.07377590239048004,-0.015494169667363167,-0.25714054703712463,-0.025999385863542557,-0.005913384258747101,-0.42000263929367065,-0.5151691436767578,0.07537799328565598,-0.35661256313323975,-0.5285819172859192,-0.07389212399721146,0.033039502799510956,0.18057005107402802,-0.3731512427330017,-0.4578666090965271,0.5272408127784729,0.005810406059026718,0.23463129997253418,0.22273334860801697,-0.33082592487335205,0.49807655811309814,0.1723329722881317,0.10979533195495605,0.16744790971279144,-0.04904928803443909,-0.3800608813762665,0.3280368447303772,0.27972206473350525,-0.4043607711791992,-0.008166451007127762,-0.19483552873134613,-1.7131918668746948,0.5646066069602966,0.033106204122304916,-0.36002975702285767,-0.2701610326766968,-0.1739678978919983,0.4117963910102844,-0.12449608743190765,0.0027477294206619263,0.07046004384756088,0.10532170534133911,-1.5823798179626465,-0.288878858089447,-0.22450554370880127,-0.09924449026584625,-0.03353706747293472,-0.22313150763511658,-0.3025803864002228,-0.18919067084789276,1.7702010869979858,-1.182908535003662,-0.8266243934631348,0.2517135441303253,0.024858292192220688,-0.12141608446836472,0.11235792189836502,0.07656726241111755,-0.08078503608703613,-0.5571321249008179,0.4565158188343048,-0.5358966588973999,0.26292142271995544,0.26000791788101196,0.16439905762672424,0.03812886029481888,-0.3504166901111603,-0.08419156819581985,0.22079776227474213,-0.04033718630671501,-0.1883302628993988,0.08546071499586105,0.11640256643295288,0.4334644675254822,-0.6777448058128357,-0.23627880215644836,0.11340195685625076,-0.5929833054542542,0.48517853021621704,-0.010821882635354996,-1.1912566423416138,0.11955612897872925,-0.21764810383319855,0.14514371752738953,0.29093438386917114,-0.07726014405488968,-0.179864764213562,0.011729426681995392,0.19774073362350464,-0.12722499668598175,0.5286462903022766,-0.011889398097991943,-0.055595431476831436,0.5350408554077148,0.022609733045101166,-0.2981090545654297,-0.03853888809680939,-0.20601986348628998,0.16897910833358765,-0.02537783794105053,0.36783838272094727,0.22892078757286072,-0.04445613920688629,0.3197184205055237,0.029661111533641815,0.7686899900436401,1.114089012145996,0.079623743891716,-0.3547869622707367,0.07752251625061035,-0.5340977907180786,0.05949900299310684,0.908311665058136,0.11263790726661682,-0.3223663866519928,1.0015336275100708,-0.22957032918930054,-0.23571571707725525,0.03977595269680023,0.6440697908401489,-0.023579396307468414,-0.027621157467365265,0.1860162913799286,-0.0013962555676698685,0.16987839341163635,-0.05864398181438446,0.7888925075531006,-0.1753198802471161,-0.08462806791067123,0.03697570785880089,-2.8237433433532715,-0.01331637054681778,-0.07290621101856232,-0.4416496157646179,0.25433123111724854,0.11015975475311279,0.034639060497283936,0.254830539226532,-0.3643397092819214,-0.11857634782791138,-0.2817104160785675,0.050709664821624756,-0.022784367203712463,0.4453023076057434,-1.5510812997817993,-0.500747799873352,0.10710310935974121,0.8623659610748291,0.014734551310539246,-0.004035584628582001,-0.04412534832954407,-0.05270037055015564,-0.5199306607246399,-0.5607826709747314,-0.4365816116333008,0.48342087864875793,-0.15810005366802216,-0.3452504873275757,0.2321735918521881,0.01718069612979889,-0.6001826524734497,-0.10236331820487976,-0.4458249807357788,-0.18646173179149628,0.21106797456741333,-0.7370880842208862,0.1142425388097763,-0.04969131201505661,-0.8416647911071777,-0.02918992191553116,0.23607468605041504,0.32191306352615356,-0.533426821231842,-0.19644403457641602,0.07632814347743988,0.7854140996932983,-0.3307493329048157,0.11378546059131622,-0.00476500391960144,-0.13907146453857422,0.24784627556800842,-0.30215218663215637,0.04412397742271423,0.583480954170227,0.4253951907157898,-0.096371129155159,0.643707811832428,0.045454397797584534,-0.022979222238063812,0.33283576369285583,0.1611015349626541,0.09657861292362213,-0.48132774233818054,-0.11400330066680908,0.37863004207611084,-0.035671379417181015,-0.5106292366981506,0.2212546467781067,0.5283778309822083,0.04914895445108414,-0.01759294420480728,0.22928878664970398,-0.38000887632369995,-0.12808223068714142
CID000005525,0.20821025967597961,0.20961032807826996,0.30173349380493164,-0.5091546773910522,0.12307704240083694,1.4840141534805298,0.2768319845199585,0.15399952232837677,-0.1994255781173706,-1.451778769493103,-0.10133734345436096,0.505093514919281,0.04483160376548767,-0.2953762114048004,-0.8087359666824341,-1.0588403940200806,-0.8649663329124451,-1.7539288997650146,3.3892428874969482,0.21337416768074036,-0.06829836964607239,-1.237533688545227,-3.062319755554199,0.24693840742111206,2.8426289558410645,0.6029822826385498,-3.700955867767334,1.268044114112854,-0.35341769456863403,0.12551388144493103,-0.8845587968826294,-0.9944102168083191,-3.19179368019104,1.861320972442627,0.6185775399208069,0.6538941264152527,3.075326681137085,0.11797807365655899,3.2146716117858887,0.6885237693786621,-0.19090266525745392,-0.36626768112182617,-0.7669245004653931,0.28084245324134827,0.5454785227775574,0.02683403715491295,-0.652981698513031,-1.0233230590820312,-0.014166563749313354,2.6723172664642334,-0.8974029421806335,1.7197295427322388,-0.4497116804122925,-0.09334519505500793,-0.25398537516593933,-0.21918585896492004,-0.0994313508272171,-1.009751796722412,-0.06822187453508377,-0.4102245569229126,-1.6782186031341553,-3.937990665435791,-0.2945394515991211,-0.3002627491950989,0.25503987073898315,-0.07152070105075836,-0.9724454283714294,2.6862974166870117,-0.4784685969352722,0.6111654043197632,1.0823811292648315,-0.9156729578971863,0.942412257194519,-0.2461964637041092,1.0577001571655273,-0.48263707756996155,-0.4520728886127472,-0.5292574763298035,0.7388741970062256,0.4065200090408325,-0.9614784717559814,0.5695873498916626,-1.627644419670105,-2.735835552215576,1.2179189920425415,-0.013666339218616486,-2.6726105213165283,-0.6027371883392334,0.19310495257377625,2.377906560897827,-0.45970356464385986,-0.4780513644218445,0.4093369245529175,-0.11465900391340256,-3.3817970752716064,-0.9739969372749329,1.4119837284088135,-1.3059523105621338,-0.1877589076757431,-0.11087966710329056,-2.6156885623931885,-0.05949821323156357,4.071467399597168,-2.5877158641815186,-2.2106451988220215,1.023164987564087,-0.4304196536540985,-1.2956961393356323,0.2993648946285248,-0.016934415325522423,0.0451645664870739,-0.9098215699195862,2.2337992191314697,-0.4721665680408478,-0.44145187735557556,1.739205002784729,0.8738980889320374,-0.41017642617225647,-0.687608540058136,0.07845117896795273,1.5137200355529785,-0.4213506877422333,-3.1001241207122803,-0.1999303102493286,0.05552705377340317,0.7946726083755493,-1.8917574882507324,-0.901409387588501,0.25785404443740845,-0.4759087562561035,0.8367693424224854,-0.5801573991775513,-1.6360830068588257,-2.5856266021728516,-0.03179449588060379,0.2293965071439743,0.9787867069244385,0.9040376543998718,0.19637183845043182,0.24109210073947906,0.035880908370018005,-0.2898058295249939,0.09006857126951218,-0.7770108580589294,-0.10238902270793915,1.3780075311660767,0.28493061661720276,0.34890982508659363,0.034789424389600754,-0.7770595550537109,0.10704006254673004,0.5787168145179749,0.6357597708702087,0.8523149490356445,-1.871626853942871,-0.42507460713386536,0.33405718207359314,2.1059257984161377,0.7193034887313843,-0.1629362404346466,-2.6880078315734863,0.7037653923034668,-1.1000276803970337,0.3181220591068268,2.6647074222564697,0.5192793011665344,-0.3540024161338806,0.7232424020767212,-0.08434931188821793,-1.1695199012756348,1.1644843816757202,0.7975544929504395,-0.43751949071884155,0.15465989708900452,0.404010534286499,-1.2572481632232666,0.09993216395378113,-0.0017344759544357657,4.786099433898926,0.49838411808013916,0.44893646240234375,0.22228693962097168,-3.739163875579834,0.5986364483833313,0.3319832682609558,-0.4811229109764099,1.4746983051300049,-1.0372995138168335,-0.756278395652771,3.0442726612091064,-0.09976628422737122,-1.3768118619918823,-0.7347399592399597,0.1827678382396698,0.5478683114051819,1.5326752662658691,-3.9603683948516846,-2.7255663871765137,0.5116111040115356,1.8895313739776611,-3.98252534866333,-0.5517279505729675,1.0498353242874146,-0.22433963418006897,-2.2649331092834473,-0.2080056518316269,-0.19876185059547424,0.6908833384513855,-0.2870493531227112,-0.7467907667160034,0.021071553230285645,0.05581899732351303,-0.6611296534538269,0.11585758626461029,-2.1833765506744385,-0.7293621897697449,0.3015611469745636,-2.096449613571167,-0.07361438870429993,0.21564407646656036,-0.5613041520118713,0.24744024872779846,2.5433311462402344,0.3382292687892914,-0.335907906293869,-0.3655434548854828,-0.7641600966453552,1.6255881786346436,1.1287227869033813,-0.22070516645908356,1.4231090545654297,0.6243263483047485,1.166530728340149,-1.6220054626464844,-0.34266895055770874,0.37014514207839966,0.5316296219825745,-0.1893523931503296,0.9081115126609802,-0.059066638350486755,1.0428104400634766,0.629126250743866,0.1742715984582901,0.009115979075431824,-0.2225038707256317,0.5184927582740784,0.5740941166877747,-0.376190185546875,-2.686192274093628,0.6461870670318604,3.007056951522827,-0.12834380567073822,-0.2162269651889801,0.8315216302871704,-2.554758071899414,1.343739628791809
CID000004473,-0.10152333974838257,0.48267149925231934,0.0831848755478859,-0.33041682839393616,-0.07774735987186432,0.6226420402526855,-0.24192309379577637,-0.2382546365261078,-0.1894763708114624,-0.7402878403663635,-0.24153216183185577,-0.18883462250232697,-0.605134904384613,-0.14777052402496338,-1.347673773765564,-0.7240183353424072,-0.5656435489654541,-1.2214027643203735,1.146162509918213,-0.0439324676990509,-0.010397069156169891,-0.8011510372161865,-0.9908043742179871,0.3909881114959717,1.170363187789917,0.22010290622711182,-0.10343930870294571,0.5859733819961548,0.21806120872497559,0.18243877589702606,-0.46367746591567993,-1.032936692237854,-2.341801643371582,1.248975396156311,0.3124212920665741,-0.33576130867004395,0.780372679233551,-0.29281121492385864,1.3402174711227417,0.2830871343612671,-0.4737395644187927,-0.28108084201812744,-0.018923500552773476,0.10367392003536224,0.20878799259662628,-0.027216482907533646,-0.4491680860519409,-0.050698861479759216,0.44775065779685974,1.0231420993804932,-0.573959469795227,1.360872507095337,-0.45733582973480225,-0.0017441362142562866,-0.33876997232437134,-0.024852978065609932,0.39834585785865784,-0.7744497060775757,0.23675596714019775,-0.1899176687002182,-0.3072383999824524,-2.0158517360687256,-0.4217706024646759,0.39737173914909363,0.2677323520183563,0.02898956835269928,-1.0792536735534668,1.6692070960998535,-0.19430337846279144,1.4030756950378418,-0.13454097509384155,-0.5651092529296875,0.4588828980922699,-0.17245601117610931,0.19202233850955963,-0.12232731282711029,-0.22897523641586304,-0.7515890002250671,0.5833263993263245,0.2755892872810364,-0.1625606119632721,0.54899001121521,-1.2604305744171143,-1.6031845808029175,0.023206178098917007,0.1417282521724701,0.012844637036323547,-0.22440965473651886,-0.181935116648674,-0.06093575805425644,-0.5474987030029297,-0.20929132401943207,0.3609997630119324,0.3761405348777771,-1.6659153699874878,-0.6158991456031799,0.03924490511417389,-0.6144840121269226,0.12757758796215057,-0.12562228739261627,-0.9386943578720093,-0.06431980431079865,1.935217261314392,-0.8567603826522827,-1.3102000951766968,0.24004098773002625,0.15323586761951447,-0.3992964029312134,0.15654310584068298,0.2309856116771698,0.23464904725551605,-1.318672776222229,0.9044658541679382,-0.5077909827232361,-0.08975466340780258,1.0068973302841187,0.6714557409286499,-0.6083905696868896,-0.47166407108306885,-0.13160595297813416,0.6778729557991028,-0.6257548332214355,-0.03615191578865051,0.10303695499897003,-0.21382908523082733,0.20717856287956238,-2.213484287261963,-0.5608629584312439,0.40885037183761597,-0.5111343860626221,0.648995578289032,-0.351543664932251,-0.9477748274803162,-0.18259760737419128,0.3087560832500458,0.015829823911190033,0.40394818782806396,0.47674304246902466,-0.15819567441940308,-0.08549287915229797,0.47211843729019165,0.5875663757324219,0.15130215883255005,-0.49993428587913513,-0.11323121935129166,1.1354138851165771,0.21469058096408844,0.14131411910057068,-0.04894939064979553,0.02907480299472809,0.20119236409664154,-0.48563051223754883,0.2095733880996704,0.5250515341758728,-4.190920829772949,0.30453675985336304,0.2689548134803772,2.1213550567626953,0.5803912878036499,0.32161009311676025,-0.78421950340271,0.5494677424430847,-0.6433702707290649,-0.15226078033447266,1.1199569702148438,-0.15602844953536987,-0.23553329706192017,0.44209450483322144,-0.6162158250808716,-0.6242719292640686,0.09097160398960114,0.8745090961456299,-0.5610957145690918,-0.011804074048995972,-0.25154608488082886,-0.10311572253704071,0.13738980889320374,0.31571605801582336,3.46173095703125,1.224061131477356,0.15029031038284302,0.2109973132610321,-4.269342422485352,-0.3611716330051422,-0.11528781801462173,-0.2793287932872772,0.5817133188247681,-0.20772618055343628,-0.36842983961105347,1.6787047386169434,-0.8608303070068359,-0.44065362215042114,-0.4003636837005615,-0.003935098648071289,0.13363024592399597,0.7451635599136353,-3.357391834259033,-1.5428205728530884,0.12118685990571976,1.4070725440979004,-0.1395486295223236,-0.10576188564300537,0.4856604337692261,-0.4459455609321594,-0.1690186858177185,-0.4163607358932495,-0.49578016996383667,0.36654162406921387,-0.23742224276065826,-0.7363199591636658,0.2003541737794876,-0.22296957671642303,-0.5615724325180054,-0.06947751343250275,-1.8759905099868774,-0.7270260453224182,0.13337063789367676,-1.0461044311523438,0.14108112454414368,0.25610169768333435,-0.30987870693206787,0.3414652943611145,2.608121871948242,0.16253527998924255,-0.3404434323310852,-0.06540049612522125,0.3474886417388916,0.9915790557861328,-0.2680155038833618,0.2706969082355499,1.026043176651001,0.38767796754837036,0.5284192562103271,-0.5941095948219299,-0.1453375220298767,0.365184485912323,0.3228149712085724,-0.454262375831604,0.9213374853134155,0.028893709182739258,0.8695625066757202,-0.15442369878292084,0.5457340478897095,0.10802563279867172,-0.017870545387268066,-0.05832022428512573,0.5129666924476624,-0.7856662273406982,-1.6591545343399048,0.5511431694030762,1.5089256763458252,0.1741967499256134,-0.14346471428871155,0.4695550203323364,-1.3071794509887695,0.4639497995376587
CID000004943,0.1670914590358734,-0.045856524258852005,0.053499430418014526,-0.10699617862701416,0.29387542605400085,0.6403409838676453,-0.07243520766496658,0.06380537152290344,-0.17164020240306854,-0.06330782175064087,0.043557170778512955,-0.34387674927711487,-0.23757605254650116,-0.1166795939207077,0.026568684726953506,-0.0551370233297348,-0.2349904328584671,-0.3055756092071533,0.4828181266784668,0.11142656207084656,0.10630524158477783,-0.2967265546321869,-0.4905618131160736,-0.03706945478916168,1.026459813117981,0.1874145120382309,0.16474118828773499,0.5545047521591187,0.09379997104406357,0.179578959941864,-0.4765665829181671,-0.1431313008069992,-2.1461620330810547,0.5062012076377869,0.25107309222221375,0.0028545036911964417,0.835810124874115,-0.2660033702850342,0.7751871347427368,0.23340176045894623,-0.14573891460895538,-0.13820591568946838,-0.018609702587127686,0.17335712909698486,0.11238232254981995,-0.0611773356795311,0.0018889326602220535,-0.20186805725097656,-0.0660277009010315,0.613138735294342,-0.49869799613952637,0.41270044445991516,0.1114104688167572,-0.00418960303068161,-0.17600692808628082,-0.20365020632743835,0.1575661152601242,-0.21606530249118805,-0.07464826107025146,-0.25002092123031616,-0.3917312026023865,-1.52532958984375,-0.12441983819007874,0.1010962724685669,0.059238314628601074,-0.2847122550010681,-0.2613716721534729,0.3621930778026581,-0.12279298901557922,0.30659300088882446,0.07340428978204727,0.03985309228301048,0.3095635175704956,0.03522512689232826,0.16809552907943726,0.006104141473770142,-0.19603097438812256,-0.27228957414627075,0.3329843282699585,0.28847387433052063,-0.1834835261106491,0.35639768838882446,-0.3182731866836548,-0.5098956823348999,1.011475920677185,0.05707580968737602,0.07147285342216492,-0.3237922787666321,-0.04756137728691101,0.06881128251552582,-0.25156956911087036,0.08503249287605286,0.18198487162590027,0.20459279417991638,-1.2247494459152222,-0.3132437467575073,0.027181260287761688,-0.17067143321037292,0.0031031742691993713,-0.19495326280593872,-0.4099470376968384,0.05602699890732765,0.7023794651031494,-0.7460149526596069,-0.5705409646034241,0.15788806974887848,0.12155970185995102,-0.27873802185058594,0.18566615879535675,-0.04001239687204361,0.11963402479887009,-0.3444242477416992,0.6838570237159729,-0.10772696137428284,-0.03254931420087814,0.37803754210472107,0.16603972017765045,-0.0865594893693924,-0.23299019038677216,-0.11565758287906647,0.31071382761001587,-0.09007281064987183,0.015676282346248627,0.12463609874248505,-0.04844311624765396,0.2192629873752594,-0.28376615047454834,-0.17091427743434906,0.16288897395133972,-0.05517148971557617,0.25037315487861633,-0.2486083060503006,-0.1538417935371399,-0.1666330099105835,0.2564403712749481,0.05985826998949051,0.13193047046661377,-0.0721798911690712,0.15750741958618164,-0.24368911981582642,0.05718495324254036,-0.06838608533143997,0.4063015282154083,-0.17933127284049988,-0.08987711369991302,0.01795826107263565,0.008524853736162186,0.2598254680633545,0.003110356628894806,-0.14404641091823578,0.1438637673854828,0.1164788007736206,-0.02499043196439743,0.2967432141304016,-1.2202221155166626,0.040974974632263184,0.07643864303827286,0.7790795564651489,0.21130359172821045,-0.10583850741386414,0.11663461476564407,0.05128788948059082,-0.321840763092041,0.08324165642261505,0.6320828795433044,0.1974852979183197,-0.0768035352230072,0.3501909673213959,0.01766011118888855,-0.2272668033838272,0.1377965211868286,0.09972792863845825,-0.23807838559150696,0.026211567223072052,-0.22821097075939178,-0.19718341529369354,0.11027728021144867,0.05883932113647461,1.138332724571228,0.6102328896522522,-0.070160411298275,0.04240488260984421,-1.7202433347702026,0.0241248682141304,-0.1699604094028473,-0.3128775656223297,0.3683370351791382,-0.12867560982704163,-0.13374193012714386,0.7417718768119812,-0.005031704902648926,-0.24989406764507294,-0.17729340493679047,-0.33227062225341797,0.2534347176551819,0.17654193937778473,-1.291405439376831,-0.6583656668663025,0.15544122457504272,0.3520434498786926,-0.22592513263225555,0.05719078704714775,0.3586234748363495,-0.10560084134340286,-0.26056626439094543,-0.40558066964149475,-0.2263403832912445,0.22382090985774994,-0.2564886212348938,-0.141745924949646,0.12311829626560211,-0.2264198511838913,-0.03451429307460785,-0.06186394393444061,-0.6455524563789368,-0.32653117179870605,0.16164803504943848,-0.5562061667442322,-0.036997612565755844,-0.010212946683168411,-0.2366337925195694,0.01873960718512535,0.6063080430030823,0.3372120261192322,-0.2345580905675888,-0.06059897318482399,-0.011566795408725739,0.174993097782135,-0.26060712337493896,-0.29101234674453735,0.5892235636711121,0.25472480058670044,0.1895918846130371,-0.30451589822769165,-0.058806754648685455,0.2522044777870178,0.15200211107730865,-0.10359075665473938,0.35960108041763306,0.20609340071678162,0.4626474380493164,0.1611330509185791,0.12469001114368439,0.0638401210308075,-0.3390641212463379,0.09595708549022675,0.1588020622730255,-0.1646963357925415,-0.704987108707428,0.2039072960615158,0.4006601870059967,-0.09950593113899231,-0.09110654890537262,0.5157100558280945,-1.0268422365188599,0.16090978682041168
